%YAML:1.0
---
bikes_all: !!opencv-object-detector-hog
   winSize: [ 64, 64 ]
   blockSize: [ 16, 16 ]
   blockStride: [ 8, 8 ]
   cellSize: [ 8, 8 ]
   nbins: 9
   derivAperture: 1
   winSigma: 4.
   histogramNormType: 0
   L2HysThreshold: 2.0000000000000001e-01
   gammaCorrection: 1
   nlevels: 64
   signedGradient: 0
   SVMDetector: [ 1.71677936e-02, -5.64236566e-03, -2.17688736e-02,
       -2.63763610e-02, -1.72678065e-02, -8.18078220e-03,
       -3.13197412e-02, -5.68337273e-03, 6.38765795e-03, 1.09470831e-02,
       -1.25776438e-04, 1.00763598e-02, 3.27666476e-03, 9.16087534e-03,
       -5.78336976e-03, -1.28369154e-02, 1.30198942e-02, 1.34282103e-02,
       1.18369497e-02, -6.29389985e-03, -1.58301368e-02, -2.20626891e-02,
       -7.16082752e-04, -2.43356247e-02, -1.96452532e-02, 1.86849036e-03,
       -9.94421635e-03, 1.63092918e-03, 6.95184804e-03, -1.41861383e-02,
       -1.35879321e-02, 1.83149502e-02, -4.78528580e-03, -5.83698926e-03,
       2.48991940e-02, -5.63864736e-03, -7.64925149e-04, -1.43894705e-03,
       -4.80519095e-03, -1.15176784e-02, 1.06390249e-02, -7.93843472e-04,
       -3.59259988e-03, 1.56435966e-02, 7.23693846e-03, 8.41541309e-03,
       4.85022925e-03, -1.49710793e-02, -2.82649901e-02, -1.34009756e-02,
       1.45671992e-02, 1.84662212e-02, 2.54308991e-02, 1.74089670e-02,
       -1.95265170e-02, -1.26972152e-02, -2.95015853e-02,
       -2.11410988e-02, 2.53197793e-02, 1.19442530e-02, -1.11338487e-02,
       4.17687185e-03, -2.30798312e-02, -8.14733002e-03, -1.25305178e-02,
       -3.49985585e-02, -1.05057843e-02, 2.13294253e-02, 1.49610983e-02,
       -6.78261044e-03, 1.51150357e-02, -2.20093355e-02, -1.22778257e-02,
       -6.70460844e-03, -2.88086031e-02, -6.67512417e-03,
       -6.03670999e-03, -4.93814144e-03, 2.15619784e-02, -1.78458774e-03,
       -2.18358915e-02, -1.93185508e-02, -1.80423278e-02,
       -2.34366078e-02, 2.65541561e-02, 1.13549288e-02, 9.88961011e-03,
       1.04175797e-02, 7.73491245e-03, -4.29902934e-02, -2.16804631e-02,
       -2.88147083e-03, -2.04806067e-02, 1.70071796e-02, 1.24200769e-02,
       -1.47853680e-02, 1.66683912e-03, 7.01882271e-03, -2.43328717e-02,
       -9.75501072e-03, 2.37617828e-02, 4.95747589e-02, 3.36684845e-02,
       2.73342710e-02, 2.37227231e-02, 2.58732550e-02, 2.52393223e-02,
       -6.78300345e-03, -3.57749835e-02, -4.46727015e-02,
       -3.94937620e-02, 1.24139956e-03, -3.47598046e-02, 6.92896685e-03,
       7.84737337e-03, 1.08204270e-02, -2.35933773e-02, -4.55910824e-02,
       -4.75954264e-02, -5.08176126e-02, -8.78236431e-04, 1.27043706e-04,
       4.31066416e-02, 2.41499562e-02, 7.35261058e-03, -1.77563149e-02,
       -6.38120901e-03, 3.13710310e-02, 2.71057654e-02, 1.41826458e-02,
       -3.30731347e-02, 3.06790918e-02, 1.90247744e-02, 1.01191523e-02,
       -2.03216448e-02, 3.59495692e-02, 3.12717743e-02, 6.66787988e-03,
       2.51013134e-02, 2.58764382e-02, 9.04504135e-02, 5.25528044e-02,
       2.82720886e-02, 1.18386578e-02, -2.87112854e-02, -3.37755419e-02,
       -2.41847560e-02, 8.37150123e-03, -8.59304797e-03, 1.18177217e-02,
       6.99258875e-03, -2.90707545e-03, -1.90746170e-02, -3.02103832e-02,
       3.79048064e-02, 6.50978461e-02, 6.45309538e-02, 1.45057738e-02,
       2.72698607e-02, -1.74271362e-03, -1.30547984e-02, -2.81052031e-02,
       1.51659129e-02, -3.61324474e-03, 2.84325739e-04, 6.43998291e-03,
       1.66932140e-02, 7.00279251e-02, 4.41415757e-02, 4.01162310e-03,
       -1.03423111e-02, -4.27169586e-03, 1.82326753e-02, 3.47356722e-02,
       4.66950834e-02, 2.02115718e-02, 5.15308343e-02, 2.78084185e-02,
       -9.50006302e-03, -1.56442262e-03, -9.81077086e-04, 6.53709918e-02,
       8.44608247e-02, 2.05917377e-02, -6.68479875e-03, 5.63339377e-03,
       2.74714758e-03, -2.42666639e-02, -2.80160718e-02, 4.60623205e-02,
       5.77436909e-02, 1.80728044e-02, 7.42682070e-03, -3.65688559e-03,
       2.48636734e-02, 3.10769733e-02, 8.07059091e-03, 2.89652962e-02,
       -2.30321437e-02, 5.96824382e-03, 1.28127942e-02, 2.25934274e-02,
       7.77333090e-03, 3.57231591e-03, 1.84150413e-02, -1.53347012e-02,
       -3.34980376e-02, -3.03127598e-02, -3.85389477e-02,
       -1.50702195e-03, 8.17632210e-03, 2.05262545e-02, 4.21088263e-02,
       5.59522063e-02, 1.39856534e-02, -2.08374690e-02, 3.53758074e-02,
       -8.39340966e-03, -2.98221484e-02, -5.32159256e-03,
       -4.64668460e-02, -1.25682764e-02, 4.76603024e-02, 7.55757242e-02,
       8.21310952e-02, -3.10850032e-02, -5.26909977e-02, -4.02450748e-02,
       -2.88415048e-02, -5.96217252e-02, 1.00870132e-02, 1.13338798e-01,
       1.49098679e-01, 6.12448603e-02, -6.48086444e-02, -4.97806296e-02,
       3.23856855e-03, -1.49998330e-02, -2.01002900e-02, 3.12683024e-02,
       4.67134118e-02, 1.74533278e-02, -4.11103200e-03, -7.14421347e-02,
       -2.56277062e-02, 2.06525866e-02, -1.13006747e-04, 9.85288993e-03,
       3.72552425e-02, 5.41982614e-02, 4.00497206e-02, -1.86041277e-02,
       6.69949176e-03, 7.57779321e-03, -2.18419861e-02, -4.73420694e-02,
       -3.96616990e-03, -1.41279874e-02, -1.62622817e-02, 5.07429196e-03,
       2.00741249e-03, 5.75133273e-03, 2.85438038e-02, -9.59938299e-03,
       -2.71048676e-02, 2.37504952e-02, -2.76532210e-03, -1.46400090e-02,
       2.05365643e-02, -2.70808418e-03, 3.93573614e-03, 7.06823682e-03,
       -2.31408924e-02, -4.44138460e-02, -2.42770519e-02,
       -2.78181309e-04, -6.84077665e-03, -8.71469732e-03,
       -3.71443480e-03, 3.99509771e-03, 1.80966128e-02, -1.17251705e-02,
       -2.74107922e-02, 1.42344488e-02, 3.27436812e-02, 1.21491393e-02,
       1.36522381e-02, 4.25825082e-03, -1.41320808e-03, 4.21035336e-03,
       -2.15609558e-02, -2.16385145e-02, 2.12309193e-02, 3.17361933e-04,
       -1.29808476e-02, 4.84631397e-03, -1.61901955e-02, 1.03338091e-02,
       -3.63075524e-04, -1.02213202e-02, 1.15781184e-02, 3.07817403e-02,
       6.61628367e-03, -9.22525022e-03, 8.63565411e-03, -6.38528215e-03,
       -4.45504207e-03, 1.59374624e-02, -1.41166253e-02, -1.38040874e-02,
       9.99221113e-03, -4.49898606e-03, -2.88124126e-03, 3.92133649e-03,
       -1.89809669e-02, 1.37463640e-02, 2.08964664e-02, 2.07886137e-02,
       3.11009828e-02, 3.12267225e-02, 1.90710519e-02, 1.32309820e-03,
       2.13102344e-03, 9.45177954e-03, -1.57530326e-02, 2.51219352e-03,
       7.15973880e-03, 1.44928684e-02, 1.20502990e-02, -2.11073346e-02,
       -3.91242467e-03, 5.73143887e-04, -2.59521045e-02, -9.74258222e-03,
       3.37424316e-02, 4.55252752e-02, 3.59268859e-02, 2.10072622e-02,
       8.27563368e-03, 1.88789535e-02, 2.05620322e-02, 2.01131901e-04,
       1.03417689e-04, 1.91297531e-02, 2.58465614e-02, 2.53716726e-02,
       -4.38723201e-03, -1.97099205e-02, 7.47134676e-03, 2.12692581e-02,
       -4.60105622e-03, 1.58257484e-02, 3.23709622e-02, 3.47959846e-02,
       3.28157991e-02, 4.12517525e-02, 2.87658460e-02, 3.15748826e-02,
       5.90171628e-02, 9.86198056e-03, -1.41326878e-02, 2.58284453e-02,
       3.51972096e-02, 4.19702521e-03, -2.75849942e-02, 5.21150045e-03,
       2.97685480e-03, 7.85824284e-03, -2.58506127e-02, 2.57210201e-03,
       4.58363406e-02, 2.45341547e-02, -1.21952659e-02, -5.09032235e-03,
       5.99199012e-02, 4.14451919e-02, 1.33295460e-02, -2.62554791e-02,
       -8.73538479e-03, 3.89514640e-02, 4.64499146e-02, 4.15006740e-04,
       -3.05497702e-02, 7.54920708e-04, 7.66893057e-03, 2.20304262e-02,
       -2.42568329e-02, 1.46127976e-02, 4.90842238e-02, 3.11086494e-02,
       -2.55925339e-02, -3.18142660e-02, 2.80404016e-02, 3.10996454e-02,
       7.96948839e-03, -3.01057734e-02, -6.70901500e-03, 1.47116045e-02,
       2.65025394e-03, -8.59742425e-03, 2.12331698e-03, 6.55497685e-02,
       4.45011519e-02, -2.31504254e-02, -3.54551747e-02, -2.39452650e-03,
       1.64599568e-02, 4.03471524e-03, -3.60578136e-03, 8.40015337e-03,
       3.19719166e-02, 3.22521701e-02, -8.60039517e-03, -1.32370321e-02,
       -3.84639623e-03, 2.49368660e-02, 1.29226677e-03, -2.67744735e-02,
       -1.61834359e-02, 4.56812866e-02, 4.41367514e-02, 6.84303371e-03,
       -1.47939911e-02, 1.21956610e-03, -1.05937710e-02, -2.14929264e-02,
       -3.59033681e-02, -9.63048358e-03, 4.30071317e-02, 4.51363251e-02,
       3.79543193e-03, 1.54583028e-03, -9.51222051e-03, 6.01256406e-03,
       -1.83320474e-02, -4.38228250e-03, 5.75502543e-03, 2.34451033e-02,
       4.00746427e-02, 1.65573228e-02, -5.16246306e-03, -3.43586914e-02,
       -2.82726176e-02, -2.37723663e-02, -2.22318359e-02, 8.41234531e-03,
       5.14534302e-02, 7.46073574e-02, 3.07544451e-02, -1.32993693e-02,
       -3.68110440e-03, -3.45829725e-02, -4.46720384e-02,
       -4.14936505e-02, -3.25288959e-02, 2.54867136e-05, 3.81370448e-02,
       2.11789049e-02, 1.99114741e-03, -1.46700507e-02, -6.70746341e-03,
       -3.93355489e-02, -3.55818644e-02, -4.19273153e-02, 1.78095978e-02,
       6.41505420e-02, 4.44735251e-02, 1.99935283e-03, -4.30076532e-02,
       -6.68071094e-04, 3.35055217e-02, -1.86900645e-02, -7.55784276e-04,
       4.70605083e-02, 5.86294942e-02, 1.62452478e-02, -1.16756344e-02,
       -1.50672579e-02, 5.11818491e-02, 9.30692330e-02, 3.22264619e-02,
       -4.12932085e-03, -6.92472886e-03, 1.36469007e-02, -2.42120232e-02,
       -2.94982251e-02, -2.09693611e-03, 3.56257968e-02, 3.78836505e-02,
       -9.48872045e-03, -5.33578508e-02, 1.04119591e-02, 4.97183651e-02,
       2.32043751e-02, 1.13960328e-02, 3.77010703e-02, 1.04039110e-01,
       1.14337929e-01, 2.89938739e-03, -1.81970410e-02, -3.80368009e-02,
       -8.35877284e-03, -3.94943580e-02, -2.82829776e-02, 4.16095648e-03,
       6.71551144e-03, -2.64584483e-03, -2.05594748e-02, -1.20010572e-02,
       1.16425529e-02, -1.28419357e-04, 4.65294952e-03, -6.25459617e-03,
       -8.70252494e-03, 1.72456596e-02, 3.74305062e-03, -2.43413597e-02,
       -5.57416352e-03, 2.24027149e-02, 3.01051103e-02, 4.46969569e-02,
       -1.94542808e-03, -9.01220273e-03, 2.09736563e-02, 2.16627829e-02,
       1.04159685e-02, 8.62823986e-03, 2.49614324e-02, -1.39351632e-03,
       1.79808829e-02, -3.40060750e-03, -1.01098772e-02, 1.36975972e-02,
       1.44052235e-02, -6.09014241e-04, -9.63507220e-03, 2.39730794e-02,
       2.49525327e-02, 5.19901663e-02, 1.33208344e-02, -2.41725016e-02,
       1.02142161e-02, -1.06452629e-02, -1.15772048e-02, -5.65501582e-03,
       -1.14059751e-03, 1.82488207e-02, 3.81982177e-02, -1.89109873e-02,
       -2.10963078e-02, -8.82046856e-03, 6.15565619e-03, 2.00519823e-02,
       1.79799851e-02, 3.24581116e-02, 3.89120802e-02, 4.32052687e-02,
       -5.49999112e-03, -3.86471152e-02, -2.91533601e-02,
       -2.14633700e-02, -2.16708258e-02, 4.64525167e-03, 2.20875014e-02,
       3.09374407e-02, 3.84433977e-02, -1.11300487e-03, -2.74415240e-02,
       -3.23424861e-02, -5.55169629e-03, 1.73821580e-03, 1.98021848e-02,
       6.39513284e-02, 5.95960096e-02, 4.96627614e-02, 1.80942286e-02,
       -1.06384112e-02, -1.17234215e-02, 2.41158437e-03, 5.72490413e-03,
       -3.90912294e-02, -1.63891185e-02, 2.98974644e-02, 2.78743915e-02,
       -1.01768458e-02, 2.89995433e-03, 2.51030903e-02, 2.77749263e-02,
       9.72961448e-03, 1.14221382e-03, 2.16408097e-03, 1.57671310e-02,
       3.27974856e-02, -1.24337256e-03, -2.46057846e-02, -1.84864923e-02,
       1.48414895e-02, 1.74144506e-02, -6.37292257e-03, 3.63362990e-02,
       6.68557137e-02, 3.01717389e-02, -6.09025592e-03, 6.93979254e-03,
       2.18590554e-02, 3.41249034e-02, 4.68002670e-02, 2.03680564e-02,
       2.66215522e-02, 4.67939936e-02, 1.77017413e-02, -5.10005746e-04,
       1.74647216e-02, 5.18478006e-02, 4.25227098e-02, 7.32311560e-03,
       -1.56358704e-02, 3.64561589e-03, 1.01245288e-02, 9.81926732e-03,
       3.51604144e-03, 2.05688011e-02, 5.57275675e-02, 3.15530896e-02,
       -1.93278044e-02, -1.78007819e-02, 1.89745892e-02, 1.73145588e-02,
       -1.01273623e-03, 4.18922491e-03, -1.40589261e-02, 1.96958017e-02,
       3.43169346e-02, 4.17628065e-02, 2.40118913e-02, 1.75215062e-02,
       2.08790079e-02, -3.83815216e-03, -5.71286958e-03, -1.83658078e-02,
       -2.72077275e-03, 1.04014436e-02, -9.38901119e-03, 1.02969743e-02,
       2.71205325e-03, 2.25938465e-02, 3.72008048e-03, -2.01927661e-03,
       1.09252864e-02, 2.55359430e-02, -7.89010618e-03, -3.47210653e-02,
       -2.14273091e-02, 9.00361408e-03, 3.16337198e-02, 9.19486489e-03,
       1.42706679e-02, 1.16060264e-02, 3.06613767e-03, -2.37206016e-02,
       -3.30316760e-02, -1.44816460e-02, 1.07256630e-02, 5.61146885e-02,
       4.18719202e-02, 2.86864918e-02, -1.16791772e-02, -3.54171195e-03,
       -1.77338123e-02, -3.74345742e-02, -1.47843249e-02,
       -1.34174842e-02, 1.87632237e-02, -2.15687137e-03, -1.19568733e-03,
       6.78044162e-04, 2.62433030e-02, -2.21738163e-02, -3.44075523e-02,
       -4.33278829e-02, -1.22160101e-02, 4.36150916e-02, 3.62490118e-02,
       2.13201926e-03, 4.66894405e-03, -1.47587415e-02, -2.27299612e-02,
       -2.05393340e-02, -3.60620730e-02, -3.16448184e-03, 5.67115732e-02,
       4.73006479e-02, 4.13702391e-02, 1.55743659e-02, -1.79566089e-02,
       -1.77278258e-02, -2.20134407e-02, -5.93421385e-02, 9.27807298e-03,
       7.76125640e-02, 4.89594489e-02, 3.89538370e-02, 6.14467310e-04,
       1.63965933e-02, -1.67986266e-02, -2.00192742e-02, -3.74762788e-02,
       -1.74695421e-02, 5.09852096e-02, 5.02368771e-02, 1.91317759e-02,
       1.30685484e-02, 4.38305829e-03, 1.86932401e-03, -4.42241598e-03,
       -1.86099168e-02, -1.23890564e-02, 7.04208389e-02, 4.88664620e-02,
       2.82923765e-02, 1.58268698e-02, 2.58665513e-02, 2.47799195e-02,
       2.17963830e-02, -3.96190882e-02, 5.00779487e-02, 8.71532187e-02,
       3.35493013e-02, 2.39453688e-02, -2.44264869e-04, 4.85491715e-02,
       5.55414408e-02, 2.72708870e-02, 6.39101956e-03, -3.40554770e-03,
       1.32227680e-02, -2.44704261e-02, -2.69037746e-02, -2.21438613e-03,
       -8.98783002e-03, 2.22130064e-02, 5.19746281e-02, 5.43533918e-03,
       4.70779091e-02, 8.39150250e-02, 2.95699406e-02, 1.47577170e-02,
       -3.36452201e-02, -2.03614477e-02, -1.09045627e-03, 5.69153540e-02,
       -2.27626171e-02, 1.63158514e-02, 6.07130490e-03, -3.39862667e-02,
       -3.69529463e-02, 5.20379702e-03, 3.31743769e-02, 2.53552776e-02,
       -1.87086337e-03, -2.95619923e-03, 7.94352032e-03, 1.68073755e-02,
       4.94495183e-02, 2.82482374e-02, 2.12192331e-02, 2.74941903e-02,
       1.87607482e-02, -1.37263620e-02, 1.38760880e-02, 2.49666418e-03,
       2.03918200e-02, 5.54399043e-02, 3.96639928e-02, -4.14382247e-03,
       2.12286655e-02, -1.92344037e-03, -4.25282493e-03, -2.98318285e-02,
       -1.39706200e-02, 1.90524198e-02, 3.06076407e-02, 1.15177641e-02,
       3.88212432e-03, 2.46612485e-02, 3.93799273e-03, 1.14038624e-02,
       2.58890782e-02, -8.49922188e-03, 2.88588461e-02, 3.67049165e-02,
       3.16013992e-02, -3.01915035e-02, -2.56880727e-02, -2.28143409e-02,
       -3.13199498e-02, 8.02306924e-03, 2.04376387e-03, 9.79273301e-03,
       1.69152524e-02, -4.90081124e-03, -3.40037085e-02, -1.52811287e-02,
       7.72795349e-04, 1.35275135e-02, 2.51931716e-02, 6.41576201e-02,
       5.30430675e-02, 3.38511951e-02, -3.82741331e-03, -1.94949587e-03,
       1.45217394e-02, 1.07135857e-02, 3.41014587e-03, 1.09539451e-02,
       -1.09645799e-02, 4.41780733e-03, -1.36612412e-02, 7.00845441e-04,
       1.30093349e-02, 2.53289454e-02, 2.57400088e-02, 4.98636365e-02,
       1.84568465e-02, 3.56942602e-02, 1.80387851e-02, -1.19152470e-02,
       -1.77945737e-02, -5.24374656e-02, -3.53834592e-02, 1.95934367e-03,
       1.23786703e-02, 1.19177550e-02, 3.67643572e-02, 4.41176221e-02,
       1.84620414e-02, -1.98398661e-02, -4.37930934e-02, -1.76040102e-02,
       5.79214748e-03, 4.60366830e-02, 2.52842251e-02, 3.84479612e-02,
       5.95856756e-02, 1.24231102e-02, -2.60029826e-02, -2.48463620e-02,
       -8.35391320e-03, 2.46238355e-02, 2.60476079e-02, 1.99480318e-02,
       2.30173580e-02, -1.39174954e-04, -1.90921407e-02, -2.88076401e-02,
       -3.22787724e-02, -1.43079320e-02, 1.12145124e-02, 3.71691287e-02,
       3.81391160e-02, 6.28853366e-02, 6.01889342e-02, 9.17784311e-03,
       -2.44713183e-02, -3.74057107e-02, -1.02668991e-02, 1.71961710e-02,
       3.96894366e-02, 3.50516438e-02, 4.36038114e-02, 5.46674281e-02,
       8.27199873e-03, -1.07407318e-02, -4.06464711e-02, -3.77933830e-02,
       -9.58501641e-03, 7.29749724e-03, 1.38005083e-02, 1.85061079e-02,
       2.74769980e-02, -3.85921099e-03, -1.31249819e-02, -1.61578562e-02,
       -9.35380533e-03, 8.28978885e-03, 3.41309160e-02, 3.39231305e-02,
       6.89467862e-02, 8.08532164e-02, 1.75487939e-02, 7.16121495e-03,
       -1.61281340e-02, -2.77414043e-02, -4.17605368e-03, 2.64733341e-02,
       4.44537727e-03, 2.32396312e-02, 2.93239430e-02, -1.42105324e-02,
       1.28897023e-03, -9.40990914e-03, 6.00575935e-03, -1.44673599e-04,
       -1.04343072e-02, -2.04756223e-02, -4.99568367e-03, 1.37743503e-02,
       1.43986186e-02, 4.42303438e-03, 1.63791459e-02, 5.49424104e-02,
       6.17446203e-04, -4.84997071e-02, -7.28482604e-02, -3.28135975e-02,
       2.97289807e-02, 4.51805070e-02, 2.03285459e-02, 2.11515892e-02,
       1.29817054e-02, 1.44048948e-02, -2.28342321e-03, -1.83393322e-02,
       -3.32223214e-02, -2.11275043e-03, 1.77593634e-03, 1.14828125e-02,
       3.62094715e-02, 5.20758368e-02, 1.93989091e-02, -3.82119231e-02,
       -5.71116246e-02, -5.79686463e-02, 2.43964081e-04, 4.23794650e-02,
       4.54980321e-02, 2.16693077e-02, 5.28441593e-02, 2.65655899e-03,
       -2.29851995e-02, -5.00701144e-02, -2.80867368e-02, 2.22124793e-02,
       4.32824939e-02, 2.22556740e-02, 2.41495594e-02, 4.79447432e-02,
       3.86365764e-02, 1.29696185e-04, -2.13269703e-02, -2.04084385e-02,
       5.20748496e-02, 3.84322740e-02, 2.50378717e-02, 2.11020634e-02,
       4.42418940e-02, 1.34514701e-02, -1.53033240e-02, -4.44980338e-02,
       -2.17955336e-02, 2.02809963e-02, 3.32345404e-02, 3.97748053e-02,
       3.00464630e-02, 4.57628332e-02, 3.55862081e-02, -9.56727285e-03,
       -1.52537543e-02, -1.96357686e-02, 3.28547992e-02, 1.39501477e-02,
       1.19585684e-02, 5.70612866e-03, 5.43758366e-03, 3.33747305e-02,
       5.44570126e-02, 6.62146416e-03, 4.45234850e-02, 6.30178973e-02,
       1.70797985e-02, 8.84917192e-03, -2.35537738e-02, -2.27653328e-02,
       1.09182689e-02, 6.11036979e-02, -5.39343525e-03, 4.17423584e-02,
       5.84003283e-03, -3.07354387e-02, -3.24339010e-02, 1.48323197e-02,
       2.00305190e-02, 5.23949862e-02, 5.73500060e-02, -3.37913586e-03,
       3.99199352e-02, 3.82299125e-02, -2.80748978e-02, -2.04602368e-02,
       -1.02858301e-02, -1.13190319e-02, 1.70236453e-02, 6.44914880e-02,
       -2.37262696e-02, 2.82544047e-02, -1.98376253e-02, -6.47834465e-02,
       -3.64629515e-02, -4.16873209e-03, 1.75271891e-02, 3.90073378e-03,
       -2.05041897e-02, -3.32616121e-02, -2.43195686e-02, 1.55684119e-02,
       2.28451919e-02, -8.77770537e-04, 1.14296312e-02, 3.70537229e-02,
       3.57810967e-02, 1.76197011e-02, 7.84218125e-03, 5.21079171e-04,
       3.59316617e-02, 2.11769640e-02, 2.74057537e-02, 1.42500205e-02,
       3.23266424e-02, 1.16436193e-02, -1.95408985e-02, -1.47949886e-02,
       -4.31442307e-03, 1.03083597e-02, 2.26494279e-02, 1.29358014e-02,
       -7.68830488e-03, 3.46234553e-02, 3.21786515e-02, 1.84184909e-02,
       1.04464311e-02, 1.85206451e-03, 1.45687293e-02, 9.01988801e-03,
       -1.81861769e-03, 1.73295774e-02, 3.50807086e-02, 4.25367169e-02,
       2.82573281e-03, -6.24192879e-03, -5.75839961e-03, 7.94975460e-03,
       -1.76793635e-02, 1.26114814e-02, 2.23770086e-02, 4.66354266e-02,
       4.97256517e-02, 4.69588824e-02, 4.61795786e-03, 3.10014337e-02,
       6.39950065e-03, -1.03366841e-02, -2.02284311e-03, -1.91378351e-02,
       1.17986621e-02, 1.92086119e-02, -1.39154326e-02, -1.03944419e-02,
       -1.32421125e-02, 2.16668285e-03, 4.14924696e-03, -2.55503249e-03,
       5.51976170e-03, 4.69999798e-02, 3.81046608e-02, 2.90551372e-02,
       -5.53824520e-03, 7.07301963e-03, 1.57702074e-03, 1.23062218e-03,
       9.05343913e-04, -4.15952969e-03, 3.23116481e-02, 4.14675139e-02,
       2.25774832e-02, -2.19423091e-03, 5.73567906e-03, 6.66973228e-03,
       -1.22086536e-02, -1.43707888e-02, -2.75899447e-03, 2.04811897e-02,
       2.63800733e-02, 2.68093776e-02, 2.27454565e-02, 4.49693315e-02,
       6.55816197e-02, 3.09725013e-02, 1.79251358e-02, -6.17226399e-03,
       3.46866436e-02, 1.93759277e-02, -1.22468825e-02, -4.13281247e-02,
       -3.46612036e-02, -2.15910170e-02, -2.24633627e-02,
       -1.05003016e-02, 3.73116732e-02, 2.70448476e-02, 2.47638822e-02,
       -7.97594991e-03, -2.94586960e-02, 1.15208058e-02, 3.55428606e-02,
       3.13942395e-02, 3.06449123e-02, -9.03247576e-03, -5.38167544e-03,
       -5.28273731e-03, -2.57210527e-02, -7.29868468e-03, 3.90008613e-02,
       6.63141981e-02, 2.85346210e-02, 1.13868341e-02, -1.81975272e-02,
       -9.08232201e-03, 8.15855060e-03, -2.17210175e-03, -3.09758391e-02,
       1.97284892e-02, 2.83107460e-02, 5.47826895e-03, -2.28883768e-03,
       1.39578786e-02, 1.36535093e-02, 7.89648201e-03, -3.51888016e-02,
       -4.63207848e-02, 1.12821721e-03, 4.29064184e-02, 4.53892685e-02,
       2.73033530e-02, 2.15005339e-03, 2.99624316e-02, 2.16647498e-02,
       -1.05982944e-02, -1.81932859e-02, 5.65551454e-03, 4.25409153e-02,
       4.31610085e-02, 2.10909378e-02, -2.98574544e-03, 7.86793325e-03,
       1.70030873e-02, 2.25772825e-03, -1.43668978e-02, -2.61803847e-02,
       -1.20059522e-02, -1.20812617e-02, -3.90894664e-03, 1.16554750e-02,
       2.73553990e-02, 4.36926298e-02, -1.12493271e-02, -3.39515917e-02,
       -5.03187552e-02, -1.64418332e-02, -7.29190093e-03, 8.14483035e-03,
       -4.37205937e-03, 2.07828283e-02, 2.54715737e-02, 1.37115782e-02,
       -3.55187268e-03, -1.16259679e-02, 1.08786235e-02, 1.04255956e-02,
       2.32135435e-03, 4.58962191e-03, 2.18157154e-02, 1.59800779e-02,
       1.96201145e-03, -1.37164453e-02, -3.70714068e-02, -1.01751089e-02,
       -3.13330330e-02, -8.95412732e-03, -3.59185785e-03, 3.02693266e-02,
       3.63406762e-02, 8.56126752e-03, -4.13575443e-03, -1.36575652e-02,
       -3.89187690e-03, -9.70568601e-03, -2.75099324e-03,
       -2.49756523e-03, 4.19387296e-02, 4.63166870e-02, 1.93995982e-02,
       1.02439022e-03, -3.96761578e-03, 4.86596813e-03, -2.23204289e-02,
       -2.04782803e-02, 1.88775714e-02, 5.05361706e-02, 3.32334302e-02,
       2.31446456e-02, 1.24935424e-02, -1.03247249e-02, -1.33545762e-02,
       -3.87661494e-02, -3.82805965e-03, 8.81092250e-03, 4.31353599e-02,
       4.76389602e-02, 3.15070413e-02, 2.08435841e-02, 1.39449229e-02,
       -5.98965399e-03, -3.14908028e-02, -1.26049565e-02, 1.43093485e-02,
       3.16673741e-02, 5.12143970e-02, 4.87154350e-02, 2.74809217e-03,
       3.24176438e-02, 2.35986989e-02, -3.65063921e-02, -2.09571961e-02,
       -9.32265911e-03, -1.45515883e-02, 1.85999996e-03, 2.90185027e-02,
       -1.13131152e-02, 3.47762741e-02, -2.23121233e-02, -5.68771027e-02,
       -2.38146223e-02, 1.34969056e-02, 1.69016160e-02, 4.79287729e-02,
       2.48453207e-02, -6.39391923e-03, 2.56261975e-02, 4.48482782e-02,
       7.13781128e-03, 1.05887922e-02, -6.89316308e-03, -3.43365669e-02,
       -1.15578957e-02, -1.65435225e-02, -1.03507815e-02, 2.05744654e-02,
       5.41997142e-02, 3.93940136e-02, 1.39421951e-02, 3.29020955e-02,
       3.95959988e-02, 1.09276101e-02, -6.23458670e-03, -9.31837037e-03,
       1.32333778e-03, -1.03289885e-02, 1.22510353e-02, 2.73163039e-02,
       -2.22625472e-02, 3.61996284e-03, 8.43343697e-03, 8.72146990e-03,
       1.71151329e-02, 1.90551449e-02, -1.06922276e-02, 4.57711471e-03,
       -1.39491474e-02, 1.47576146e-02, 2.57403720e-02, 2.19563898e-02,
       9.07709263e-03, -6.22596033e-03, -1.16095906e-02, -9.42251366e-03,
       -2.22746795e-03, 1.07091190e-02, -1.85245480e-02, 1.72362395e-03,
       1.00593492e-02, 1.67475194e-02, 1.76091194e-02, 7.18139531e-03,
       -1.05262967e-02, -2.14080163e-03, -1.43460650e-02,
       -3.61943468e-02, 9.52452607e-03, 1.47806415e-02, 1.14393122e-02,
       3.42224389e-02, 6.48649689e-03, 1.97237488e-02, 3.49794179e-02,
       -9.70117841e-03, 6.34880707e-05, 4.55658957e-02, 4.10954989e-02,
       4.89021018e-02, 4.31472696e-02, 1.28651820e-02, 1.96702182e-02,
       4.54401486e-02, 6.55446760e-03, -2.43760999e-02, 5.78983407e-03,
       9.03702434e-03, 1.69902463e-02, 7.93400034e-03, -4.06115968e-03,
       9.96612012e-03, 8.39811563e-03, -2.58542541e-02, -2.05675680e-02,
       2.70795729e-02, 1.13773644e-02, 2.05939636e-02, 1.10245124e-02,
       -1.10573182e-02, 5.78702800e-03, 1.57552212e-02, -1.68985892e-02,
       -3.02220718e-03, 2.83401478e-02, 1.42296497e-02, -5.28191030e-03,
       -1.19001176e-02, -2.27683014e-03, 1.98997036e-02, 3.78362350e-02,
       2.01414376e-02, 4.58085015e-02, 4.64506671e-02, 3.66538391e-02,
       2.03246195e-02, 9.59168479e-04, 3.29436511e-02, 5.90207614e-02,
       7.32861385e-02, 6.42998517e-02, -1.12293400e-02, -4.64291358e-03,
       -2.10728962e-02, -3.27827036e-02, -3.62987779e-02,
       -2.62866225e-02, -1.91357397e-02, 1.85388904e-02, 2.05177930e-03,
       1.60676788e-03, 1.05517963e-02, 2.35605068e-04, 4.39612864e-04,
       -1.39372824e-02, 1.47559652e-02, 2.33688182e-03, 3.08877639e-02,
       3.55638303e-02, -2.92516556e-02, 7.83267152e-03, 3.02465260e-02,
       -5.56734810e-03, -1.97862107e-02, -7.70465424e-03, 4.24219556e-02,
       4.54007983e-02, 7.31034204e-03, -1.47300540e-02, 2.40973160e-02,
       4.69976813e-02, 6.47022715e-03, 3.62918683e-04, 2.64152186e-04,
       3.83140780e-02, 3.45253758e-02, 1.00840190e-02, -2.37534698e-02,
       -1.12163546e-02, 1.44107640e-02, 9.31076519e-03, -2.38960050e-02,
       -1.84206646e-02, -1.40511207e-02, -9.67092253e-03,
       -2.63520144e-02, -2.89373696e-02, 3.79132899e-03, 1.94099601e-02,
       1.03265522e-02, -1.38034020e-02, -2.06671897e-02, -9.24270786e-03,
       -3.75672826e-03, -2.28867494e-02, -1.38321547e-02,
       -9.28097754e-04, 3.72587964e-02, 1.85983591e-02, 8.59302934e-03,
       -8.68601352e-03, 1.44093232e-02, 9.49379615e-03, -1.65850704e-03,
       1.40010444e-02, 1.24881952e-03, 1.75569970e-02, 1.52674399e-03,
       -4.48253471e-03, -2.36111097e-02, -8.59322608e-04,
       -9.69953462e-03, -1.24468412e-02, -2.12719776e-02,
       -1.59320123e-02, 1.15177575e-02, 1.87375005e-02, 1.25691043e-02,
       -1.17686577e-02, -8.72123893e-03, -8.32151249e-03,
       -7.84632470e-03, 1.22211510e-02, -9.47435107e-03, -6.06488530e-03,
       1.58255007e-02, -4.96708089e-03, -9.08545963e-03, -1.30559388e-03,
       -7.58945988e-03, 7.84316752e-03, 1.90813746e-02, 3.44699360e-02,
       1.88323148e-02, -2.52101640e-03, -1.96307469e-02, -1.85146667e-02,
       -1.64197665e-02, -3.92402932e-02, -1.89616457e-02, 9.19723592e-04,
       1.65395290e-02, 1.05096912e-02, -2.49630451e-04, 1.99585967e-02,
       1.73197277e-02, -9.79220681e-03, -3.37868668e-02, -1.60461925e-02,
       1.10547906e-02, 1.63642783e-02, 1.27207050e-02, 2.43080277e-02,
       -3.76195530e-03, -1.35185067e-02, -8.48439801e-03,
       -2.44206805e-02, 2.55415380e-05, 6.88331388e-03, 2.27727182e-02,
       3.07751223e-02, 2.92695332e-02, 3.62952948e-02, 3.15630101e-02,
       -1.26128905e-02, -2.02909950e-02, -1.06864311e-02,
       -9.99595691e-03, -2.60146335e-02, 1.08882701e-02, -6.75853621e-03,
       4.36290260e-03, 2.92998981e-02, 4.12211530e-02, 1.42835816e-02,
       1.97974164e-02, -9.78708733e-03, -5.36230169e-02, -2.13553812e-02,
       -7.49821663e-02, -4.37883697e-02, 3.91372815e-02, 9.65008587e-02,
       1.03110179e-01, 6.75828457e-02, -1.22114411e-02, -4.49792435e-03,
       1.82861648e-02, 2.61101015e-02, 4.12034690e-02, 5.89001030e-02,
       9.94256511e-03, -4.79924912e-03, 3.32981639e-04, -4.07790905e-03,
       -2.89744958e-02, -1.24301091e-02, -6.54468760e-02,
       -3.13516110e-02, 6.44522011e-02, 7.41232932e-02, 6.03722967e-02,
       4.16694321e-02, 2.89774891e-02, 1.48252854e-02, 2.20505521e-02,
       1.30849043e-02, 1.03415269e-02, 1.22328778e-03, 4.91047604e-03,
       -4.18912998e-04, 7.58299278e-03, 1.13625368e-02, 1.62544120e-02,
       1.79403219e-02, 1.41868871e-02, 1.44641260e-02, -2.10324884e-03,
       -1.06518734e-02, -1.39228776e-02, -1.88734923e-02,
       -7.85024744e-03, -2.06011422e-02, -2.20054183e-02,
       -5.07224631e-03, -6.86437561e-05, 3.05785495e-03, 1.13799535e-02,
       -1.38701536e-02, -4.23780223e-03, 1.57505069e-02, 1.02195283e-03,
       -3.30723752e-03, -1.28812706e-02, -5.71886729e-03,
       -6.24527689e-03, -1.80979427e-02, -2.84211971e-02,
       -8.71759467e-03, 5.72572742e-03, 2.79354118e-02, 1.63816251e-02,
       1.81639493e-02, 1.44865019e-02, -1.16167627e-02, 5.94191253e-03,
       -1.70862488e-02, -1.80886518e-02, -1.63475517e-02, 2.55331416e-02,
       5.18781925e-03, 1.46132438e-02, 2.87325513e-02, 2.32225116e-02,
       2.19011512e-02, -1.45283649e-02, -3.09574753e-02, 4.07124832e-02,
       2.30681654e-02, 5.75408060e-03, -3.14019690e-03, 1.16237914e-02,
       -5.60789695e-03, -1.62933245e-02, -1.38296857e-02, 4.85741161e-03,
       2.74748281e-02, 1.52999572e-02, 2.19353265e-03, 5.44000557e-03,
       3.58610749e-02, 2.62687244e-02, 6.42970018e-03, -3.12111177e-03,
       6.96722651e-03, 4.39202925e-03, 1.89837590e-02, 7.31247291e-03,
       1.32412184e-03, -5.18411398e-03, 2.07878426e-02, -2.71169306e-03,
       -1.55443500e-03, -1.04040392e-02, 3.04309819e-02, 4.88939062e-02,
       3.86614650e-02, 2.81681698e-02, 1.73814199e-03, 3.19877528e-02,
       5.26566152e-03, 2.30587889e-02, 2.15410162e-02, 9.86295938e-03,
       2.18501091e-02, 9.64954030e-03, 1.26151592e-02, 1.07812099e-02,
       5.95936645e-03, -6.91282935e-03, -1.12162465e-02, -4.86250781e-03,
       1.86077300e-02, 3.49003412e-02, 3.31753343e-02, 1.17879212e-02,
       -4.02689259e-03, 2.72771847e-02, 2.04340201e-02, -9.18514561e-03,
       5.88670932e-03, 6.73599401e-03, 1.73361469e-02, 3.42737064e-02,
       1.52021330e-02, -4.37417664e-02, -1.92651469e-02, -6.93150563e-03,
       -2.43778806e-03, -1.12371873e-02, 1.71624795e-02, 5.01708798e-02,
       7.29864538e-02, 6.07042983e-02, 8.54361430e-03, -2.28881836e-03,
       1.30633656e-02, 2.00372972e-02, 7.17172446e-03, 3.07408860e-03,
       2.41430067e-02, 5.26892357e-02, 2.26705847e-03, -4.74030115e-02,
       -3.31181772e-02, -2.27171555e-02, -4.26769145e-02,
       -2.31965967e-02, -6.83243945e-03, 6.21420369e-02, 7.57315755e-02,
       5.17742299e-02, -2.13890634e-02, -6.64991373e-03, -5.28189726e-03,
       -2.18249764e-02, -3.73593383e-02, -1.84556898e-02, 1.28237344e-03,
       3.34953666e-02, 3.82146239e-02, -4.33824444e-03, -1.80082140e-03,
       1.87409520e-02, -3.74994637e-03, -9.86057334e-03, -5.39714564e-03,
       -8.16280860e-03, 2.08952911e-02, 2.14286987e-02, 5.76439605e-04,
       2.20903605e-02, 5.15710339e-02, 8.30474775e-03, -1.88498832e-02,
       -3.56752723e-02, 1.06689883e-02, 3.96800525e-02, 1.98714472e-02,
       -1.51494620e-02, 2.23337263e-02, 2.16417126e-02, 1.52436625e-02,
       -3.58009972e-02, -4.57837880e-02, -2.49128584e-02,
       -3.93891335e-03, -1.20160971e-02, -8.00687412e-04, 5.03677912e-02,
       7.53190368e-02, 6.97256699e-02, 4.33679437e-04, -3.43964584e-02,
       -2.75034960e-02, 6.72369450e-03, 8.61157756e-03, -5.67057396e-05,
       1.13447579e-02, 2.65597776e-02, -1.08894045e-02, -2.91690659e-02,
       -1.54826026e-02, 1.82460044e-02, 4.07493003e-02, 4.69592623e-02,
       4.01435271e-02, 3.85621786e-02, -1.10514578e-03, 2.86254077e-03,
       -7.49395113e-04, -6.31546155e-02, -4.45805304e-02,
       -5.02379285e-03, -3.00121661e-02, -7.52177788e-03, 3.16593163e-02,
       8.70133042e-02, 5.31731807e-02, 1.70648638e-02, 2.42655315e-02,
       -3.65999434e-03, 8.40319041e-03, -1.99509482e-03, 1.36014642e-02,
       4.99429666e-02, 4.99608591e-02, 4.19270210e-02, 6.06572405e-02,
       -2.69796397e-03, 2.11075637e-02, 4.07788046e-02, 3.52664478e-02,
       2.11555362e-02, 3.04547474e-02, -1.21859610e-02, -1.09424721e-02,
       -1.10490830e-03, -3.59912147e-03, 5.17072156e-02, 5.81749044e-02,
       -3.47274207e-02, -6.56129792e-02, 1.26177231e-02, 2.03018449e-02,
       -4.31050034e-03, -9.71457269e-03, 9.11923498e-02, 8.30512047e-02,
       4.20885533e-02, -1.71318967e-02, -3.16393897e-02, 4.66249557e-03,
       -2.42418461e-02, -1.40195182e-02, 7.05028474e-02, 1.11865848e-01,
       1.54665589e-01, 1.02085963e-01, -5.14379404e-02, -8.85244161e-02,
       -6.32609576e-02, -6.39067963e-02, -4.42605726e-02,
       -7.17413425e-03, -1.95171428e+00 ]
