%YAML:1.0
---
my_detector: !!opencv-object-detector-hog
   winSize: [ 128, 128 ]
   blockSize: [ 16, 16 ]
   blockStride: [ 8, 8 ]
   cellSize: [ 8, 8 ]
   nbins: 9
   derivAperture: 1
   winSigma: 4.
   histogramNormType: 0
   L2HysThreshold: 2.0000000000000001e-01
   gammaCorrection: 1
   nlevels: 64
   signedGradient: 0
   SVMDetector: [ -2.63074823e-02, -7.64151686e-04, -8.47071700e-04,
       2.49564927e-02, 3.33298743e-02, 2.38035470e-02, -2.30469764e-03,
       -7.28932256e-03, -1.84697602e-02, -1.69928651e-02,
       -8.94215610e-03, 8.80037528e-03, 1.62645634e-02, 8.51220917e-03,
       9.81668849e-03, -3.62461270e-03, -1.14346938e-02, -1.85183696e-02,
       -1.35870352e-02, 3.53497895e-03, 6.09222800e-03, 1.66693609e-02,
       4.31860238e-03, 1.01816952e-02, -6.76934840e-03, -1.81253161e-02,
       -2.25208402e-02, -7.85906520e-03, -3.24426126e-03, 1.79385697e-03,
       7.40446011e-03, -5.66958450e-03, 8.46155826e-03, 3.60932737e-03,
       -3.49376863e-03, -1.63030364e-02, -7.71491323e-05,
       -1.15533927e-02, -4.56444314e-03, 8.07215832e-03, 1.58900768e-02,
       -2.44421797e-04, -1.38112968e-02, -1.68887973e-02,
       -9.43749677e-03, 3.61622078e-03, -5.90807106e-03, -6.05335832e-03,
       2.67535001e-02, 9.62627213e-03, -6.72582595e-04, -1.14147561e-02,
       -2.10638419e-02, -1.89628266e-02, -8.06298573e-03,
       -1.05898995e-02, -3.48948175e-03, 1.43462687e-03, 8.81104916e-03,
       7.51345186e-03, 1.76860788e-03, -1.09830173e-03, -1.17144128e-02,
       3.16461781e-03, -1.37076786e-04, 5.91491582e-03, 2.00058129e-02,
       -3.30854836e-03, 7.39266537e-03, 1.48279429e-03, -1.25260949e-02,
       -1.98421571e-02, 4.18679920e-05, -4.03157808e-03, -2.78320583e-03,
       1.96843017e-02, 1.00243045e-02, -9.28500481e-03, -1.83938649e-02,
       -2.30491906e-02, -2.09209602e-02, -2.03084957e-04,
       -3.11832316e-03, 5.08282380e-03, 1.33781824e-02, 2.05655266e-02,
       5.36945974e-03, -1.10272691e-02, -1.70331150e-02, -5.14012529e-03,
       9.30615049e-03, -2.76816194e-03, -2.75578140e-03, 3.86173930e-03,
       -1.07238945e-02, -7.19716121e-03, -5.47731156e-03,
       -2.01523993e-02, -1.50820641e-02, 1.37034506e-02, -1.02419090e-02,
       7.51405302e-03, 1.07068596e-02, 1.48863567e-03, 1.87577785e-03,
       -7.00720120e-03, -1.15217483e-02, -1.49017200e-03, 1.28413178e-02,
       -4.86421771e-03, -4.31091728e-04, 1.17272316e-02, 2.07161028e-02,
       1.06402924e-02, -6.62344089e-03, -1.92728154e-02, 3.39383318e-04,
       -4.10460576e-04, -5.61409397e-03, -1.04640713e-02, 1.23312995e-02,
       -7.20279431e-03, 9.88304522e-03, 2.38087960e-03, -1.28994221e-02,
       -2.58726766e-03, 2.63037556e-03, -3.69787565e-03, 8.80235806e-03,
       1.47232497e-02, 1.70009080e-02, 7.36124348e-03, -9.86010674e-03,
       -2.13518329e-02, -5.20265242e-03, -4.21884749e-03,
       -1.22961111e-03, 3.56545020e-03, 1.03405956e-02, -1.24690700e-02,
       -6.05765497e-04, -6.71376754e-03, -2.05651037e-02,
       -1.25865936e-02, 5.86219598e-04, -1.37997710e-03, -7.98769179e-04,
       1.21737579e-02, 9.21155140e-03, 6.45665033e-03, -1.12245942e-03,
       -8.88479594e-03, -2.39829620e-04, -1.23969151e-03,
       -3.22341523e-03, -1.22316953e-04, -3.29712033e-03, 2.40934920e-02,
       4.23933147e-03, -3.47232306e-03, -1.02283275e-02, -1.04725054e-02,
       -5.51746739e-03, -2.74728029e-03, 3.36996140e-03, 1.09838909e-02,
       5.09507861e-03, -1.84764829e-03, -7.80902244e-03, -1.40494788e-02,
       -9.85816028e-03, -7.16922851e-03, -7.38969725e-03,
       -8.44691508e-03, -2.38813367e-03, 3.73185277e-02, -2.95742811e-03,
       2.76235188e-03, -5.64243877e-03, -8.25120322e-03, 1.15103712e-02,
       -6.11097552e-03, -8.28787405e-03, -1.03227771e-03,
       -1.51093747e-03, 2.50702398e-03, 1.14840884e-02, -6.40559103e-03,
       -5.80838881e-04, 1.57035291e-02, -4.79221856e-03, -1.50287803e-02,
       -5.08221472e-03, 1.46235684e-02, 1.31347841e-02, 5.14668552e-03,
       -3.87807074e-03, 4.45252610e-03, 4.72714892e-03, 1.02248145e-02,
       -1.33680617e-02, -5.18764788e-03, 1.92634517e-03, 5.30279474e-03,
       1.57220233e-02, -2.32746708e-03, -1.59661798e-03, 1.15919700e-02,
       -4.18597274e-03, -7.35060824e-03, 7.30821537e-03, 1.26872975e-02,
       1.42240962e-02, 1.66607723e-02, -4.36029816e-03, 4.28059977e-03,
       -1.00853725e-03, -1.28343068e-02, -2.02836096e-02,
       -1.67474505e-02, 6.98734913e-03, -3.74642131e-03, 7.01541128e-03,
       5.28472476e-04, 1.94996165e-03, -2.25911685e-03, -2.92401994e-03,
       -4.09195619e-03, -4.37211851e-03, 6.16608281e-03, -6.78482279e-03,
       1.61377396e-02, -7.84814009e-04, 8.69714282e-03, -2.20970600e-03,
       -1.47524243e-02, -1.84863769e-02, -4.15679021e-03, 8.04717187e-03,
       9.91738308e-03, 1.17359646e-02, -4.27110400e-03, -1.53690271e-04,
       -6.17576472e-04, -6.19980972e-03, -1.35868359e-02, 1.45595111e-02,
       7.24996999e-03, 1.09338965e-02, 1.59517005e-02, 8.19350127e-03,
       1.21244742e-02, -2.12974474e-03, -5.13352081e-03, 1.27030618e-03,
       6.87821303e-03, 1.47952018e-02, 3.28908488e-03, 3.57754948e-03,
       -1.01631545e-02, 5.45449415e-03, -9.81878582e-03, -2.18724050e-02,
       3.35816154e-03, 1.60275530e-02, 1.11656152e-02, 1.79040637e-02,
       6.73086755e-03, -7.38417031e-03, -4.20659548e-03, -2.50779167e-02,
       -1.61131080e-02, -9.69139859e-03, 1.04844831e-02, 1.64125785e-02,
       4.24198993e-03, 6.25104876e-03, 3.60546564e-03, 5.76750329e-03,
       -2.39430349e-02, -1.96886249e-02, -6.87557273e-03, 1.16550652e-02,
       -4.20498021e-04, 1.37941474e-02, 6.33714395e-03, 1.42636499e-03,
       -8.20919685e-03, -2.81988457e-03, -2.05298178e-02,
       -7.17636757e-03, -1.53401936e-03, 1.26957821e-04, 9.33091249e-03,
       4.98003280e-03, -2.14411854e-03, 2.46162759e-03, -1.09126116e-03,
       -9.11973696e-03, -6.67809555e-03, -2.34600175e-02, 6.08156621e-03,
       -5.16483840e-03, -7.84765184e-03, 2.40357360e-03, 3.46950418e-03,
       -6.40866254e-03, -6.52018795e-03, -1.54412922e-03, 5.79863973e-03,
       -9.50119051e-04, 3.13222711e-03, 1.60368567e-03, 3.41353426e-03,
       4.99778753e-03, 1.49216456e-03, 1.66661683e-02, 3.35281007e-02,
       1.01457909e-02, 1.22928647e-02, -1.02798054e-02, -1.08313747e-02,
       -4.82039433e-03, 1.63674483e-03, -7.67448684e-03, 2.16916334e-04,
       -9.63137764e-03, -2.55097300e-02, 7.03054108e-03, -6.22321432e-03,
       -1.32913617e-02, -5.20373229e-03, -1.18673220e-02, 2.47061066e-03,
       2.17693932e-02, 5.74434875e-03, -1.46137923e-02, -2.23627678e-04,
       -9.23011976e-04, 3.17351939e-03, -1.64913549e-03, -1.50296343e-02,
       -1.42274061e-02, 1.83330104e-02, 3.43794674e-02, -6.53431192e-03,
       2.04302347e-03, -1.07653588e-02, -3.00359856e-02, -2.17086840e-02,
       -1.89710669e-02, 1.47561092e-04, 1.62888113e-02, 3.44844647e-02,
       -4.93305875e-03, 1.16742228e-03, 8.80362559e-03, 1.16390853e-04,
       -1.28378076e-02, -1.56552438e-02, 9.96972155e-03, 2.14641076e-02,
       5.33519452e-03, -1.84406862e-02, -1.24004167e-02, -8.22340045e-03,
       -2.75932974e-03, -8.44067428e-03, -1.61890909e-02, 2.37697829e-02,
       1.89843960e-02, 7.80408410e-03, 3.12223681e-03, -1.11235995e-02,
       -1.95054002e-02, -2.71297377e-02, -2.20613852e-02, 1.57380162e-03,
       1.24232820e-03, 2.00361814e-02, 2.18234323e-02, -4.54040803e-03,
       -3.40177841e-03, 7.27413502e-03, -1.00204404e-02, -1.23950513e-02,
       -1.62248332e-02, 9.72322747e-03, 1.20669706e-02, 2.86636520e-02,
       2.09329482e-02, -4.80658980e-03, -7.58991577e-04, -1.46611920e-02,
       -1.96366515e-02, -8.95731733e-04, 2.93547809e-02, 2.19802130e-02,
       8.37425143e-03, -7.34803092e-04, -2.65996461e-03, -1.78310219e-02,
       -3.61385904e-02, -2.16985755e-02, 1.95764862e-02, 6.72817975e-03,
       -4.99127991e-03, -1.23780845e-02, -1.78340711e-02,
       -1.96731333e-02, -2.71586832e-02, -3.27319652e-02, 7.07023602e-04,
       1.97857656e-02, 1.91776473e-02, 1.45621467e-02, 3.60679217e-02,
       1.28341280e-02, 2.51706038e-03, -1.11801978e-02, -1.58135314e-02,
       -1.36554264e-03, 1.92885436e-02, 7.87982624e-03, -1.36403728e-03,
       -5.60731534e-03, -1.81340259e-02, -2.16322076e-02,
       -2.42291745e-02, -1.78159401e-02, 1.04733948e-02, 2.96200179e-02,
       -1.04074450e-02, -2.90762428e-02, -1.34790419e-02,
       -6.71889214e-03, 3.23429867e-03, -2.99375746e-02, -1.89982802e-02,
       1.13685206e-02, 1.77351050e-02, -1.29435910e-02, -2.24403385e-02,
       1.39535090e-03, 6.25280989e-03, -9.18577891e-03, -3.53067070e-02,
       -3.02895322e-03, 2.60201991e-02, 1.03260977e-02, -2.33650375e-02,
       -1.79979764e-02, -3.51092615e-03, -2.76344665e-03, 1.37611991e-02,
       -1.68675203e-02, -2.55923369e-03, 5.84235927e-03, 1.24542927e-02,
       -1.57262906e-02, -6.11282792e-03, -6.80887699e-03, 1.48729477e-02,
       3.40088014e-03, -1.71925202e-02, 6.15785411e-03, 3.20192017e-02,
       -3.27382633e-03, -1.23997116e-02, -7.79096782e-03, 6.35796832e-03,
       2.62843585e-03, -2.87088356e-03, 5.97904297e-03, 2.04314534e-02,
       2.68337410e-02, -2.68339831e-03, -9.72231012e-03, -1.07668350e-02,
       -1.11936254e-03, -2.33450849e-02, -1.96381472e-02,
       -7.42333150e-03, 1.64847039e-02, 1.31677622e-02, -1.49096875e-02,
       -1.50917610e-02, 7.95565662e-04, -1.14748226e-02, 4.22040652e-03,
       7.50258658e-03, 8.02272744e-03, 1.95348207e-02, 7.34609924e-03,
       -2.15567462e-02, -2.27700677e-02, -8.54941178e-03,
       -1.11590382e-02, -1.64679736e-02, 5.42672176e-04, 1.04184514e-02,
       -1.12143876e-04, -5.53565100e-03, -3.19640934e-02, 1.33746192e-02,
       -1.56302098e-03, -5.23900939e-03, -1.93367936e-02, 2.91411532e-03,
       1.23135047e-02, 2.10968647e-02, 1.26317423e-02, 3.24192853e-03,
       4.99481242e-03, -6.12849044e-03, -1.67344995e-02, -3.24968882e-02,
       -3.72326910e-03, 1.64717492e-02, 5.30632865e-03, -1.02980994e-02,
       -1.23991873e-02, 1.08192693e-02, 5.21112466e-03, -1.15216803e-03,
       -1.23345554e-02, 1.99493673e-02, 4.20522094e-02, 1.78577919e-02,
       2.68738419e-02, 3.00198444e-03, 4.85992245e-03, -6.71487860e-03,
       -1.26822200e-02, -2.16766056e-02, 1.60396025e-02, 2.18809359e-02,
       -2.28250516e-03, -4.84826602e-03, -9.23259091e-03,
       -1.08808791e-02, -1.10769505e-03, 1.30092809e-02, 9.71653685e-03,
       -3.39515763e-03, 2.99980817e-03, -8.52811430e-03, -1.24339284e-02,
       -1.52342776e-02, 3.76977096e-03, -5.27050532e-03, -1.67558761e-03,
       7.63098802e-03, -1.07370261e-02, 1.15515077e-02, 1.18866330e-02,
       1.31070556e-03, -2.20450875e-03, 5.80240879e-03, 1.24594523e-02,
       2.41012834e-02, 2.11102404e-02, 9.47679393e-03, 1.17132384e-02,
       -1.23744784e-03, -2.79501756e-03, -1.31702172e-05, 3.17335391e-04,
       -7.95007031e-03, -5.09313715e-04, 2.54526846e-02, 9.99322627e-03,
       2.82518566e-02, 1.56858135e-02, 5.73390105e-04, 2.80335266e-03,
       -4.48344712e-04, -7.77913397e-03, -1.56870228e-03, 3.41785280e-03,
       -6.49355259e-03, 8.32334347e-03, 3.93132865e-03, -5.41401003e-03,
       -6.64860290e-03, 1.00185815e-02, -1.82464835e-03, -3.09963105e-03,
       1.05521232e-02, -5.10618323e-03, 1.14631364e-02, 2.96608661e-03,
       -1.09884264e-02, -1.52717615e-02, 3.75282136e-03, -2.01285500e-02,
       -1.41959917e-02, 1.37431649e-02, 1.15519939e-02, 1.39081627e-02,
       9.37488209e-03, -4.22916748e-03, -2.40515405e-03, -6.84040505e-03,
       -1.55240661e-02, -1.45203872e-02, 3.03779403e-03, 1.85652147e-03,
       1.08147683e-02, 7.98266474e-03, -6.84956694e-03, -2.86016008e-03,
       5.91527903e-03, -3.76818725e-03, -8.58130585e-03, -2.67234538e-03,
       2.32927967e-03, -6.81744562e-03, -3.00144631e-04, -1.49213783e-02,
       -1.21751968e-02, 1.45103224e-02, -5.51324245e-03, 6.07604906e-03,
       7.56283104e-03, 1.50593405e-03, 1.84626353e-03, -9.43142921e-03,
       -1.14668095e-02, 3.75681766e-03, -2.64087506e-03, -1.86926890e-02,
       -7.89668690e-03, -3.76207940e-03, -1.23876845e-02, 8.23494233e-03,
       1.02327950e-02, -1.37178472e-03, 4.41330438e-03, -5.62950084e-03,
       -1.85785200e-02, -1.38590690e-02, -4.01947368e-03,
       -6.17968896e-03, -2.41554179e-03, 3.11711268e-03, -3.40988394e-03,
       -3.30159161e-03, 1.07310284e-02, 1.11767999e-03, 2.04041973e-02,
       1.65161639e-02, 1.08960988e-02, 7.20699504e-03, -1.58874281e-02,
       -9.19310190e-03, 5.86601812e-03, 7.92089570e-03, -6.29014522e-03,
       5.24995802e-03, 9.09864530e-03, -9.86952055e-03, -2.06304179e-03,
       -1.19756442e-02, 1.59457733e-03, 9.57183819e-03, 4.38532047e-03,
       -1.52302952e-02, 9.30535258e-04, -1.08859083e-03, -9.85144358e-03,
       -4.62692318e-04, -1.36265801e-02, -4.11200151e-03, 1.04076806e-02,
       7.84601260e-04, -7.57316034e-03, -1.14280535e-02, -1.11066941e-02,
       -1.36768594e-02, -7.42678717e-03, -1.06256073e-02, 1.40822083e-02,
       1.27454316e-02, 1.07944906e-02, 1.37999910e-03, 7.01424479e-03,
       3.62312980e-03, -2.09066062e-03, -1.18495561e-02, -1.29726911e-02,
       -5.24780387e-03, 4.96001961e-03, 1.15254652e-02, 7.92654417e-03,
       -1.18389842e-03, -9.31384880e-03, 1.70080289e-02, -4.17196471e-03,
       -2.03098310e-03, -6.82531297e-03, 6.41413871e-03, 1.20978840e-02,
       1.17214806e-02, -1.48624321e-03, -9.52966162e-04, -3.03656235e-03,
       -9.42219049e-03, -9.46344715e-03, 1.51812816e-02, 9.62029397e-03,
       1.15523003e-02, 5.40404255e-03, -1.82183343e-03, 1.64803886e-03,
       2.32975017e-02, -1.75292864e-02, -1.07970294e-02, -2.30947533e-03,
       1.93124416e-03, 1.58860646e-02, 4.44838498e-03, -2.00500637e-02,
       -1.24594383e-02, 2.26615975e-03, 5.89493755e-03, 7.32075656e-03,
       -4.13492834e-03, 9.23743937e-03, 1.91056321e-03, -8.40620324e-03,
       -2.46225297e-02, 2.95984652e-03, 2.21463293e-02, 1.78486928e-02,
       1.10383034e-02, -4.40997770e-03, 1.94961410e-02, 1.74392704e-02,
       1.68534659e-03, -9.98071302e-03, 9.26142279e-03, 7.93733448e-03,
       -4.20090742e-03, -1.11920377e-02, -1.08783143e-02, 5.73181314e-03,
       -8.74826452e-04, -1.29825273e-03, -1.11185927e-02, 6.13765139e-03,
       2.48283464e-02, 7.71797355e-03, 1.52047828e-03, 9.73712839e-03,
       1.27131157e-02, -9.31763556e-03, -1.46550108e-02, -1.95181798e-02,
       -2.51011085e-03, 5.66203054e-03, 5.71615016e-03, -1.50836620e-03,
       -8.07654765e-03, -3.55874130e-04, -5.37229003e-04,
       -1.39129646e-02, -2.15843301e-02, 8.01801402e-03, 3.19446612e-04,
       -5.97115001e-03, -9.98258474e-05, -4.35770256e-03, 1.37568370e-03,
       -1.57124624e-02, -3.84966959e-03, -1.03990808e-02, 3.71726346e-03,
       2.13805698e-02, 8.33102968e-03, 1.96762942e-03, 2.87190126e-03,
       -7.22586550e-03, 1.84588355e-03, 6.68683182e-03, 4.23524342e-03,
       1.81102306e-02, 1.44275120e-02, 2.10385933e-03, 2.01234175e-03,
       8.61842744e-03, -3.36985267e-03, -1.51067544e-02, -2.10588388e-02,
       -2.16653291e-02, 1.85106532e-03, -1.18394720e-03, 1.41062203e-03,
       9.53251321e-04, -2.66959751e-03, 2.20473128e-04, -1.90873723e-02,
       -1.17076775e-02, -1.62050799e-02, -1.80351660e-02,
       -6.61794282e-03, 4.85683652e-03, -4.34446335e-03, 4.88798553e-03,
       3.29047936e-04, -6.98366901e-04, 6.10625651e-03, 6.31135609e-03,
       5.94202615e-03, 1.02275005e-02, 1.58253796e-02, 9.85857565e-03,
       5.53197926e-03, -2.88062356e-03, -4.72302409e-03, 1.47171533e-02,
       1.15511809e-02, -1.93921631e-04, 1.07175875e-02, 1.42564075e-02,
       1.27529465e-02, 1.75260771e-02, -5.07502118e-03, -1.36088310e-02,
       -5.22244861e-03, -2.52246275e-03, -2.22329423e-02,
       -1.40509196e-02, -4.96661570e-03, -1.18981516e-02,
       -1.58705376e-03, -4.09835688e-04, -4.33586258e-03, 1.96316605e-03,
       2.17551701e-02, -1.00460267e-02, -7.38287531e-03, -1.33120539e-02,
       -2.59780064e-02, -1.37316789e-02, 8.57205770e-04, -1.33871508e-03,
       1.11536691e-02, 7.42124999e-03, -2.26403810e-02, 4.34451317e-03,
       1.20964497e-02, 1.14022067e-03, 9.58408287e-04, -2.62817717e-03,
       4.00366820e-03, 1.05298618e-02, 1.02771688e-02, 8.38319678e-03,
       5.78021724e-03, 1.14532495e-02, 1.71646534e-03, 8.84648599e-03,
       7.33828265e-03, -1.55215319e-02, 4.09711618e-03, 2.10506972e-02,
       -1.18887424e-02, -1.58028658e-02, -2.02845931e-02,
       -2.37025730e-02, -2.38149036e-02, -1.75902154e-02,
       -1.69805214e-02, -1.82808086e-03, 2.10144557e-02, -6.23883540e-03,
       5.71133045e-04, 4.45273332e-03, -1.01343924e-02, -1.29545778e-02,
       -1.24930292e-02, -4.49047051e-03, 2.53884215e-03, 7.61099067e-03,
       -4.78324982e-05, 7.15274597e-03, 1.05581386e-02, -4.35323920e-03,
       9.87947546e-03, -4.66618780e-03, -4.10209224e-03, 1.14479624e-02,
       1.78820193e-02, 1.96129587e-02, 1.39431795e-02, 3.42529081e-02,
       7.62852887e-03, 1.14798183e-02, 1.05703529e-03, -6.91109244e-03,
       8.80340859e-03, 1.35610057e-02, -1.47162704e-03, 2.81917560e-03,
       8.20977520e-03, -1.53908124e-02, -1.41846715e-02, -1.33418115e-02,
       6.35902025e-03, 9.61120613e-03, 8.75970442e-03, -5.63772675e-03,
       -9.26312711e-03, 4.11791774e-03, -1.78842973e-02, -1.99030656e-02,
       -1.70690520e-03, -1.80438417e-03, 2.37453133e-02, 7.09323119e-03,
       5.27744740e-03, 2.76521547e-03, 2.22256389e-02, -9.44887695e-04,
       -3.99301108e-03, -4.67355974e-04, 1.37727140e-02, 1.81364547e-02,
       1.47074787e-02, -9.54942871e-03, -6.19082898e-03, -2.10264558e-03,
       -1.73834097e-02, -5.02071390e-03, -6.27926178e-03, 2.97140540e-03,
       2.93535017e-03, 3.93406022e-03, -1.09173832e-02, 2.62891268e-03,
       -1.56844512e-03, -1.56010166e-02, -4.18874144e-04, 7.68273138e-03,
       -9.30547030e-05, -9.03276540e-03, -2.22216304e-02,
       -3.95904258e-02, -2.85052005e-02, -1.98930148e-02, 3.67156789e-03,
       1.65621080e-02, 1.22390678e-02, 2.32526958e-02, 1.97412223e-02,
       1.19019337e-02, -8.08875635e-03, 5.43927890e-05, 7.95942440e-04,
       -2.15714537e-02, 7.57820252e-03, -9.99897998e-03, 1.47379562e-02,
       1.05465725e-02, 9.83892751e-05, -2.14596670e-02, -1.90245137e-02,
       -9.29817837e-03, 1.17474208e-02, 1.79125816e-02, 5.78397361e-04,
       -1.47877820e-02, -1.61065981e-02, -2.76339408e-02,
       -3.56422476e-02, -1.92750581e-02, -1.86866522e-02, 9.37148929e-03,
       7.01481104e-03, 6.56525791e-03, -1.49254231e-02, -1.23773208e-02,
       -1.95435695e-02, -1.17144743e-02, -2.14179810e-02,
       -1.93556044e-02, 1.59707181e-02, 1.63978953e-02, -8.83339066e-03,
       -3.22080962e-03, -8.75966251e-03, -1.20045803e-02,
       -2.90431678e-02, -6.13044575e-03, 3.54284234e-03, 3.28047536e-02,
       2.56731287e-02, 7.70443678e-03, -7.37379305e-03, -8.81977566e-03,
       -6.20040984e-04, -2.99002044e-04, -1.43861268e-02, 1.08048944e-02,
       2.60879193e-02, 2.62518860e-02, 2.85642245e-03, -3.17258434e-03,
       -7.86912569e-04, -1.25744427e-02, -6.79826224e-03, 3.53454682e-03,
       5.11312671e-03, 1.80544835e-02, 2.45472183e-03, -1.38795925e-02,
       -6.51251897e-03, -1.21217696e-02, -1.79008674e-02,
       -2.27729417e-02, -2.22605420e-03, -3.66690243e-03,
       -1.33884996e-02, -6.63316064e-03, -1.18683241e-02,
       -6.82096323e-03, 4.00456367e-04, 5.12873288e-03, 1.67575236e-02,
       4.97876946e-03, 1.41588766e-02, 1.38608320e-02, 7.44438451e-03,
       -2.36013858e-03, -7.19642034e-03, -7.85729755e-03, 3.66259576e-03,
       9.60039068e-03, 1.06686195e-02, 1.54784694e-02, -9.25402250e-03,
       -1.51660694e-02, -1.14391185e-02, 4.86135762e-03, -9.04715806e-03,
       -1.81351155e-02, -3.30614075e-02, 1.75887737e-02, 4.38070931e-02,
       1.25552784e-03, 9.54486546e-04, 1.36606395e-04, -1.08464120e-03,
       -1.96286887e-02, -1.59777291e-02, -3.22493501e-02,
       -6.63797883e-03, 1.17637450e-03, -1.58652291e-02, -1.08120739e-02,
       -4.06717183e-03, 4.40199999e-03, -2.57143728e-03, -3.32060299e-04,
       -6.04763045e-04, 2.03853454e-02, 5.31390831e-02, -8.03179946e-03,
       -1.04924878e-02, -4.55580279e-03, 4.21961118e-03, -9.08806548e-03,
       -1.34107275e-02, -2.63657458e-02, 1.80632863e-02, 1.97092872e-02,
       -1.31249009e-03, -1.02922255e-02, 2.58386764e-03, 4.84036515e-03,
       1.08135603e-02, 1.33693982e-02, 1.56100411e-02, 5.77632384e-03,
       6.14553876e-03, 2.20393669e-03, -9.62151587e-03, 2.13353298e-04,
       4.89212852e-03, -6.62917830e-03, 4.10743942e-03, 1.57536454e-02,
       1.78964138e-02, 1.31079378e-02, 6.57019031e-04, -1.37120876e-02,
       -2.21018377e-03, -2.44207005e-03, 8.23226850e-03, 6.77732425e-03,
       2.59705028e-03, -7.17693183e-05, 9.93867870e-03, 1.43614151e-02,
       -7.45798287e-04, -1.64543360e-03, 1.14392554e-02, -1.05722318e-03,
       -6.22286898e-05, 4.52428171e-03, -1.82118397e-02, 4.47685644e-03,
       1.13349268e-02, 4.20526229e-03, 4.38032579e-03, 3.88251035e-03,
       -1.28860306e-02, -9.12408158e-03, 7.38237519e-03, 7.16519589e-03,
       6.37297658e-03, 1.97142689e-03, -7.38090137e-03, -1.05366856e-03,
       -5.33935986e-03, -1.13126840e-02, -7.58654578e-03, 1.77527731e-03,
       -5.89631090e-04, 5.93611272e-03, 5.24436589e-03, -1.78133999e-03,
       7.54049560e-03, 1.23613495e-02, -2.39503500e-03, 1.80473994e-03,
       7.08224904e-03, -1.44539995e-03, -8.65079928e-03, 3.92431626e-04,
       -8.02587345e-03, 1.26935570e-02, -6.95361523e-03, -3.47076915e-03,
       1.40664773e-03, 7.31345639e-03, 3.74089880e-03, -2.12420430e-03,
       -1.92791852e-03, -4.22544690e-04, 2.73197959e-03, 5.04230335e-03,
       -1.26306750e-02, 1.75919826e-03, 4.38353326e-03, -2.82168901e-03,
       7.25932466e-03, 4.44783363e-03, 5.39288530e-03, 1.11560421e-02,
       -1.84857100e-03, -1.28589803e-02, -9.44089331e-03,
       -8.50871298e-03, -5.85616101e-04, 3.14118457e-03, 1.11204702e-02,
       6.65754918e-03, -5.66236908e-03, -3.68197146e-03, -5.95615292e-03,
       4.91419528e-03, 1.38571942e-02, 2.86910916e-03, -2.06431537e-03,
       3.86754167e-03, 3.84927611e-03, -2.48168549e-03, -1.00523578e-02,
       -1.11843310e-02, -5.64843277e-03, 1.19825592e-03, 3.33999353e-03,
       2.40261783e-03, 1.10316314e-02, 2.52095447e-03, -6.21016929e-03,
       1.03431074e-02, -9.83793754e-03, -5.18177076e-05, -4.26475052e-03,
       -5.36103314e-03, -4.98403911e-04, -2.86069070e-03, 5.43072936e-04,
       5.92082134e-03, 7.46781565e-03, -6.33900706e-03, -1.70489531e-02,
       -4.40906221e-03, -3.92040145e-03, -9.63796396e-03,
       -1.53335445e-02, -1.65212329e-03, 7.01874588e-03, 1.13094999e-02,
       -6.82279747e-03, 6.82047522e-03, 8.10067169e-03, -7.35646859e-03,
       4.05634055e-04, -7.39598367e-03, -5.44276787e-04, 4.88606235e-03,
       1.24511905e-02, -1.18047800e-02, -1.48680899e-02, 2.43838527e-03,
       -6.95485249e-03, -3.53785418e-03, -1.95285119e-02,
       -1.13827726e-02, 1.09617412e-02, 2.74720578e-03, -9.64184583e-04,
       -1.68230161e-02, 1.47168594e-03, 1.13947447e-02, -1.31350337e-02,
       -1.13833714e-02, 5.44145610e-03, 1.02931457e-02, 7.63123063e-03,
       -1.49108786e-02, -6.02023117e-03, 7.01237982e-03, 2.91752070e-02,
       -1.45995058e-02, -7.81956408e-03, 3.63448868e-03, 1.00172469e-02,
       4.84484620e-03, -1.92347094e-02, -2.00905912e-02, -2.76290765e-03,
       4.81084827e-03, -4.60340176e-03, -1.17250327e-02, 8.63261288e-04,
       1.81876663e-02, 1.42991422e-02, -1.86368520e-03, -3.13714496e-04,
       2.67510512e-03, 8.73061735e-03, -4.05332679e-03, 1.29050715e-02,
       1.64038520e-02, 1.41878733e-02, 5.83252916e-03, -1.42636728e-02,
       -5.78158675e-03, 5.64933196e-03, 4.79773851e-03, -1.80725511e-02,
       -1.16597805e-02, -5.20577468e-03, -2.59852083e-03, 9.58533864e-03,
       6.11596229e-03, -4.41772072e-03, -6.00170344e-03, 1.93895889e-03,
       -9.80171561e-03, -5.37924375e-03, 4.37060138e-03, 1.21703325e-02,
       -4.90113022e-03, -4.55340324e-03, -7.96928257e-03, 1.24027068e-02,
       -8.88887607e-03, -8.94074794e-03, 9.42011084e-03, 1.67180356e-02,
       -3.02142440e-03, 5.46650169e-03, 1.14675090e-02, 1.91774417e-03,
       1.40006030e-02, 2.67471187e-04, -6.09333743e-04, 9.21695679e-03,
       1.29588712e-02, 6.56969193e-03, -7.40824454e-03, -1.40126469e-03,
       -7.50127295e-03, -2.76936172e-03, -3.21631809e-03,
       -1.43323978e-02, -7.41981110e-03, -7.15807779e-04,
       -8.02656263e-03, -3.35187931e-03, 4.80747642e-03, 8.04496557e-03,
       5.02738031e-03, 2.33593956e-03, -6.02837140e-03, -6.25397684e-03,
       6.21383730e-03, -5.47808269e-03, -4.75413678e-03, 4.59150970e-03,
       6.91631017e-03, 1.06305536e-02, 5.71874902e-04, -1.58535652e-02,
       -7.29810912e-03, -7.98979122e-03, -4.28518653e-03,
       -9.68182646e-03, 3.42502631e-03, 8.33940518e-04, 1.48059102e-02,
       5.33104932e-04, -2.54250481e-03, 1.60154030e-02, 1.38583025e-02,
       -1.03817796e-02, -1.10015357e-02, -2.78872484e-03, 7.64599815e-03,
       -5.59012499e-03, -2.60014180e-03, -5.23163378e-03,
       -1.52816216e-03, -1.57693739e-03, -1.89899281e-02,
       -1.24819921e-02, 1.55726110e-03, -2.75653647e-03, -2.83738542e-02,
       -5.43753803e-03, -1.37496286e-03, 1.01727815e-02, -3.19166994e-03,
       -2.29914933e-02, -1.02963736e-02, 1.08637409e-02, 5.00021176e-03,
       3.33238160e-03, -2.67750188e-03, 4.78434889e-03, 8.98659602e-03,
       1.19143631e-02, -1.41389593e-02, -2.47947057e-03, 2.83556879e-02,
       7.97357969e-03, -1.81196555e-02, -7.51462299e-03, 1.81605574e-02,
       1.11622289e-02, 6.55894540e-03, -1.04373833e-02, 2.91309948e-03,
       1.03227505e-02, -7.19332136e-03, -3.05976290e-02, -1.80440377e-02,
       3.66261578e-03, 7.64700118e-03, -1.34706544e-02, -1.02739492e-02,
       1.41924452e-02, 3.65663529e-03, -2.12622480e-03, -4.68102796e-03,
       -7.91661814e-03, 4.77318093e-03, -5.89854922e-03, -1.63337030e-02,
       4.62144926e-05, -1.26264710e-03, 2.66497936e-02, -1.71946548e-03,
       -2.24066470e-02, -1.64615773e-02, 1.90510247e-02, 8.58863443e-03,
       -9.00015421e-03, -1.62639190e-02, 1.21616535e-02, 1.49659915e-02,
       3.57544469e-03, 1.18027311e-02, 4.19884315e-03, 2.15822309e-02,
       1.41270133e-02, -1.72845647e-02, -9.59931128e-03, 2.03147810e-02,
       1.46713182e-02, 5.42309787e-03, 3.55494837e-03, 8.41122773e-03,
       9.42793302e-03, -1.29628954e-02, -5.49217314e-03, 1.16482386e-02,
       1.12612247e-02, 2.21699718e-02, 9.81842447e-03, 1.02396309e-02,
       4.96796053e-03, 1.66986454e-02, -1.17622549e-02, -2.98466929e-03,
       1.31562445e-02, 1.36593338e-02, 1.55814122e-02, 3.59327067e-03,
       1.18420692e-02, 3.24576604e-03, 9.82103776e-03, -5.56445448e-03,
       -1.51289096e-02, -1.33385742e-02, 5.66332042e-03, 2.40418408e-02,
       3.34164896e-03, 7.50287343e-03, -5.43052098e-03, -9.24719125e-03,
       -2.83607189e-02, -1.21116703e-02, -1.22522591e-02, 6.56224322e-03,
       2.98075639e-02, 9.82077979e-03, 3.51599930e-03, -4.24926344e-04,
       1.04283979e-02, -7.19728973e-03, -9.39978473e-03, 9.45417490e-03,
       2.31857318e-02, 2.88718082e-02, 1.66176632e-02, 4.42318292e-03,
       -7.75529025e-03, -2.20538187e-03, -5.90158254e-03, 4.81448276e-03,
       8.95670429e-03, -4.05748794e-03, 2.08376572e-02, 1.91318442e-03,
       -3.18252241e-05, -5.43965818e-03, -6.87183766e-03,
       -1.72847863e-02, -1.10036950e-03, -1.43038956e-02,
       -1.52642922e-02, 1.48624508e-02, 3.27583193e-03, 1.19552924e-03,
       -1.14067458e-02, -1.40455524e-02, -8.17941036e-03,
       -4.93574468e-03, -1.62673015e-02, 1.89311840e-02, 2.43389104e-02,
       8.19951296e-03, -3.91168380e-03, 1.35734621e-02, -2.99218087e-03,
       -2.45968695e-03, 5.56778722e-03, 3.11094848e-03, 8.20156746e-03,
       3.84565094e-03, 6.23552548e-03, -1.98627058e-02, -8.45706835e-03,
       -1.42995110e-02, 1.26344785e-02, 1.63539406e-02, 4.70518426e-04,
       -2.41846144e-02, -2.62179226e-03, -5.75235719e-03, 9.69213608e-04,
       4.00513504e-03, -1.85141917e-02, -1.24444463e-03, -8.59765429e-03,
       -1.20048039e-02, -2.29851473e-02, -1.19354147e-02,
       -5.57199586e-03, -1.64535027e-02, -9.97419935e-03,
       -1.63884126e-02, 2.26159245e-02, 2.00085118e-02, -1.07743517e-02,
       -7.55152805e-03, -1.56536195e-02, -6.64516166e-03,
       -1.29801836e-02, 3.53308767e-03, -3.75661580e-03, 2.65168063e-02,
       1.45590771e-02, -4.92435880e-03, -9.76434443e-03, -7.18326494e-03,
       -3.60857951e-03, -1.28448587e-02, -2.06158068e-02,
       -9.20580141e-03, 1.79250892e-02, 1.31946160e-02, -5.34993224e-03,
       -2.03748122e-02, 1.40693306e-03, 9.20512062e-03, 1.15976082e-02,
       7.33124046e-03, -1.16546173e-02, 1.29584782e-02, 1.02057355e-02,
       -8.09756014e-03, -1.32485712e-02, -9.45473032e-04, 1.30166821e-02,
       7.81210372e-03, -4.15710639e-03, -1.32915005e-02, 7.43585918e-03,
       1.85270549e-03, -4.78689978e-03, -6.58551184e-03, -1.36826723e-03,
       5.16336935e-04, -2.28291450e-04, 6.75665680e-03, 4.77165310e-03,
       8.38859472e-03, 6.77746581e-03, -3.09058721e-03, -6.97708270e-03,
       -4.12433967e-03, 3.57225840e-03, 2.51683989e-03, 3.12170479e-02,
       -1.48602622e-02, -1.42538575e-02, -7.26076122e-03,
       -1.07318955e-02, -7.90310930e-03, 1.03405546e-02, 9.94513743e-03,
       1.82452444e-02, 9.48432833e-03, -5.60840778e-03, 5.82832517e-03,
       6.39172457e-03, -1.54467570e-02, -5.63894119e-03, 1.42162796e-02,
       -3.21857934e-03, 3.89122986e-03, 1.22884279e-02, -1.76639222e-02,
       -7.42396014e-03, -2.09136796e-03, -1.57277398e-02,
       -1.67736411e-03, -1.46053405e-03, 3.21957166e-03, -1.90148212e-03,
       1.71747711e-02, 2.61725672e-02, -7.75613356e-03, -8.40883981e-03,
       -5.72019862e-03, -2.90571433e-03, -5.56405634e-03,
       -1.14916395e-02, -1.57214440e-02, 1.27673103e-02, 3.43324966e-03,
       -6.46910258e-03, -3.81777040e-03, -3.41363437e-03,
       -3.70957842e-03, 8.62566382e-03, 2.87106051e-03, -1.20625086e-03,
       1.67216826e-02, 1.46831283e-02, 1.13713462e-02, 8.96129664e-03,
       -5.81109058e-03, -1.20690716e-02, -1.35116195e-02,
       -1.12053519e-02, -1.16519360e-02, 3.38590518e-02, 3.21844337e-03,
       -6.06305338e-03, 2.11483496e-03, -5.96598536e-03, 1.05369966e-02,
       2.01201215e-02, 8.06013402e-03, -8.71974230e-03, -6.99135428e-03,
       1.14142653e-02, 5.84662240e-03, -8.05429649e-03, 1.93420594e-04,
       1.47355655e-02, 1.41938096e-02, 3.84464860e-03, 9.23034968e-04,
       -6.21036440e-03, 1.02756009e-03, 1.10540334e-02, 8.75676237e-03,
       1.68792643e-02, 3.45487962e-03, 1.46071827e-02, -2.41998769e-03,
       -1.17249656e-02, 7.07156863e-03, 2.51110066e-02, -9.82670486e-03,
       -9.31882951e-03, -1.18063753e-02, -2.50316598e-03, 1.11909555e-02,
       1.29961001e-03, -6.65145786e-03, -1.77891064e-03, 1.66821256e-02,
       -2.15295586e-03, 8.28717276e-03, 5.43158560e-04, 1.09070903e-02,
       5.12923673e-03, 1.72571209e-03, 9.73351765e-03, -3.27637582e-03,
       -9.19428095e-03, -4.14199149e-03, 6.89666485e-03, 2.12714672e-02,
       -2.39446107e-03, 3.40464269e-03, 1.46041566e-03, -2.09013256e-03,
       1.26709428e-03, -5.98097872e-03, 5.80092706e-03, 1.26793776e-02,
       1.57790619e-03, 3.20250681e-03, -3.92863341e-03, 3.44453729e-03,
       3.71186272e-03, 2.49589677e-03, 4.51656245e-03, -4.33725677e-03,
       4.14599339e-03, 9.10182763e-03, -6.07754011e-03, -7.10212905e-03,
       1.00001707e-04, 4.20500757e-03, 3.97292152e-03, 5.42470068e-03,
       9.46835801e-03, 7.06800539e-03, -8.84735491e-04, 1.24072016e-03,
       7.71187199e-03, 6.52998500e-03, 8.11264012e-03, -2.66228383e-03,
       -3.29583511e-03, 1.40612694e-02, 1.01439580e-02, -5.98475849e-03,
       -4.91965376e-03, -6.83710631e-03, -1.33340759e-03, 5.97137772e-03,
       1.46933543e-02, 1.00887613e-02, 8.81817937e-03, 1.14246551e-03,
       -5.30196540e-03, -9.00152605e-03, 6.42805733e-03, 1.59252081e-02,
       3.09943268e-03, -2.29468150e-03, 4.64101788e-03, 1.93863902e-02,
       9.71227977e-03, -3.03940556e-04, 6.74874522e-03, 7.37857400e-03,
       -1.60896126e-03, -4.55086632e-03, 1.16406493e-02, 2.84573785e-03,
       1.17764622e-02, -3.50907026e-03, -1.14509147e-02, 1.81665455e-04,
       -7.79304560e-03, -3.79876932e-03, 5.57554653e-03, 4.33928985e-03,
       8.83561000e-03, 1.19072665e-03, -2.92979204e-03, -5.72274113e-03,
       6.81689382e-03, -1.10033723e-02, -5.31594036e-03, -7.41531199e-04,
       5.03897259e-04, 1.52130658e-02, -4.71050711e-03, -5.45228086e-03,
       9.42658074e-03, 4.52152826e-03, -5.85293223e-04, -1.39010344e-02,
       -5.36792772e-03, 3.76302609e-03, 1.63492095e-02, 1.13447011e-02,
       -1.15836337e-02, -1.45263514e-02, 1.19857956e-02, 3.37802200e-03,
       1.42503735e-02, 7.51402345e-04, -3.88503177e-05, 8.87967553e-03,
       5.37583604e-03, -9.21711675e-04, 7.44607765e-04, -3.32388998e-04,
       -2.16104109e-02, -1.51494676e-02, -1.08987726e-02,
       -1.36502394e-02, -3.83980310e-04, -5.93796559e-03,
       -4.97872999e-04, 1.17973294e-02, 4.53788228e-03, 2.28006043e-03,
       5.84994163e-03, 8.31516052e-04, -1.63092781e-02, -7.60708330e-03,
       6.12923363e-03, 2.30026292e-03, 6.38662651e-03, 3.05472570e-03,
       -2.02184339e-04, 2.04279739e-03, -9.99587588e-04, -1.76110193e-02,
       -5.32026682e-03, 1.86890643e-03, -3.53052514e-03, 8.14418215e-03,
       1.41924862e-02, 1.27828084e-02, 9.24304966e-03, 2.30570622e-02,
       -9.39862657e-05, -3.77081055e-03, 3.77623626e-04, -1.88018414e-04,
       4.44743456e-03, -5.68654854e-03, -1.26859336e-03, -9.12631117e-03,
       6.32770534e-04, -1.50453299e-02, -8.40217248e-03, -1.66828011e-03,
       3.47954058e-03, 1.88377674e-03, -2.67151580e-03, 9.70882131e-04,
       5.61929028e-03, 8.78167630e-04, -1.12967333e-03, -2.91202869e-03,
       9.83990543e-03, 4.11968771e-03, 6.44088956e-03, 2.70551536e-03,
       9.77654103e-03, 3.98344826e-03, 9.16700810e-03, -1.79390132e-03,
       -6.65310118e-03, -3.27015342e-03, 6.83838315e-03, -4.54973709e-03,
       -9.72624752e-04, -1.97464763e-03, -1.44190155e-02,
       -9.80552658e-03, 1.59242284e-02, 1.17418850e-02, 2.55213901e-02,
       1.25879012e-02, 2.83753616e-06, -1.03235468e-02, 8.32514092e-03,
       6.30902546e-03, -1.45332725e-03, -4.95949294e-03, -1.07179079e-02,
       1.29058398e-03, -1.45424474e-02, -1.49744907e-02, 6.83599059e-03,
       2.66492497e-02, 2.73975972e-02, 9.90208052e-03, -2.79933331e-03,
       -1.31228392e-03, 1.35606490e-02, 9.73454304e-03, -1.18598128e-02,
       -1.18577462e-02, 7.35312514e-03, 2.55699572e-03, -1.81670040e-02,
       -1.40912114e-02, -9.33239330e-03, 2.37603020e-02, -4.41617565e-03,
       -1.67393051e-02, 3.01137078e-03, 2.54626907e-02, 2.82521993e-02,
       1.69312011e-03, -4.63503506e-03, -1.05251546e-03, 1.95780732e-02,
       5.80227235e-04, -1.51778553e-02, 5.90111734e-03, 2.91971080e-02,
       1.77765805e-02, -5.57114370e-03, -2.05984190e-02, -3.90164810e-03,
       1.02125593e-02, 4.08488559e-03, -1.93651896e-02, 4.15909337e-03,
       2.66601387e-02, 1.10789267e-02, -2.43163593e-02, -2.18666811e-02,
       6.70964643e-03, 3.46418680e-03, -7.50148436e-03, -7.75389140e-03,
       5.89400530e-04, 2.00153049e-02, 1.89045817e-02, -1.13549838e-02,
       -3.23427282e-02, 5.47342119e-04, 7.84425251e-03, -8.54598451e-03,
       -1.43172154e-02, 3.87323811e-03, 4.80198814e-03, -7.75786070e-03,
       -3.01827919e-02, -3.46501321e-02, 1.08980748e-03, 3.53617733e-03,
       -2.57851426e-02, -1.81974855e-03, 7.26871239e-03, 2.19581202e-02,
       -1.00732362e-03, -1.14987707e-02, -1.88637078e-02, 1.87206790e-02,
       3.40379938e-03, -8.83563980e-03, -6.01304322e-03, -2.39656167e-03,
       1.64455175e-02, -3.60616064e-03, -4.10592416e-03, -1.19090481e-02,
       1.07262591e-02, 3.50201805e-03, -1.55478083e-02, -1.53714828e-02,
       8.40428766e-05, 8.86858534e-03, -6.37087785e-03, -1.28810443e-02,
       -8.85732379e-03, 8.72711185e-03, 1.34749869e-02, -1.80897377e-02,
       -7.68023916e-03, -6.90128561e-03, 1.91302318e-03, -1.13152917e-02,
       -1.49733825e-02, 5.82228182e-04, -3.43135267e-04, 2.97649764e-03,
       -2.58943532e-02, -2.12722942e-02, 4.25166683e-03, 1.97252575e-02,
       6.20505353e-03, 5.52251376e-03, -8.09632242e-03, 6.47775503e-03,
       3.12099536e-03, -2.75459397e-03, -3.27458000e-03, 5.68355480e-03,
       2.05437373e-02, 4.18344280e-03, 3.99144506e-03, -1.16986642e-02,
       -9.56580229e-03, -1.94130968e-02, -7.51715852e-03,
       -1.97002501e-03, -4.82950453e-03, 1.85006426e-03, -4.27290006e-03,
       -4.62101074e-03, -2.79150694e-03, -1.44869443e-02,
       -4.52978956e-03, -6.42746920e-03, -9.10704769e-03,
       -1.26063954e-02, -7.80845061e-03, 2.46340735e-03, -9.27889999e-03,
       -7.33024301e-03, -1.48728425e-02, -1.79093014e-02, 6.97629713e-03,
       -7.19279097e-03, -3.12956586e-03, 2.01473739e-02, 5.62890619e-03,
       -9.13337898e-03, -2.54421029e-03, -5.97959058e-03,
       -1.43050337e-02, -4.87519335e-03, -5.61617408e-03,
       -2.28124205e-02, 1.36280088e-02, -7.78692495e-03, -1.82093475e-02,
       -1.81005057e-03, 1.85378583e-03, 6.14891481e-03, 8.11001193e-03,
       -7.50948209e-03, -1.06544122e-02, 2.38205842e-03, -2.83526699e-03,
       -2.13456154e-02, -6.77700946e-03, -7.44294329e-03,
       -2.65669972e-02, 1.82979740e-02, 1.52892177e-03, 2.04816251e-03,
       6.00667717e-03, -1.80745125e-02, -2.69252378e-02, -9.39788017e-03,
       -1.10988989e-02, -1.19461445e-02, 9.50903818e-03, 5.27973566e-03,
       -3.18769924e-02, -9.78865474e-03, -1.24753425e-02,
       -1.09911868e-02, 6.94410363e-03, -3.03663593e-03, 5.38081862e-03,
       9.74553055e-04, -1.28768263e-02, -2.27346420e-02, -4.05455846e-03,
       7.56027468e-04, -1.49917835e-02, -3.59028880e-03, -7.99705181e-03,
       2.29183622e-02, 1.71304327e-02, -1.28151430e-02, -1.32769980e-02,
       7.16377981e-03, -9.76078492e-03, -2.61261817e-02, -1.58184499e-03,
       -9.37422644e-03, -1.00799529e-02, 1.19749049e-03, -7.48824561e-03,
       -8.12208373e-03, 1.32620484e-02, 2.61330279e-03, -2.66790185e-02,
       -8.78950395e-03, -9.65635665e-03, 1.94312108e-03, 5.59232198e-03,
       -6.12936588e-03, -1.37688722e-02, 7.35341897e-03, 1.55709172e-02,
       3.49146361e-03, 1.29776839e-02, -1.25398487e-02, 8.18832312e-03,
       1.44711165e-02, -1.90818328e-02, -1.79966129e-02, 1.23002287e-02,
       1.36225242e-02, 1.82414090e-03, -7.60795921e-03, -2.00023260e-02,
       4.68823314e-03, -7.04205874e-03, -1.56697053e-02, -3.55101121e-03,
       2.06499416e-02, 1.56802833e-02, -1.51106603e-02, 2.79469602e-03,
       -1.98907144e-02, -1.11956503e-02, -1.15601495e-02,
       -1.17018716e-02, -7.93150440e-03, 1.19102020e-02, 9.57668293e-03,
       -6.63631316e-03, -1.87168084e-02, -1.63697153e-02,
       -2.47024396e-03, -4.35537891e-03, -1.34012094e-02,
       -1.62736233e-02, 7.37990346e-03, 1.81938857e-02, 1.07106911e-02,
       -7.12705078e-03, -7.49056635e-04, 8.56113061e-03, -6.36620866e-03,
       -2.16174480e-02, -1.63389519e-02, 1.21184466e-02, -1.20787462e-02,
       -1.15463175e-02, -2.31797691e-03, 1.55502325e-03, -1.90049934e-03,
       -9.43993498e-03, -1.64103284e-02, -3.75026651e-03, 1.56212959e-03,
       1.49614466e-02, 2.91828644e-02, 2.37611122e-03, -5.60988393e-03,
       -2.20076111e-03, -7.33230868e-03, -4.93235234e-03,
       -7.58873904e-03, -6.73135323e-03, -4.68207663e-03, 1.25082033e-02,
       -3.28866299e-03, -6.75866101e-03, -1.60540286e-02,
       -1.03684133e-02, -3.51049635e-03, -3.46842804e-03, 9.15725436e-03,
       -3.04142805e-03, -8.39732215e-03, 1.75849851e-02, 2.20693294e-02,
       4.65976261e-03, -5.04349265e-03, -1.11507848e-02, -1.04983235e-02,
       -1.56584010e-02, -2.08707843e-02, -2.76732165e-02, 2.74088290e-02,
       8.73851404e-03, -6.81545679e-03, -8.17903411e-03, -1.02487672e-02,
       2.93302722e-03, 4.72723180e-03, -3.83897591e-03, 4.96545015e-03,
       1.16613237e-02, 3.58573534e-02, -5.00582531e-03, -4.64393897e-03,
       3.29400972e-03, -9.98353865e-03, -2.40751784e-02, -2.47217789e-02,
       -1.70319863e-02, 2.42794473e-02, 4.53727087e-03, -1.49684800e-02,
       -1.41202435e-02, -4.12751082e-03, 2.79895752e-03, -2.05600378e-03,
       -1.80972852e-02, -1.91737786e-02, 1.45236319e-02, 1.81383323e-02,
       2.94488249e-03, 3.58202495e-03, 5.68233023e-04, 7.18282722e-03,
       1.35146584e-02, 1.04440870e-02, -4.21516132e-03, -3.25606874e-04,
       2.25797435e-03, 6.46348484e-03, 7.23676383e-03, 1.55055551e-02,
       -1.57076828e-02, -3.40947718e-03, -8.26404244e-03,
       -1.86323375e-02, 2.05787383e-02, 1.72663555e-02, 5.56732528e-03,
       9.54256451e-04, -1.56707671e-02, 3.85637442e-03, 9.70127992e-03,
       1.38428174e-02, 9.97453090e-03, 2.13056477e-03, -3.69519184e-05,
       3.12515884e-03, 8.29204824e-03, -1.20971340e-03, 1.65808890e-02,
       1.63957221e-03, 9.63904057e-03, -5.06445998e-03, -7.82767870e-03,
       -5.51442429e-03, 5.19692106e-03, -4.97845607e-03, 1.58545561e-02,
       9.26336274e-03, -1.86539604e-04, 7.72243878e-03, -1.08787594e-02,
       -4.68138466e-03, -7.86155183e-03, 6.13943441e-03, -5.31407027e-03,
       -3.61022248e-04, 1.05942013e-02, 6.17214618e-03, 4.08746721e-03,
       7.78495846e-03, -3.49367550e-03, -2.24551023e-03, 2.29436625e-03,
       -2.09590327e-03, 1.12554682e-02, -3.75350611e-03, 5.54908300e-03,
       4.14219312e-03, -9.50482488e-03, -4.95790085e-03, -9.35904495e-03,
       9.16579645e-03, -2.59956671e-03, -5.60060423e-03, -1.11998497e-02,
       -3.02826054e-04, 9.23710782e-03, -6.25838013e-03, -8.89775809e-03,
       -6.00283081e-03, 1.31185483e-02, -1.02814543e-03, -1.15198968e-02,
       7.47717405e-03, 8.67729075e-03, 4.27697087e-03, -3.69959534e-03,
       -5.91532700e-03, -7.77278608e-03, 6.32022368e-03, -8.09951499e-03,
       -1.02101956e-02, -6.22417871e-03, 2.29906826e-03, 1.51151540e-02,
       1.68940111e-03, -5.37782162e-03, -2.31852848e-03, 1.49486540e-02,
       2.60671554e-03, -8.24908819e-03, -5.07620582e-03, -1.05431834e-02,
       1.09569784e-02, 1.16805136e-02, -4.74328827e-03, 8.63323628e-04,
       1.95025001e-02, 2.76319537e-04, -7.34962174e-04, 6.04971452e-03,
       -2.47936300e-03, -4.30003088e-03, -2.30986811e-03,
       -7.73451012e-03, -6.15561334e-03, -2.87468836e-04,
       -1.13844508e-02, -6.82217767e-04, 1.53482833e-03, -2.90668267e-03,
       8.12491402e-03, -2.65476317e-03, -1.72347743e-02, 3.44673754e-03,
       -4.97906841e-03, -6.90037524e-03, 6.76618377e-03, -3.41229886e-03,
       -1.37587478e-02, 7.41582923e-03, 1.18634645e-02, -1.30781904e-02,
       -2.48281547e-04, 1.23977754e-02, -2.03742762e-03, 2.47100904e-03,
       -7.88598508e-03, 3.06624407e-03, 1.57270879e-02, 1.17448848e-02,
       -4.07002866e-03, -1.90308387e-03, 1.24659147e-02, 5.14448108e-03,
       1.09022856e-02, 1.49729860e-03, -8.20061471e-03, 1.52640149e-03,
       -8.07947759e-03, -1.73250437e-02, -8.41009431e-03,
       -1.00110413e-03, -2.65757879e-03, 5.33408718e-04, 8.39918107e-03,
       -7.94413718e-05, 5.33226784e-03, 9.17602796e-03, -1.40721770e-02,
       -1.30947307e-02, -2.13241461e-03, -5.91971097e-04,
       -5.59934461e-03, -3.07795801e-03, -1.73248909e-02, 9.87869920e-04,
       -2.50702840e-03, -1.28260050e-02, -6.88612275e-03, 1.21542644e-02,
       5.68003347e-03, -3.18515726e-04, 7.93045014e-03, -8.60651862e-03,
       1.26957456e-02, 1.09898113e-02, 4.19508619e-03, 2.07232451e-03,
       3.38727199e-02, 2.09396947e-02, -2.05743709e-03, -6.92904054e-04,
       1.15496647e-02, 8.78383778e-03, 4.15639998e-03, -8.35116860e-03,
       -2.53654346e-02, -8.07041302e-03, 3.89752537e-03, -6.67484477e-03,
       -2.16471986e-03, 1.42766554e-02, 6.63512014e-03, -4.84488951e-03,
       4.83173458e-03, -2.08285637e-02, -4.69179184e-04, -7.24884972e-04,
       -7.94220343e-03, 6.07726630e-03, 1.25290733e-02, 1.74328480e-02,
       1.27808424e-02, 4.78334026e-03, -2.91817402e-03, 1.19890794e-02,
       1.79328490e-02, -2.70490674e-03, 3.53996363e-03, 3.14325728e-02,
       3.72408852e-02, 1.16044292e-02, 1.08973011e-02, -9.12491523e-04,
       -6.29669102e-03, -1.69052253e-03, -9.51652788e-03,
       -4.13998403e-03, 1.35723073e-02, 8.35339259e-03, -1.10925771e-02,
       -9.35347751e-03, -2.37055831e-02, 5.10813529e-03, -7.12127052e-03,
       -6.17993856e-03, 9.83881205e-03, 2.26474442e-02, 2.36203764e-02,
       -1.35992849e-02, -5.04870899e-03, 2.11064378e-03, 1.04508214e-02,
       -3.81738832e-03, -2.79845321e-03, 4.37704567e-03, 2.61010397e-02,
       3.64037976e-02, 2.74984073e-03, -1.68209476e-03, -1.06700836e-02,
       -1.18404664e-02, -1.13340765e-02, -7.71519588e-03, 1.94171332e-02,
       2.41289902e-02, 1.89980157e-02, -1.45912711e-02, 5.89289051e-03,
       5.78968227e-03, -8.83548928e-04, -1.00812837e-02, 2.79150321e-03,
       1.09130964e-02, 1.69482399e-02, 1.56936329e-02, -1.83778908e-02,
       -3.36212516e-02, 3.12540750e-03, 6.20620977e-03, -1.04280375e-02,
       -7.42820697e-03, 2.01303810e-02, 1.25247510e-02, -4.74056788e-03,
       -2.38866638e-02, -2.17658114e-02, 8.64472333e-03, -3.01216077e-03,
       -2.75337766e-03, -3.53187963e-04, 5.58653101e-03, 2.20635701e-02,
       8.30601901e-03, -2.71780081e-02, -2.73627564e-02, -2.13257517e-04,
       -3.90492496e-03, -8.91587418e-03, -1.17784506e-02, 1.28383124e-02,
       1.38449902e-02, 4.29029390e-03, -1.18486108e-02, -1.34983510e-02,
       9.11864918e-04, 2.53788033e-03, -9.82139318e-05, -1.04525639e-02,
       1.34141939e-02, 1.91832669e-02, 4.30626050e-03, -1.53739871e-02,
       -4.14140848e-03, 4.77927597e-03, 3.35032586e-03, -1.03095248e-02,
       -7.45993061e-03, 1.14415605e-02, 8.84359516e-03, -7.44629884e-04,
       -1.38276862e-02, 2.85619404e-03, 6.67356607e-03, 1.83703620e-02,
       -1.17312120e-02, -7.96314795e-03, -9.01181716e-04, 2.52119801e-03,
       -5.32974629e-03, -6.69171382e-03, -1.36635285e-02, 1.17504364e-03,
       -1.45570957e-03, -7.63225136e-03, -1.15931788e-02,
       -5.29350992e-03, -3.91357485e-03, -1.61336679e-02,
       -1.10729802e-02, -3.16739897e-03, 5.23624709e-03, 1.39431097e-02,
       -4.34115436e-03, 2.60462682e-03, -6.55946834e-03, -1.39119178e-02,
       -7.33548310e-04, -5.63182961e-03, 5.31766214e-04, -5.54268761e-03,
       9.55545809e-03, -4.00866428e-03, 8.78895575e-04, -2.23533902e-02,
       -2.22715810e-02, 6.04155893e-03, -1.68112607e-03, 1.65920053e-02,
       -4.31943359e-03, -3.32167000e-03, -5.60071273e-03, 4.11667349e-03,
       -1.02660898e-02, -1.93883479e-02, -9.79136303e-03,
       -5.56483492e-03, -3.04035004e-03, -3.41250235e-03, 8.97163618e-03,
       1.36450659e-02, 1.25053506e-02, -1.06287738e-02, -1.81058198e-02,
       -2.48258293e-04, 2.73000309e-03, -7.83365977e-04, -6.71215262e-03,
       -4.18418460e-03, 5.40425861e-03, 8.95793457e-03, -1.28998626e-02,
       -2.99369963e-03, -6.11244654e-03, -1.84919853e-02,
       -3.15888086e-03, -6.66554435e-04, -1.41271306e-02, 8.26281775e-03,
       1.31005784e-02, 9.26369149e-03, 1.91321075e-02, -1.32047432e-02,
       -2.49356776e-02, -1.37449000e-02, -8.71784333e-03,
       -9.60500445e-03, 1.56402728e-03, 7.09046889e-03, -4.50201951e-05,
       -7.38281058e-03, -9.91486758e-03, -1.32292407e-02,
       -6.28307322e-03, -1.69612269e-03, -1.13100605e-03,
       -2.31767353e-03, 6.91661611e-03, 1.40509298e-02, 2.15001088e-02,
       -9.70930420e-03, -1.66297145e-02, -1.13312919e-02,
       -7.45786307e-03, 8.12895875e-03, -1.88465323e-03, 7.34072272e-03,
       -1.05617056e-03, 1.99563894e-02, -2.21273513e-04, -1.31378993e-02,
       -7.24921189e-03, -1.93768870e-02, -1.10586388e-02,
       -4.32436529e-04, -5.96651866e-04, -1.43822131e-03, 2.03190036e-02,
       4.55590850e-03, -1.16336681e-02, -2.27028015e-03, -8.72591045e-03,
       5.99189708e-03, 1.48234877e-03, -1.11047719e-02, 2.42906669e-03,
       1.51088014e-02, 2.95955199e-03, -6.00500032e-03, -1.18007895e-03,
       -1.93350744e-02, 3.35785514e-03, 2.23175227e-03, -7.35373469e-03,
       -1.09266648e-02, 5.67175727e-03, 1.80559345e-02, -1.10390841e-03,
       -1.45738479e-02, -4.39007021e-03, 1.40295888e-03, 8.56796838e-03,
       -2.09541693e-02, 9.71317233e-04, 1.57332756e-02, 1.45975584e-02,
       7.35498033e-03, 1.05876653e-02, -6.93494314e-03, 2.15314422e-03,
       -4.91089746e-03, -7.58372014e-03, -7.65195489e-03, 1.37715535e-02,
       3.05209914e-03, 2.63609085e-03, -1.05401045e-02, -5.95803373e-03,
       -7.22351298e-03, -5.91997942e-03, -8.86797719e-03,
       -1.01905335e-02, -1.68980542e-03, 9.64300707e-03, 1.61132421e-02,
       -1.94936316e-03, -5.20531693e-03, 4.14220942e-03, 1.27400635e-02,
       -9.39897541e-03, -1.81343798e-02, -6.86604111e-03, 1.99597748e-03,
       -6.02285843e-03, -1.77469011e-02, -3.74275120e-03,
       -1.16665065e-02, -7.65715400e-03, -7.46168103e-03,
       -2.30975077e-03, 6.92708138e-03, 1.79155525e-02, 3.81601714e-02,
       9.94490646e-03, 6.44540880e-03, -6.83816383e-03, -7.48238061e-03,
       -1.18421661e-02, -2.11727829e-03, -2.65850965e-03,
       -2.97491997e-03, 2.25660224e-02, 2.97865136e-05, -4.07714723e-03,
       -2.48071160e-02, -8.41665827e-03, -3.45760584e-03,
       -6.40270533e-04, 1.19871628e-02, 1.37823187e-02, 1.46810114e-02,
       -5.52773708e-03, 1.38015086e-02, -1.68989114e-02, -1.88826527e-02,
       -1.74783785e-02, 1.45127578e-03, 1.27063980e-02, 2.48645065e-05,
       2.48190388e-02, 2.15648510e-03, -7.77913956e-03, -2.57126652e-02,
       -2.11895425e-02, -8.22013244e-03, 5.43201715e-03, -6.64462859e-04,
       -2.06637066e-02, 9.23785439e-04, 1.19699603e-02, 1.27744759e-02,
       -7.48376269e-03, 3.88590634e-05, 8.67831521e-03, -9.26005375e-03,
       -1.73734948e-02, -1.88900195e-02, -1.43042654e-02, 1.04995314e-02,
       -5.68182068e-03, -2.07259357e-02, -1.66588593e-02,
       -9.04290192e-03, -4.61123884e-03, 3.90947610e-03, -1.09814387e-02,
       2.28211060e-02, 6.91955816e-03, 2.32716911e-02, 7.16441264e-03,
       3.74605809e-03, -2.75682937e-03, -1.43327098e-02, -7.32820714e-03,
       -1.22195585e-02, -1.62118692e-02, 2.85271704e-02, 9.14371759e-03,
       -9.23447218e-03, -1.40348161e-02, -1.36340996e-02,
       -1.61703099e-02, -9.71255545e-03, -7.65350240e-04,
       -1.42280636e-02, 2.88143172e-03, 1.83657799e-02, 8.27785674e-03,
       -3.92138539e-03, -9.75947734e-03, 8.09885003e-03, 1.29514700e-02,
       1.37217045e-02, 3.96607956e-03, -2.36976575e-02, -3.31163104e-03,
       -1.39763419e-04, -3.54210963e-03, 1.03203254e-03, 2.87946081e-03,
       1.21350391e-02, 2.15581991e-02, -4.01444687e-03, 1.52748323e-03,
       1.20532094e-02, 1.33581255e-02, 2.79148575e-03, 7.63245020e-03,
       1.93200000e-02, 1.00899413e-02, 1.22898743e-02, 1.10309222e-03,
       -1.87492985e-02, 1.78793892e-02, 2.27891672e-02, 1.82564780e-02,
       1.90629065e-02, 7.92249572e-03, 3.95879149e-03, -4.25746286e-04,
       3.12663591e-03, -3.81255231e-04, -1.26177203e-02, 5.53077878e-03,
       -1.73787761e-03, 7.16409506e-03, -9.13785398e-03, -5.85933356e-03,
       -6.78459369e-03, -4.96414630e-03, -4.17937152e-03,
       -1.00496346e-02, 8.99573322e-03, 4.53787623e-03, -4.69774054e-03,
       1.71569474e-02, -1.71454030e-03, -3.33791482e-03, -7.15010520e-03,
       -4.12933948e-03, -1.48224630e-04, 5.00752544e-03, 9.73998755e-03,
       1.56560019e-02, -2.60987505e-03, -9.83150862e-03, -9.69098229e-03,
       -1.43584535e-02, -1.12719962e-03, -1.36300130e-03, 1.61739700e-02,
       7.62643991e-03, 1.22592505e-02, -1.47083644e-02, -7.51979463e-03,
       2.54472275e-03, 2.93207564e-03, -1.70017071e-02, -1.79768763e-02,
       1.61802936e-02, 7.83372484e-03, -1.31851919e-02, -1.40145849e-02,
       -1.93280820e-02, 5.14702592e-03, 1.38452398e-02, 1.31129252e-03,
       3.34062544e-03, 1.32284854e-02, -2.01633340e-03, -5.79279894e-03,
       -1.38467196e-02, -1.52150309e-02, -2.87773577e-03, 1.29991339e-03,
       -4.89273481e-03, -1.62110210e-03, 2.53101178e-02, 2.90220641e-02,
       4.85292822e-03, -3.68205644e-03, 4.82836552e-03, 1.02049848e-02,
       1.50002986e-02, 2.11604051e-02, 8.56925268e-03, 2.65957322e-02,
       7.26965023e-03, 5.20415815e-05, -5.30719431e-03, -4.02729865e-03,
       -7.39488518e-03, -3.63290333e-03, -2.07514595e-02,
       -9.17027146e-03, 1.14735067e-02, 3.29653127e-03, -4.64744074e-03,
       -2.22210027e-03, -4.87930886e-03, -2.39171367e-03, 5.04479976e-03,
       -1.11486763e-03, -8.60126223e-03, 1.90195087e-02, 1.95819139e-02,
       5.19672222e-03, -3.88968503e-03, 6.66393258e-04, -1.13659957e-02,
       -5.81469527e-03, 5.37158130e-03, -6.16834871e-03, 1.62187312e-02,
       8.45004711e-03, -7.07928743e-03, -2.35097657e-04, -1.07289227e-02,
       -7.37856654e-03, 5.59968501e-03, 1.10503398e-02, 3.41261993e-03,
       2.28864979e-02, 3.11188921e-02, 9.91288479e-03, -1.26520135e-02,
       -2.17500087e-02, -6.97664730e-03, -8.52870289e-03,
       -1.69902500e-02, -1.45320715e-02, 9.16206464e-03, 8.24694615e-03,
       -9.30624921e-03, -1.30249914e-02, -1.65317059e-02, 5.14530996e-03,
       6.31672621e-04, 1.07630680e-03, 1.46110076e-03, 1.96130238e-02,
       1.10191619e-02, -9.74441227e-03, -6.62556197e-03, -2.03188676e-02,
       -1.09889014e-02, 7.52031861e-04, 6.20256542e-05, 1.21809472e-03,
       1.93209406e-02, 8.60508159e-03, -2.11525382e-03, -7.40785338e-03,
       -6.82917424e-03, 7.77367922e-03, 1.02333892e-02, 9.34642740e-03,
       4.69286577e-04, 2.77270284e-03, 1.07299015e-02, 5.51479543e-03,
       -6.25171047e-03, 3.54242831e-04, 1.37193231e-02, 2.15433352e-03,
       -3.55619169e-03, -5.59274759e-03, 1.15069225e-02, 1.37906028e-02,
       -7.83537887e-03, -2.15077004e-03, 1.90082360e-02, 3.85754444e-02,
       1.13337906e-02, 9.02388769e-04, -1.28795896e-02, 2.50640069e-03,
       9.51828260e-04, -3.21419374e-03, -8.14551860e-03, -5.45209972e-03,
       2.18129475e-02, 1.55642582e-02, 1.02581447e-02, -8.13560747e-03,
       2.39828555e-03, 5.97311370e-03, -3.47004016e-03, -2.64403503e-03,
       -1.52814970e-03, 1.77141242e-02, 2.52201618e-03, -4.30302881e-03,
       -1.21349106e-02, 1.37511892e-02, -4.54843370e-03, -9.39769205e-03,
       1.11997954e-03, 1.62700042e-02, 2.91373041e-02, 1.10441120e-02,
       1.67276605e-03, -3.88188311e-03, -2.01703515e-04, -4.11523366e-03,
       -6.11825427e-03, 2.15277472e-03, 1.16929244e-02, 1.28959836e-02,
       -1.06516127e-02, 4.27260064e-03, 1.03502357e-02, 8.28512292e-03,
       4.91609471e-03, 8.07770714e-03, 7.94281624e-03, -2.96847243e-03,
       1.01384893e-02, 9.32618976e-03, -3.65475629e-04, -4.35970956e-03,
       1.25023685e-02, -3.10613774e-03, -5.78130421e-04, 3.95727722e-04,
       -2.89383950e-03, -3.07623018e-03, 9.19465907e-03, -2.17179279e-03,
       -5.02784410e-03, 1.13993194e-02, 1.85625963e-02, 1.57141909e-02,
       -8.72589927e-03, 6.63899072e-03, 3.67362518e-03, -1.89361889e-02,
       -7.09461933e-03, 9.29414295e-03, 1.42742135e-02, 5.28181065e-03,
       -8.75464641e-03, -4.61843796e-03, -4.74215158e-05, 3.84880998e-03,
       -1.15925749e-03, 8.94997385e-04, 1.17063737e-02, 1.57737304e-02,
       1.02096936e-02, -1.20338434e-02, -9.51400492e-03, -1.30007043e-02,
       -5.27097052e-03, -9.84807126e-03, -1.65657960e-02, 1.13725793e-02,
       7.91972131e-03, 1.35394204e-02, 1.02381257e-03, -5.75361261e-03,
       2.95345439e-03, 1.48864510e-03, -7.07046688e-03, -1.10984351e-02,
       2.80036451e-03, 4.78452584e-03, 5.22031402e-03, -9.40954871e-03,
       -4.10754047e-03, -3.08177969e-03, -5.40879602e-03, 8.28216411e-03,
       5.95704280e-03, 8.59969296e-03, 6.67819811e-04, 6.81225350e-03,
       -4.69784206e-03, -1.06939580e-02, -1.87654272e-02,
       -1.32840751e-02, 2.03377916e-04, 2.85190484e-03, 1.04465177e-02,
       8.03924538e-03, 1.31242428e-04, -5.45748090e-03, 6.78245630e-03,
       -3.63810058e-03, -1.32060936e-02, -6.16855500e-03,
       -2.12457380e-03, -6.15134975e-03, 2.16653175e-03, 1.48086378e-03,
       -8.72847531e-03, -8.28563236e-03, -2.13078149e-02,
       -1.90022010e-02, -1.40177822e-02, -5.65780886e-03,
       -1.98153267e-03, -7.69238279e-04, -7.30002718e-03,
       -3.94189032e-03, -2.94902897e-03, -1.45605644e-02,
       -2.89147929e-03, -4.01235186e-03, -1.02582090e-02,
       -9.48948972e-03, 4.85380320e-03, 9.75216739e-03, 1.24985597e-03,
       1.07686408e-02, -1.34903021e-05, 4.26811911e-03, 5.22725750e-03,
       -1.03839254e-02, -7.02200737e-03, -5.91199379e-03, 8.14489834e-03,
       1.21431602e-02, -8.64211749e-03, -2.36392450e-02, -1.19712641e-02,
       -2.16300897e-02, -1.69931706e-02, -1.19091505e-02,
       -1.79576129e-03, -2.83182785e-03, 7.95388187e-04, -6.50726398e-03,
       -1.60764251e-02, -1.27853416e-02, -1.58664733e-02,
       -2.05579102e-02, -1.12894457e-02, 1.32083194e-02, 1.37398029e-02,
       7.53624085e-03, 7.62671325e-03, 1.98948313e-03, -4.67604864e-03,
       -7.92009011e-03, -3.06817610e-03, 1.04053714e-03, 1.38950739e-02,
       -8.05951376e-03, 5.15567418e-03, 6.00908743e-03, 1.31627871e-02,
       -3.98097420e-03, -2.92550051e-03, -3.50429257e-03,
       -6.07604114e-03, 1.41058182e-02, 7.03838980e-03, -2.29572039e-03,
       -6.61126478e-03, -1.07856849e-02, -1.30244959e-02,
       -1.02253454e-02, -5.85805951e-03, 3.35279782e-03, 1.04763769e-02,
       9.84352641e-03, -5.46003645e-03, -7.37129105e-03, 5.90107928e-04,
       -1.31257232e-02, -9.24780965e-03, -9.28662159e-03,
       -4.66233259e-03, 2.48926710e-02, 2.48905849e-02, -1.18430639e-02,
       -3.13047972e-03, 1.52316270e-02, 4.80020279e-03, 1.53057305e-02,
       6.17235294e-03, -9.28964745e-03, 1.52719691e-02, 1.35756796e-02,
       -2.78282241e-04, -1.59826204e-02, 3.43463570e-03, 1.28153525e-02,
       2.03662347e-02, -9.67612676e-03, 6.38351310e-03, 1.29070552e-02,
       2.44406983e-02, -1.53453844e-02, -1.33235482e-02, 4.13052412e-03,
       9.61335725e-04, 7.46715348e-03, -3.56896524e-03, 3.62695358e-03,
       1.66147090e-02, 6.04700996e-03, -4.70109330e-03, -1.17197400e-02,
       -3.44321085e-03, 7.59187108e-03, 1.43218599e-02, -1.02669103e-02,
       9.66055412e-03, 1.65367611e-02, 4.86188475e-03, -5.61070535e-03,
       -1.67459678e-02, -7.19958311e-03, 9.75766778e-03, 3.28313559e-02,
       1.10181083e-03, 7.89719447e-03, 1.65673047e-02, 2.14224122e-02,
       -9.76557750e-03, -5.59437321e-03, -6.07419759e-03, 9.44488391e-04,
       -1.24651976e-02, -1.86802577e-02, 3.59246915e-05, 9.45965573e-03,
       -7.26567057e-04, -3.66698718e-03, -4.96466691e-03,
       -3.57124931e-03, 9.01747309e-03, 2.11334620e-02, -3.19944927e-03,
       1.56440139e-02, 1.39408903e-02, 5.12686442e-04, -8.55103135e-03,
       -3.63030285e-03, -2.16894248e-03, 2.14821822e-03, -7.96028785e-03,
       -1.02732442e-02, 1.00346841e-02, 1.10707916e-02, -1.03488993e-02,
       -8.34279601e-03, 8.53645522e-03, 1.49575099e-02, 6.81143999e-03,
       9.40317661e-03, -2.04786826e-02, 6.92686625e-03, 7.81842507e-03,
       -1.66871641e-02, -3.34256981e-03, 1.70754339e-03, 3.74858663e-03,
       7.68641592e-04, 1.46457134e-02, -1.05380481e-02, -9.20666568e-03,
       -6.94141118e-03, -1.82442535e-02, -8.30030628e-03,
       -2.92467792e-03, 3.30154249e-03, 1.75333712e-02, 1.68938544e-02,
       -1.33315362e-02, 2.42578704e-02, 6.93689007e-03, -1.95859894e-02,
       -6.80258265e-03, -1.30488514e-03, -1.91872503e-04, 8.07474088e-03,
       2.48129833e-02, -1.30363284e-02, -2.04790197e-03, -3.56174354e-03,
       -1.18620824e-02, -8.77811108e-03, -1.48144783e-03, 1.43456331e-03,
       -5.56022348e-03, 4.93331766e-03, -6.68829866e-03, 1.05836028e-02,
       1.61369890e-03, -1.10068433e-02, -4.09458112e-03, -5.47066890e-03,
       -8.03869311e-03, -1.70250572e-02, -2.53734495e-02, 9.59897041e-03,
       1.59499608e-02, -1.27864331e-02, -1.30105773e-02, 2.48968508e-03,
       -6.22710912e-03, -8.14327577e-05, -4.36988566e-03, 2.34407131e-02,
       2.08341656e-03, 3.26016033e-03, 3.75013123e-03, -6.74845930e-03,
       -3.57392855e-04, -1.03829615e-02, -1.73083413e-02,
       -3.55780534e-02, -2.86030751e-02, 5.52767981e-03, 4.25771996e-03,
       -9.26813483e-03, -8.11711978e-03, -5.32666920e-04, 9.62219201e-03,
       3.45677324e-03, 7.07071368e-03, -5.76478196e-03, -9.75533109e-03,
       -8.61356384e-04, 1.67704362e-03, -5.42665599e-04, 9.95353982e-03,
       1.50106307e-02, -6.90348679e-03, -1.82753720e-03, -6.92125596e-03,
       -3.85085046e-02, -5.26838284e-03, -1.52952119e-03, 6.73015136e-03,
       1.69042777e-02, 3.24481493e-03, -1.50140654e-02, -2.95555801e-03,
       4.50561009e-03, -9.25420783e-03, -4.25625549e-05, 1.23003416e-03,
       4.17844253e-03, 7.66647374e-03, 1.43196508e-02, -7.29809282e-03,
       2.02781917e-03, -5.51822362e-03, -2.49329638e-02, -4.12476808e-03,
       8.71475134e-03, 1.86226424e-02, 2.09872574e-02, 1.24156829e-02,
       -1.03026507e-02, -6.55088900e-03, -9.14563425e-03,
       -1.17583880e-02, -1.16290040e-02, -6.69952296e-03, 6.36637723e-03,
       1.63801536e-02, 2.52757361e-03, -1.12293232e-02, -7.87309185e-03,
       -1.44428900e-02, 3.49321659e-03, -1.14641758e-02, -4.60215524e-04,
       -1.67868217e-03, 7.88339041e-03, 1.95620209e-02, -7.03511713e-03,
       -1.26470039e-02, -1.50930258e-02, 1.11502055e-02, -4.41468880e-03,
       3.06876749e-03, 1.76649280e-02, 2.59552523e-02, 1.17016491e-02,
       -9.54161584e-03, -1.51876407e-02, -1.06852315e-02, 1.75004825e-02,
       -1.56437010e-02, 3.97629244e-03, 4.26805252e-03, 1.49104390e-02,
       -7.50493025e-03, -3.14557506e-03, 4.65425616e-03, -4.71358979e-03,
       -1.59844023e-03, -1.50424121e-02, 6.68518711e-03, 7.43205706e-03,
       -8.49642616e-04, -2.73341755e-03, 9.22800915e-04, 4.76582581e-03,
       2.39527039e-03, 6.85620029e-03, -1.09459590e-02, 1.13279046e-02,
       1.62854849e-03, -4.35547577e-03, 1.02633694e-02, -1.39887142e-03,
       2.83338624e-04, -1.70490274e-03, 7.71862268e-03, -1.89584922e-02,
       2.54878402e-03, -7.59663200e-03, -1.04736199e-03, 4.20119055e-03,
       9.58037283e-03, 7.86938332e-03, 6.16071513e-03, 3.17077339e-03,
       -1.13571854e-02, 1.09850708e-02, -7.03213224e-03, -3.82048986e-03,
       -1.67992990e-02, -1.09149981e-02, -1.33412834e-02,
       -8.19052476e-03, 2.49420619e-03, -8.46691895e-03, 1.50554487e-02,
       1.37659116e-03, -9.73388646e-03, -6.39152993e-03, -1.08566247e-02,
       -7.02066254e-03, 3.80859128e-03, 9.10632499e-03, 8.37180763e-03,
       1.64660271e-02, 1.09546334e-02, -5.92218339e-03, -4.77701332e-03,
       -4.33002017e-04, -4.59564058e-03, 4.77099698e-03, -6.94759190e-03,
       -1.53621035e-02, 1.90196838e-02, 9.52957198e-03, -1.01827979e-02,
       5.27396565e-03, -6.32640952e-03, -6.85025472e-03, 3.37994163e-04,
       -9.25089582e-04, -5.25781233e-03, 7.65079958e-03, 2.57206261e-02,
       1.44538302e-02, -4.68516722e-03, -1.33740390e-02, -1.88065823e-02,
       -1.19236368e-03, 1.31584890e-02, -3.25321162e-04, 6.87856972e-03,
       -3.46047641e-03, -7.13797752e-03, -7.18589360e-03,
       -1.38526447e-02, 1.20088300e-02, 1.32214082e-02, 1.21696927e-02,
       -5.25458856e-03, -8.57398752e-03, 8.55390634e-03, -4.54173749e-03,
       -1.31078549e-02, -1.10540567e-02, -1.31332995e-02,
       -4.77621751e-03, -2.25003343e-03, -6.83818199e-03,
       -8.89771245e-03, 7.85415340e-03, -2.42330902e-03, -1.10501135e-02,
       -8.53047892e-03, 1.01223849e-02, 6.44741533e-03, 7.85640627e-03,
       -3.28817940e-03, 5.49750030e-03, 7.58867105e-03, -1.23211381e-03,
       -6.58697914e-03, -1.15204779e-02, 2.98757944e-02, 2.55797897e-02,
       1.98185369e-02, -9.42692684e-04, -2.24761688e-03, -1.14873568e-04,
       -8.27832846e-04, -8.21610820e-03, -2.21543107e-02, 1.17941778e-02,
       7.04618264e-03, -6.02643657e-03, 4.72161446e-05, 1.03211431e-02,
       -1.29651101e-02, -2.84122280e-03, -1.11274235e-02,
       -1.63889900e-02, 1.41662499e-02, 7.43843382e-03, 2.52377745e-02,
       1.60821453e-02, 5.21976128e-03, 2.06182594e-03, 3.70439887e-03,
       -1.19614974e-02, -2.10659523e-02, -4.44760593e-03,
       -7.75832729e-03, 1.26677444e-02, 7.48507166e-03, 8.62763438e-04,
       -8.67497735e-03, -1.24958223e-02, -1.57555775e-03,
       -1.23715634e-02, 4.33720788e-03, 9.48474184e-03, -1.34539069e-03,
       6.98114338e-04, 1.80085562e-02, -5.97495236e-04, 3.03965574e-03,
       -5.87679492e-03, -1.67057365e-02, -1.11584729e-02, 5.32740168e-03,
       -7.88167678e-03, 1.02629364e-02, 2.04750728e-02, 2.49226186e-02,
       1.45268710e-02, -7.93753099e-03, -1.23515185e-02, 1.18148122e-02,
       -1.59520830e-03, 3.41799413e-03, 1.03034498e-02, 1.25872884e-02,
       8.22402653e-04, -3.75920697e-03, -6.85217418e-03, -7.39281625e-03,
       1.02743981e-02, 9.56991035e-03, 9.44253337e-03, 1.01498011e-02,
       2.61375047e-02, 1.13442419e-02, -2.20184075e-03, -9.26728826e-03,
       -1.70786642e-02, 1.45912776e-03, -8.80458509e-04, -1.53903905e-02,
       2.06204783e-02, 1.33366454e-02, 1.83416307e-02, -5.04267402e-03,
       -8.51576100e-04, -1.02562243e-02, -2.37233774e-03,
       -5.47585124e-03, -8.63489881e-03, 3.74759617e-03, 5.64218732e-03,
       -1.42577745e-04, -1.09926220e-02, -7.32055958e-03,
       -6.20227028e-03, 1.92578211e-02, 6.06603967e-03, -1.12105822e-02,
       9.41240881e-03, 1.39955431e-02, 3.32124718e-03, -5.09103155e-03,
       1.39470343e-04, -9.96112078e-03, 4.10449179e-03, 2.05046311e-03,
       -1.28018539e-02, -1.92896910e-02, -6.75114396e-04,
       -1.21514536e-02, -9.86826234e-03, 1.10731339e-02, -8.98025744e-03,
       -1.27236685e-02, -7.30912341e-03, -1.20193232e-02,
       -1.01868259e-02, 8.36152118e-03, -5.86940395e-03, -2.16282601e-03,
       1.35496585e-02, -1.77347623e-02, -1.39793782e-02, -1.24231558e-02,
       -9.14084446e-03, -1.87217502e-03, -2.50624958e-03,
       -1.34407664e-02, 3.05753550e-03, -1.37529941e-03, -1.56061053e-02,
       -1.01962388e-02, -1.25200804e-02, -1.41358776e-02,
       -1.81526430e-02, -5.60012879e-04, -1.01271663e-02,
       -9.21630207e-03, 9.92030371e-03, -5.66599378e-03, -5.66654233e-03,
       -1.79383941e-02, -7.98632298e-03, -3.05721676e-03, 6.42303983e-03,
       -8.99726991e-03, 7.76407775e-03, 9.00338031e-03, -1.58644356e-02,
       -1.44829946e-02, -2.76532359e-02, -6.16808608e-03,
       -5.49311982e-03, -9.12859663e-03, -1.27219539e-02, 1.60363119e-03,
       3.91075097e-04, -8.48428905e-03, -8.22049938e-03, -2.05876268e-02,
       -7.25471182e-03, 1.36873603e-03, 1.33107053e-02, 7.36962212e-03,
       1.71703808e-02, 1.95587389e-02, -1.85037684e-03, -3.71143175e-03,
       -2.66887657e-02, -1.82154030e-02, -8.24419782e-03, 2.00646638e-04,
       -4.18030191e-03, 1.47539983e-02, 7.13545922e-03, 1.19553006e-03,
       -4.50761057e-03, -2.55912915e-02, -2.63965949e-02,
       -1.38197597e-02, 5.02790092e-03, 2.33057924e-02, 1.03250779e-02,
       -5.86936343e-03, -2.55287159e-03, -7.51124974e-03,
       -4.93495865e-03, 7.44896475e-03, 1.80228136e-03, 1.34717459e-02,
       2.35230792e-02, 7.33691547e-03, -4.85853088e-04, 1.68148112e-02,
       5.97081031e-04, -1.44612929e-02, -8.08641594e-03, -5.00759203e-03,
       2.31097657e-02, 2.84586567e-02, -2.90765497e-03, -4.42659995e-03,
       6.24291413e-03, -8.36239720e-04, -1.93402637e-02, -1.23785622e-02,
       -9.88080911e-03, 1.12858880e-02, 1.72349270e-02, 5.89274988e-03,
       1.38413776e-02, 2.18338817e-02, 6.81079319e-03, -2.45020390e-02,
       -1.44176856e-02, -1.51210288e-02, 1.75764374e-02, 2.12339181e-02,
       1.55358168e-03, -1.21652428e-03, 7.15994230e-03, 2.55943742e-03,
       -2.08286149e-03, -1.66216528e-03, 1.01064434e-02, 1.65789556e-02,
       4.57056006e-03, -9.48887412e-03, -6.05917117e-03, 5.50724566e-03,
       1.88796967e-02, 1.83405671e-02, -1.17870495e-02, 1.29710101e-02,
       1.15187829e-02, -8.15874524e-03, -1.52680334e-02, 1.16447378e-02,
       2.99077458e-03, -1.18713651e-03, -1.05568543e-02, -3.73905292e-03,
       -1.88272237e-03, 6.67135231e-03, 7.54246116e-03, -1.29924295e-03,
       2.01583476e-04, 1.54347927e-03, 1.43197356e-02, 4.01313929e-03,
       -5.30854287e-03, 1.74165964e-02, 7.33777741e-03, 5.55405801e-04,
       -3.90440255e-05, -1.05012394e-02, 4.25980380e-03, 1.19792707e-02,
       1.39277801e-02, -5.32562658e-03, 1.09262764e-02, 1.53891249e-02,
       -6.53699785e-03, -1.77968573e-02, -3.52230435e-03,
       -1.53390283e-03, 4.41798940e-03, 1.97840552e-03, -1.47735896e-02,
       1.32301664e-02, 1.03368089e-02, -1.07025700e-02, -1.34628853e-02,
       -1.12987659e-03, 2.40089651e-03, 1.83121804e-02, 1.62784979e-02,
       -1.21831358e-03, 1.05685154e-02, 1.08397389e-02, 1.79052830e-03,
       -1.09092405e-04, -2.85644107e-03, -6.54982403e-03, 1.56944450e-02,
       2.40662936e-02, -9.48686432e-03, -4.58878186e-03, -1.34297658e-03,
       -8.82734917e-03, 5.40706329e-04, -4.62424185e-04, -4.10030689e-03,
       4.63062478e-03, 2.74287742e-02, -3.16829467e-03, 2.27592774e-02,
       1.37883821e-03, -1.81481354e-02, -5.60100982e-03, -1.44811487e-03,
       -3.66709568e-03, -5.01359208e-03, 1.23643866e-02, -3.76825966e-03,
       -1.37738313e-03, -3.56535800e-03, -7.59715540e-03,
       -4.37183073e-03, -4.25060949e-04, -9.31780040e-03, 3.06390226e-03,
       3.28432359e-02, -1.46066677e-02, 7.44716963e-03, -1.69319734e-02,
       -2.26124953e-02, 1.72770140e-03, 2.89115403e-03, -1.73713472e-02,
       -1.62709411e-02, 1.50155602e-02, -1.46237183e-02, 6.55899566e-05,
       -1.48703214e-02, -2.03726981e-02, -4.15603444e-03,
       -4.15256713e-03, -5.02590416e-03, -1.14664892e-02, 1.19435852e-02,
       2.53833435e-03, 1.46855286e-03, 3.70184833e-04, -3.14441533e-03,
       -1.81959811e-04, -1.81047097e-02, -2.14951131e-02,
       -4.23948169e-02, -1.21030677e-02, 1.78343542e-02, -6.42034691e-03,
       -6.99117687e-03, -9.44014173e-03, -4.34121815e-03,
       -4.43683099e-03, -1.15747675e-02, -1.29540050e-02, 2.77276337e-02,
       -3.18158232e-03, 1.07786367e-02, -5.59285842e-03, -1.45742614e-02,
       -6.29286654e-03, -8.38167872e-03, -1.79634225e-02,
       -2.17246395e-02, 4.49152477e-03, 5.83331194e-03, -6.76296512e-03,
       -1.14805754e-02, -1.50667476e-02, -4.71122330e-03,
       -4.34042467e-03, -1.64224971e-02, -6.83125993e-03, 6.74068043e-03,
       -6.10531727e-03, -6.98733004e-03, 1.96351344e-03, 1.80622423e-03,
       4.05311584e-03, 1.22755347e-02, -2.68028071e-03, -5.08234976e-03,
       8.58087442e-04, -1.66521706e-02, -6.31865114e-03, 6.61301520e-03,
       2.03199964e-02, 1.56960711e-02, 9.05070920e-03, -1.25185354e-02,
       -1.39921755e-02, 9.78504657e-04, -5.15643321e-03, -6.70031179e-03,
       -4.57542948e-03, -6.05615415e-03, 6.32449752e-03, 1.85407419e-02,
       4.54469555e-05, 7.57856295e-04, -7.35990354e-04, -8.11780244e-03,
       -6.49393210e-03, -6.11601258e-03, -5.70135284e-03, 1.84233785e-02,
       1.45337870e-02, 2.19653617e-03, -1.79113857e-02, -1.31194154e-02,
       9.58447997e-03, -6.98819943e-03, -1.58310300e-04, 1.34922732e-02,
       2.03871801e-02, 1.43369939e-02, 1.81545317e-03, -2.44845152e-02,
       -2.27580164e-02, 1.24847274e-02, -2.12067924e-02, -7.19916541e-03,
       3.44321685e-04, 4.20872215e-03, 2.42783856e-02, 5.00984723e-03,
       -1.62560418e-02, -9.48684290e-03, 1.39238769e-02, 4.11909714e-04,
       -1.21164415e-02, -5.33634610e-03, 2.08096486e-02, 1.55793298e-02,
       1.58205628e-03, -2.43710913e-02, -2.70307958e-02, 1.31517241e-03,
       -1.09358896e-02, -9.74194054e-03, 1.39353040e-03, 4.34721541e-03,
       9.37069487e-03, 4.08887723e-03, -2.93501886e-03, -9.40152258e-03,
       3.51126306e-03, -1.16014471e-02, 1.01226261e-02, -7.78813264e-04,
       -1.51563669e-03, -9.93162044e-04, -7.35061290e-03,
       -5.09357266e-03, -4.60895244e-03, 4.41541942e-03, -3.55477817e-03,
       9.08088870e-03, 3.58420145e-03, -6.37745531e-03, 2.23207287e-03,
       3.96318547e-03, 7.48100923e-04, -1.59787647e-02, -9.36858915e-03,
       1.84568192e-03, 8.78336001e-03, 1.43476585e-02, 3.35610122e-03,
       -3.27804801e-03, 3.05683888e-03, 1.34746004e-02, -8.35769519e-04,
       2.86608096e-03, 1.39605231e-03, 8.52347631e-03, 1.43708913e-02,
       -1.07815154e-02, -7.28534628e-03, 1.83975650e-03, -3.81909451e-03,
       -1.54911689e-02, -1.41154174e-02, -2.00129282e-02, 1.25336703e-02,
       8.89309868e-03, -1.35231726e-02, 9.88468179e-04, 1.75988004e-02,
       -4.69437148e-03, -1.89310461e-02, -1.11746918e-02,
       -1.41591048e-02, 1.34959528e-02, 2.49241535e-02, 8.91166087e-03,
       -1.27859227e-02, 2.93136411e-03, 9.22182854e-03, -1.29140252e-02,
       -1.34153040e-02, -1.68086588e-02, -4.23468277e-03, 4.75307432e-04,
       -1.63553897e-02, 1.03037581e-02, 1.73579399e-02, -1.73161377e-03,
       -1.45136770e-02, -7.51747610e-03, -1.39560662e-02, 2.16794806e-03,
       9.18049179e-03, -1.08898748e-02, -1.36740720e-02, 3.70478048e-03,
       -8.90950579e-03, -1.39877982e-02, -9.26472619e-03,
       -1.53346807e-02, -1.34938676e-03, 1.65999047e-02, -7.82487821e-03,
       -6.37041312e-03, -1.18546421e-03, 4.11124929e-05, -1.10482695e-02,
       -8.02887790e-03, 5.90993557e-04, 8.59158672e-03, 1.26649877e-02,
       -4.26690560e-03, -9.38935112e-03, 1.05551863e-02, -1.55225005e-02,
       -2.24739779e-02, -1.28290057e-02, -1.64554045e-02,
       -9.74884722e-03, 2.44524470e-03, -2.34077480e-02, -5.16917696e-03,
       2.91287294e-03, -5.33265434e-03, -1.12764491e-02, -6.24172622e-03,
       -1.75796114e-02, -8.83606635e-03, 3.06583964e-03, -1.83846839e-02,
       -8.76490958e-03, -1.36640947e-02, -5.84688596e-03, 8.13245773e-03,
       1.42061356e-02, 1.17533226e-02, 6.87790057e-03, 4.43922449e-03,
       -3.81217035e-03, -5.16846217e-03, -1.17741674e-02,
       -3.22601642e-03, -2.41696998e-03, 5.80970477e-03, 1.25748320e-02,
       3.82536207e-03, 6.58713933e-03, -2.57663382e-03, 3.47203016e-03,
       -9.94951464e-03, -2.57879449e-03, 1.82351116e-02, 4.72134398e-03,
       -1.15941628e-03, -5.21721924e-03, -2.07672408e-03,
       -1.06996782e-02, 2.76713702e-03, -1.06076058e-02, 1.01272687e-02,
       9.80978925e-03, 1.79194135e-03, -1.63854053e-03, 7.89395347e-03,
       3.16218589e-03, -8.54026992e-03, -4.41766437e-03, -1.16729934e-03,
       7.34197395e-03, -3.96929972e-04, -5.88385249e-03, 7.61452084e-03,
       1.01800123e-02, 4.77899751e-03, 1.21972361e-03, -5.19051775e-03,
       -1.46545714e-03, 1.12141585e-02, 1.77113563e-02, 1.82254575e-02,
       7.06974510e-03, 1.71247888e-02, 1.24477257e-03, -1.90542452e-03,
       -4.46565868e-03, -6.57182606e-03, 6.03075605e-04, -7.83578493e-03,
       -1.58488762e-03, 7.16456678e-03, 1.74057968e-02, 4.68621962e-03,
       -7.45553564e-07, -1.14376573e-02, -1.18743498e-02, 4.80350340e-03,
       9.14713461e-03, 1.26121547e-02, 6.24386780e-03, 1.92381050e-02,
       5.89635596e-03, -9.35861561e-03, -6.97500817e-03, 5.90946572e-03,
       2.64487937e-02, 2.35716421e-02, 1.28514497e-02, 1.33724893e-02,
       2.12518796e-02, 4.65966947e-03, 5.28993644e-03, -1.12022525e-02,
       -5.83702512e-03, 7.19895540e-03, 8.47584754e-03, -2.49082525e-03,
       -1.26420856e-02, -2.87587231e-04, -1.53545570e-02,
       -5.21628605e-03, -1.10928481e-02, -5.55558642e-03,
       -1.88949367e-03, 2.21154676e-03, 4.61857021e-03, 1.47047415e-02,
       3.99035141e-02, 3.73412808e-03, -8.15142784e-03, -1.68793462e-02,
       -7.22407456e-03, -7.70485261e-04, -5.42535959e-03, 2.70263478e-03,
       5.80497971e-03, 9.08861682e-03, -1.28382519e-02, -1.36503093e-02,
       -1.02711003e-02, -2.95040058e-03, 1.53907377e-03, -1.45758456e-03,
       -7.98104610e-03, -1.02030151e-02, 6.81735715e-03, -6.24027196e-03,
       -1.55601408e-02, 3.50513333e-03, 1.19421643e-03, 1.12872561e-02,
       -4.34454903e-03, 1.87090167e-03, 1.15031591e-02, 2.19352953e-02,
       4.67327330e-03, 4.33780160e-03, -1.18194865e-02, 5.87521587e-03,
       1.12261847e-02, -1.26914773e-02, -1.10840462e-02, -2.35970481e-03,
       3.66344117e-04, -1.18487589e-02, -8.25838652e-03, -8.38584919e-03,
       2.54680822e-03, 2.18966659e-02, -6.22568838e-03, -4.14382899e-03,
       1.28474915e-02, 7.67205609e-03, -2.69085378e-03, 3.48518183e-03,
       1.22738266e-02, 6.59121142e-04, 8.84113554e-03, -1.05290897e-02,
       -1.05014499e-02, -1.19138248e-02, 1.81112625e-02, 1.24578911e-03,
       5.03576314e-03, 1.98672852e-03, -1.55531903e-04, 4.20232024e-03,
       -1.20175304e-02, -2.48131417e-02, -1.50454473e-02, 6.84278226e-03,
       1.61747336e-02, 6.49751024e-03, -3.75418738e-03, 8.96332692e-03,
       2.10176986e-02, -1.74779277e-02, -1.18188458e-02, -7.60335801e-03,
       -5.16373059e-03, -1.19596645e-02, -9.23490152e-03,
       -6.35770895e-03, 1.80808008e-02, 9.85787809e-03, -5.41041326e-03,
       -1.87019557e-02, -3.04329060e-02, 2.18117144e-03, -3.42860381e-04,
       -4.22890577e-03, -1.60924671e-03, 1.40842367e-02, 1.22716287e-02,
       -1.26010813e-02, 3.42364027e-03, -3.98399355e-03, 9.65822767e-03,
       1.29138408e-02, 1.29413791e-04, 3.72074917e-03, 2.21899897e-02,
       1.36854509e-02, -2.25352477e-02, -1.53722949e-02, -1.05361454e-02,
       4.77255974e-03, 4.80967155e-03, -8.53368733e-03, -1.36474269e-02,
       9.49613657e-03, 1.04366597e-02, -5.28817438e-03, 6.08750014e-03,
       -3.50307417e-03, 1.03673935e-02, 1.42292231e-02, -4.57626861e-03,
       -7.76354969e-03, 1.24549894e-02, 1.47313355e-02, -1.99660938e-02,
       -5.97125145e-05, -1.35567058e-02, 8.96756444e-03, 1.33144949e-02,
       -8.68323538e-03, -5.28988987e-03, 5.45023766e-04, 4.30069212e-03,
       -6.94904942e-03, -4.41352278e-03, 5.29304496e-04, 5.68451220e-03,
       -9.95420269e-04, -7.75313703e-03, 2.62744585e-03, 5.19141741e-03,
       1.54529791e-02, 7.82463420e-03, -8.79552308e-03, 1.82284135e-02,
       1.63222663e-02, 4.61847754e-03, 5.77734318e-03, -5.28460322e-03,
       3.17221100e-04, 1.39764706e-02, -1.94557023e-03, 4.87162825e-03,
       -3.62772821e-03, 6.61021331e-03, -1.02654891e-02, -1.41483191e-02,
       6.93805330e-03, 7.06879795e-03, 2.30143983e-02, 1.33835869e-02,
       -4.03298158e-03, 2.39265971e-02, 1.43124666e-02, 5.02681499e-03,
       -2.20317114e-03, -9.07350704e-03, -1.32743083e-03, 1.33730443e-02,
       9.15748905e-03, -1.33095812e-02, 1.01872617e-02, 6.55660173e-03,
       -2.34484789e-03, -1.98410475e-03, -1.32292816e-02,
       -1.42957633e-02, 1.10961748e-02, 1.81470364e-02, -5.98287210e-03,
       -3.47551750e-03, -5.56697696e-03, -1.35785900e-02,
       -1.66264502e-03, 1.24671601e-03, 6.23889640e-03, 9.33364592e-03,
       1.33135356e-02, -1.19431308e-02, 2.14632545e-02, 2.06972547e-02,
       -4.30486258e-03, 2.85134651e-03, -5.38169220e-03, -1.05019528e-02,
       8.01551342e-03, 1.99434962e-02, -3.17814434e-03, 1.48067232e-02,
       5.29973628e-03, -1.26966350e-02, -2.15080381e-05, 1.27866736e-03,
       -1.01954211e-02, 4.95500816e-03, 4.07818146e-02, 2.07506097e-03,
       1.35155236e-02, -1.08441990e-02, -1.72007270e-02, 4.70624864e-03,
       7.77282054e-03, -2.03141402e-02, -2.07614880e-02, 9.54142306e-03,
       -2.38289293e-02, 1.17009238e-03, -1.45480204e-02, -1.90276839e-02,
       -1.73469190e-03, 3.61652975e-03, -2.04170193e-03, 5.34056174e-03,
       4.20380868e-02, -1.55961141e-02, 2.40078587e-02, -3.09088081e-03,
       -1.71302892e-02, 8.62876512e-03, 2.32531296e-04, -1.36911850e-02,
       -2.07621027e-02, -7.60322530e-03, -3.00430227e-02, 7.41297146e-03,
       -1.20936502e-02, -1.53231816e-02, 1.78070972e-03, -8.15059117e-04,
       -1.60012916e-02, -2.08252557e-02, 1.61074251e-02, -1.35351727e-02,
       1.33230109e-02, -7.19601475e-03, -1.70225762e-02, -1.05059529e-02,
       -1.86834286e-03, -1.03582097e-02, -1.37635311e-02, 8.24859738e-03,
       -4.99200635e-03, 2.48037511e-03, -7.41676148e-03, -1.45104639e-02,
       -8.09445139e-03, -1.09195653e-02, -1.30144665e-02,
       -2.23766267e-02, 3.59525485e-03, 3.26419133e-04, 2.06731725e-02,
       -6.34314027e-03, -1.44076953e-02, -1.17925387e-02,
       -9.28203762e-03, -8.54775775e-03, -1.39809307e-02, 3.84934992e-03,
       -5.68101928e-03, 1.55187342e-02, -3.48542864e-03, -1.87180322e-02,
       -9.31907818e-03, 1.40133826e-02, -9.89279523e-03, -5.61040593e-03,
       3.42265842e-03, -7.34117907e-03, -4.56371531e-03, 4.56607528e-03,
       3.71804461e-04, 1.19476700e-02, 2.18785666e-02, -1.55505259e-04,
       2.07567029e-03, -3.93856457e-03, -1.41114900e-02, 4.28861612e-03,
       4.44235420e-03, 2.33285106e-03, 1.93038825e-02, 1.53998546e-02,
       -2.62899045e-03, 1.14909199e-03, 2.39284500e-03, -1.08663579e-02,
       -1.73464790e-02, 1.81017502e-04, -1.88295520e-03, 1.79468747e-02,
       1.46861514e-02, -2.41436972e-03, 3.46493232e-03, -2.06434540e-02,
       -1.13483882e-02, -3.42140370e-03, 4.77823289e-03, 1.08056664e-02,
       2.25289576e-02, 1.33605637e-02, 2.84484238e-03, -1.29506355e-02,
       -1.29868882e-02, 9.53429472e-03, 1.17022134e-02, -2.08533322e-03,
       -1.50478911e-03, 1.82364359e-02, 4.23655612e-03, -1.73530122e-03,
       4.16861767e-05, -1.67396199e-02, 1.89267157e-03, -3.04743624e-03,
       -1.19561395e-02, -2.00936152e-03, 7.02579459e-03, 1.22726280e-02,
       -7.46323552e-04, -3.51372850e-03, -1.42172584e-02, 7.81759899e-03,
       1.28566762e-02, 1.84075674e-04, 1.61545782e-03, 1.22558046e-02,
       3.37273860e-03, -8.93356372e-03, 1.25826905e-02, -7.87811913e-03,
       1.08517921e-02, -9.03890282e-03, -8.60917848e-03, -9.18026082e-03,
       2.06901180e-03, 3.33242887e-03, 8.45981389e-03, 1.47109553e-02,
       -1.41360927e-02, -1.01684052e-02, -2.56575877e-03, 2.04022741e-03,
       1.63015239e-02, 1.35830622e-02, 3.90802074e-04, 1.76903959e-02,
       2.26636864e-02, -2.36187526e-03, -7.04056863e-03, 7.95896223e-04,
       8.27789679e-03, 1.90998800e-02, 3.76567268e-03, 3.47514404e-03,
       5.93028357e-03, 2.34347936e-02, -7.05041829e-03, -6.05924567e-03,
       -2.07188241e-02, -1.08708991e-02, 5.85063640e-03, 4.83956328e-03,
       6.07666851e-04, 1.01063950e-02, 1.90012865e-02, -1.23648401e-02,
       -1.41649125e-02, -6.49457518e-03, -5.45270275e-03, 1.92539848e-03,
       3.53668863e-03, -1.11205839e-02, 4.53859661e-03, 1.66446753e-02,
       -2.11409456e-03, -2.54146568e-03, -6.56901626e-03,
       -6.05731877e-03, 3.05621000e-03, -6.08285656e-03, 2.48310505e-04,
       1.14750788e-02, 1.56461243e-02, 2.22009397e-03, 6.04262343e-03,
       -5.24157193e-03, -2.39432207e-03, 3.49571230e-03, 1.50311203e-03,
       -6.83498941e-03, 1.02807097e-02, 2.07145531e-02, -6.93019992e-03,
       1.80990156e-03, -1.87522359e-03, -1.39097497e-02, -1.57884359e-02,
       -1.84836630e-02, 5.16550010e-03, 1.55409588e-03, 3.03317700e-02,
       1.19789469e-03, 5.28930314e-03, 3.67219304e-03, -2.21521920e-03,
       -1.31842028e-02, -8.87330435e-03, -1.37464586e-03, 7.05004670e-03,
       -6.49609184e-03, -1.13299750e-02, -1.80786790e-03,
       -8.76080710e-03, -1.32628456e-02, -4.99115232e-03,
       -8.11521802e-03, -1.32609659e-03, 5.44286473e-03, 9.26321093e-03,
       8.00502207e-03, 7.11089000e-03, -7.67802494e-03, -8.08763318e-03,
       -3.71703901e-03, -2.44271662e-03, -4.88099456e-03,
       -9.60743427e-03, 1.07690152e-02, -4.77033714e-03, -3.75644746e-03,
       -6.93887426e-03, -1.63285900e-02, -1.14580235e-02,
       -4.48340841e-04, -2.50126352e-03, -7.04822782e-03,
       -1.81373116e-03, 1.39714370e-03, 9.59508994e-04, -2.01211940e-03,
       -2.16151075e-03, -5.32594463e-03, 5.24692098e-03, 7.31955701e-03,
       -5.07731643e-03, 1.46939587e-02, 1.76440571e-02, 8.46837938e-04,
       -2.80596153e-03, -4.73479135e-03, -1.68914925e-02,
       -8.66084080e-03, -9.15327761e-03, -1.00161536e-02, 1.07705938e-02,
       1.24220215e-02, -9.35535599e-03, -1.89186968e-02, -6.14262512e-03,
       -8.93315021e-03, -1.41177280e-02, 4.79733571e-03, -4.44208505e-03,
       1.23046348e-02, -3.20945191e-03, 1.43770373e-03, 1.41153258e-04,
       1.57733343e-03, -1.01264445e-02, 8.93281121e-03, -1.19142439e-02,
       -5.33618405e-03, 1.49714230e-02, 5.62494947e-03, -6.16976945e-03,
       -1.80379450e-02, -6.13287324e-03, -3.57777532e-03,
       -4.50107921e-03, -8.20391998e-03, -7.24014780e-03,
       -3.56500357e-04, 1.22460276e-02, 1.30201429e-02, 5.13684889e-03,
       5.82367927e-03, -2.53578392e-03, -3.67969944e-04, -1.10180173e-02,
       -1.70004033e-02, 5.44258440e-03, 1.27171865e-02, 2.20822375e-02,
       5.25090052e-03, 1.22776106e-02, -3.34046455e-03, -1.14060696e-02,
       -9.44702129e-04, -7.81822111e-03, 7.28254439e-03, 1.09846266e-02,
       2.65414664e-03, -8.27630050e-03, -7.76947476e-03, 6.51478593e-04,
       -1.92858395e-03, 5.43628633e-03, -5.72314626e-03, 4.72417474e-03,
       1.24341650e-02, 1.68702267e-02, -3.63644562e-03, -4.52098530e-03,
       -5.84906805e-03, -1.48516558e-02, -1.81974526e-02,
       -1.86728295e-02, -1.75667752e-03, -7.31800543e-03, 9.27890092e-03,
       4.64151474e-03, 2.04351228e-02, -1.21323215e-02, -1.15572670e-02,
       -2.58790255e-02, -1.15686860e-02, 6.88269327e-04, -1.36191677e-02,
       1.20691769e-02, -1.33509003e-03, 5.91053441e-03, -1.59016345e-02,
       -1.36688752e-02, -4.78285970e-03, -4.82823700e-03, 8.04778654e-03,
       4.30988567e-03, 3.91939981e-03, -1.48799391e-02, 6.42494485e-03,
       -7.00405240e-03, -1.19573036e-02, -1.15301292e-02,
       -8.52191821e-03, 7.00294552e-03, 7.50261534e-04, 1.11724427e-02,
       4.08360414e-04, 1.16758728e-02, -9.98853357e-04, -8.62519350e-03,
       -1.28461383e-02, 1.82262564e-03, 3.49891931e-03, -9.92902275e-03,
       -7.13747740e-03, 4.32482269e-03, -2.18813075e-03, -1.26906531e-02,
       -3.74551746e-03, -8.76808073e-03, 5.31507423e-03, 5.29705919e-03,
       -4.42256546e-03, -6.89049531e-03, 1.50812138e-02, -1.30797895e-02,
       -1.02048926e-02, -1.09463595e-02, -5.50069939e-03,
       -7.47031206e-03, 6.51936745e-03, -1.35748647e-03, -5.70513634e-03,
       6.97014853e-03, 8.41644406e-03, -1.47409621e-03, 4.37235506e-03,
       -5.64190419e-03, -8.23024660e-03, 3.26929823e-03, 4.29349858e-03,
       -8.77254456e-03, 1.44542838e-02, 3.87302949e-03, -1.23688085e-02,
       5.61044272e-03, 4.52141603e-03, 2.00297888e-02, 1.68644432e-02,
       -1.01442365e-02, -1.38482535e-02, -4.61511640e-03,
       -1.40154222e-02, -1.58470459e-02, -5.96791599e-03, 5.89648681e-03,
       2.38512531e-02, 9.54307057e-03, -6.08845195e-03, -1.10166101e-02,
       -1.85323730e-02, -9.15958360e-03, -9.25027858e-03,
       -7.77563592e-03, 8.36949889e-03, 1.10189011e-03, 8.87152459e-03,
       -3.41291889e-03, -1.64596234e-02, -1.09420344e-02,
       -9.78974719e-03, -1.80397220e-02, 2.91949051e-04, 1.91969573e-02,
       1.74570885e-02, 2.62397099e-02, 1.40139076e-03, 2.07315292e-03,
       -1.00770667e-02, -1.39136454e-02, -1.59652364e-02, 2.54658237e-03,
       -7.49301538e-03, -3.13534029e-03, 2.15534074e-03, -2.06866693e-02,
       -9.28160269e-03, -2.70658592e-03, -4.58139740e-03, 7.73426436e-04,
       -1.41038178e-02, -1.36071190e-04, 1.13783032e-02, 1.18219247e-02,
       -3.03730201e-02, -1.29215792e-02, -1.51479542e-02, 4.99397190e-03,
       1.54749220e-02, 3.83740384e-03, 6.26919419e-03, 1.64163336e-02,
       5.99089172e-03, -9.59960092e-03, 3.63785936e-03, 3.21112410e-03,
       2.60187243e-03, 3.11532710e-03, 6.20727777e-04, 1.31982816e-02,
       3.06525975e-02, 3.17450278e-02, -1.39025385e-02, -2.41408101e-03,
       2.75429302e-05, 1.65815279e-02, 2.13600602e-02, 1.79263633e-02,
       -5.56947489e-04, 9.02904256e-04, 1.50501719e-02, -2.00762460e-03,
       9.83049162e-03, -2.39225919e-03, -6.25912857e-04, -3.46179074e-03,
       -2.41255271e-03, 1.49245362e-03, 5.72602730e-04, 8.80573504e-03,
       5.37765585e-03, -7.20131677e-03, 1.19193485e-02, 1.15800686e-02,
       -2.47772480e-03, 2.14904640e-03, -6.61443337e-04, 9.35579557e-03,
       2.31453516e-02, -5.52305859e-03, 1.14396401e-02, -4.85116011e-03,
       1.02045368e-02, 7.23180221e-03, -3.99395794e-04, -2.11073057e-04,
       -2.52589089e-04, 1.71143059e-02, -2.81855860e-03, -5.40159084e-03,
       1.30543495e-02, 1.87328011e-02, 9.31863498e-04, -4.11211234e-03,
       -2.31666694e-04, 1.15851127e-03, 1.02117273e-03, 1.05854142e-02,
       -1.44936489e-02, 2.16229577e-02, 1.83657464e-02, -6.68958109e-03,
       -4.49493108e-03, -5.07303234e-03, -9.42806527e-03, 1.49559451e-03,
       1.51922107e-02, -9.20419395e-03, 1.32038770e-02, 1.36330491e-03,
       -1.41943730e-02, -6.48734253e-03, -6.83485344e-03, 1.69950118e-03,
       1.05530228e-02, 8.07396974e-03, -5.65065071e-04, 1.39842490e-02,
       1.82312280e-02, -2.22877273e-03, -6.79847831e-03, -7.78532005e-04,
       -3.24233249e-03, 4.64432727e-04, 1.09034404e-02, -1.59990527e-02,
       1.35654872e-02, -1.89189115e-04, -7.07954261e-03, -3.49670579e-03,
       5.54800080e-03, -5.07006701e-03, 2.55280570e-03, 3.13207023e-02,
       -1.37002235e-02, 2.74624992e-02, -1.73422194e-03, -9.25219338e-03,
       9.86367557e-03, -5.01468871e-03, -1.11470437e-02, -1.40012987e-02,
       -1.60444360e-02, -2.38163043e-02, 1.55282570e-02, -1.83110647e-02,
       -8.56073294e-03, -2.25807284e-03, 5.22398064e-03, -8.65538255e-04,
       -5.22125605e-03, 2.01646443e-02, -1.53813111e-02, 2.52922270e-02,
       -2.87931343e-03, 5.12278581e-04, 3.54963983e-03, -9.55527124e-04,
       4.62771393e-03, -2.26876535e-03, -1.19002685e-02, -2.40473226e-02,
       1.37388660e-02, -1.84793789e-02, -8.26196931e-03, -2.35639256e-03,
       -1.93961393e-02, -1.20930485e-02, -7.02535314e-03,
       -1.85442122e-03, 4.79846681e-03, 1.80271138e-02, -7.61130452e-03,
       -8.25312547e-03, -1.88597385e-02, -2.26901695e-02,
       -1.23379696e-02, -1.38938855e-02, -2.57233949e-03,
       -9.28639725e-04, 6.10874174e-03, -9.41304956e-03, -1.28358155e-02,
       -1.83977839e-02, -1.47833861e-02, -2.66536698e-03,
       -3.18147661e-03, 4.49608592e-03, 2.89468630e-03, 1.49416598e-02,
       -9.43314563e-03, -7.80837191e-03, -6.81747682e-03,
       -1.52452104e-02, -1.85909811e-02, -1.16050988e-02, 4.66259569e-03,
       3.55733535e-03, 1.68820133e-03, -1.46830212e-02, -9.45115928e-03,
       -6.12737052e-03, 1.00260403e-03, 2.78712274e-03, 6.38804352e-03,
       1.43035725e-02, -1.32725360e-02, -8.42591003e-03, 1.20524000e-02,
       5.79474028e-03, -1.76981994e-04, 1.16983810e-02, 1.06268283e-02,
       1.27217015e-02, -6.90704677e-04, 2.51372490e-04, -1.55910279e-03,
       7.20244274e-03, 6.09732792e-03, 1.44009991e-02, -2.02392251e-03,
       -1.82246172e-03, 3.25658754e-03, 2.02492308e-02, -1.91286840e-02,
       -6.22913707e-03, 1.00528160e-02, 2.98367348e-03, -5.10097016e-03,
       1.02613447e-03, -1.35528715e-03, 8.05429928e-03, 1.04183620e-02,
       -8.35544709e-03, -3.34024476e-03, 6.98495517e-03, 1.38451541e-02,
       -2.24683713e-03, 8.82795081e-03, 5.80406561e-03, 3.41668166e-03,
       2.37319246e-03, 7.41118751e-03, -7.31234252e-03, -5.41803567e-03,
       7.85621163e-03, 1.05265928e-02, 8.83323420e-03, -2.41303886e-03,
       8.31084885e-03, 1.05755450e-03, 8.61203182e-04, -1.54509367e-02,
       -4.45566745e-03, 7.12487439e-04, 3.20800487e-03, 2.07641558e-03,
       -4.23788000e-03, 8.50444101e-03, 2.99034175e-03, 5.30237611e-03,
       -1.11137240e-04, -4.54109628e-03, 1.20096095e-02, -1.38241611e-03,
       -1.21603962e-02, -7.04318425e-03, 6.62467629e-03, -4.84210579e-03,
       -8.69357493e-03, -1.81966424e-02, -7.54812453e-03, 5.57102961e-03,
       -1.12212533e-02, 7.78662553e-03, 3.28108831e-03, 1.02291452e-02,
       -6.13560784e-04, 4.03095270e-03, -7.64927547e-03, -7.37892417e-03,
       -3.80696962e-03, 5.70787024e-03, -2.73272395e-03, 6.30332204e-03,
       2.73805801e-02, 9.28146299e-03, 1.36415185e-02, 4.39113332e-03,
       1.21213472e-03, -4.26479429e-03, 6.81329379e-03, -7.11037265e-03,
       2.64881970e-03, 4.13312530e-03, -4.76688333e-03, 1.03114720e-03,
       -9.66133177e-03, 1.20056383e-02, 2.03427603e-03, -8.05731490e-03,
       -1.84540928e-03, 1.35595715e-02, 1.80694163e-02, 6.52102893e-03,
       5.48353605e-03, -5.92436595e-03, 5.80737554e-03, -2.36956967e-05,
       3.02633294e-03, -6.25366345e-03, 9.46073513e-03, 2.35144515e-02,
       2.24979711e-04, -2.48052040e-03, -9.46794171e-03, -1.29859801e-02,
       -1.15769114e-02, -3.18602286e-03, 8.02233629e-03, 9.76731721e-03,
       2.75033489e-02, 4.72562900e-03, 6.75272371e-04, 1.01467427e-02,
       -4.88421414e-03, -3.87130305e-03, 6.82998681e-04, -2.57681333e-03,
       6.46074815e-03, 1.54583333e-02, 9.81896650e-04, 4.85331006e-03,
       -1.18857259e-02, -2.06441083e-03, 4.97334450e-03, 8.68747756e-03,
       6.52011950e-03, 6.75628940e-03, 4.69271094e-03, -1.24121206e-02,
       5.56734297e-03, 8.12397618e-03, -1.14674331e-03, 1.80897175e-03,
       4.38298099e-03, 4.63013741e-04, 2.66753603e-03, 1.68530066e-02,
       6.01250120e-03, -1.14204194e-02, -4.59476083e-04, -9.85749532e-03,
       -1.62837114e-02, -9.34501365e-03, 1.24273996e-03, 9.08738747e-03,
       6.13645185e-03, 6.25260826e-03, 8.23409855e-03, 4.48695850e-03,
       6.40498241e-03, -2.04616203e-03, -5.18024247e-03, -4.43146518e-03,
       1.70363707e-03, -1.04635721e-03, -4.26191557e-03, -3.14121111e-03,
       -2.65404140e-03, -6.51460886e-03, -1.33680785e-02,
       -9.17127449e-03, -9.27906670e-03, 1.36861592e-04, 1.62965246e-02,
       6.62498502e-03, 3.68345150e-04, -1.22927828e-03, 1.22615602e-02,
       4.45191609e-03, -9.82133579e-03, -6.93967519e-03, 4.02737089e-04,
       8.91329255e-03, 3.43135465e-03, 3.40736285e-03, -2.76475027e-03,
       1.94530115e-02, 7.88167398e-03, 1.79128911e-04, -1.16975447e-02,
       -1.53581763e-03, 1.68587696e-02, 9.99261998e-03, -1.12982392e-02,
       -1.50333659e-03, 1.88817605e-02, 1.01870392e-02, 4.51453775e-03,
       -1.31915845e-02, -5.21663809e-03, 1.90919805e-02, 7.38379732e-03,
       -5.51040424e-03, -1.15084825e-02, 1.94918606e-02, 1.44395027e-02,
       -9.47709009e-03, -2.92482297e-03, -5.70045970e-03, 9.34799481e-03,
       6.16844045e-03, -1.90355070e-02, -5.48643898e-03, 2.78252233e-02,
       2.25745291e-02, 9.31296684e-03, -6.28168508e-03, -3.12818820e-03,
       4.37834999e-03, 1.63139531e-03, -1.09456712e-02, -1.27658388e-02,
       -1.93020829e-03, 2.38024839e-03, -1.48226100e-03, 5.13310917e-03,
       4.49739629e-03, 2.42894772e-03, -5.78180468e-03, -1.42444053e-03,
       -9.05132852e-03, -5.77306608e-03, 4.29024949e-04, -8.71211383e-03,
       -1.09818187e-02, -3.24923988e-03, 5.08963224e-03, -4.12462978e-03,
       -9.58874263e-03, -1.31466743e-02, 5.24002779e-03, 1.62099674e-02,
       8.46282765e-03, 7.42572406e-03, 4.94722603e-03, 4.66708653e-03,
       -6.66939770e-04, 1.09114801e-03, 2.69744382e-03, 6.16833568e-04,
       1.77590102e-02, 1.86074376e-02, -9.67608020e-03, 5.24578895e-03,
       7.33827800e-03, -1.22042047e-03, -1.17941489e-02, -2.33197473e-02,
       -6.95502432e-03, -3.07421107e-03, -1.84624679e-02,
       -1.03186369e-02, 9.15046432e-04, 1.05059342e-02, 1.40059246e-02,
       -5.93221281e-03, -9.14166588e-03, -1.94274457e-04, 9.63794347e-03,
       -5.09416871e-03, -4.83999494e-03, 5.60984109e-03, -1.26003369e-03,
       -6.97122887e-03, -5.14829857e-03, -8.91707279e-03, 2.01507704e-03,
       1.64765120e-02, 1.17058698e-02, -1.82385035e-02, 2.22351751e-03,
       2.83680600e-03, 8.06712825e-03, 9.71056242e-03, -8.72119889e-03,
       -1.48945721e-03, 9.62335803e-03, 4.08222480e-03, -7.56323012e-03,
       -5.13234641e-03, -4.95185028e-04, 6.32530823e-03, -2.07802141e-03,
       -9.29332525e-03, -6.92200474e-03, 7.17168674e-03, 9.98084899e-03,
       -7.97676016e-03, -1.09074432e-02, 7.81240175e-04, 2.08164915e-03,
       -7.03132199e-03, -8.71353131e-03, -1.16178710e-02,
       -1.07152136e-02, -3.61056905e-03, -8.52205139e-03, 8.37744505e-04,
       -4.25271131e-03, 1.42892003e-02, 1.01471562e-02, -6.96417224e-03,
       -1.26334475e-02, 1.49636650e-02, 1.08190970e-02, -2.33678333e-03,
       6.37150044e-03, 3.90439876e-03, 1.21849347e-02, 7.70185003e-03,
       -1.70647837e-02, -2.01850627e-02, -3.21793975e-03,
       -6.46423455e-03, 5.89064043e-03, -1.55026244e-03, 7.80693023e-03,
       -5.92049584e-03, -2.01921333e-02, -1.74193475e-02,
       -1.01144649e-02, -1.74060389e-02, -5.69763500e-03, 1.82529278e-02,
       1.21309096e-02, 2.30687708e-02, -1.20759979e-02, -1.14206197e-02,
       -8.84146336e-03, -1.59964636e-02, -1.67708527e-02,
       -7.96040986e-03, 7.41778314e-03, 1.79622285e-02, 1.40973115e-02,
       -1.36052947e-02, -4.98386240e-03, -1.52175948e-02,
       -1.10389739e-02, -1.68145970e-02, -9.40498803e-03, 5.87523030e-03,
       1.28358547e-02, 1.13684135e-02, -1.65423788e-02, -9.57438722e-03,
       1.37930857e-02, 1.49260776e-03, -6.06378308e-03, 8.06665514e-03,
       -6.18932769e-03, 7.69715337e-03, 1.02836946e-02, -5.16522350e-03,
       -5.99080278e-03, -4.20547649e-03, -5.96427033e-03,
       -1.16731068e-02, -1.64036676e-02, -2.33143731e-03, 2.37023644e-02,
       2.17924435e-02, -4.84104920e-03, -2.50309682e-03, 2.62487005e-03,
       6.28221920e-03, -4.87343408e-03, -7.79425027e-03, -6.86384831e-03,
       -3.36629362e-03, 1.96292307e-02, -2.26120185e-03, -1.42920855e-03,
       7.25632021e-03, 2.54010479e-03, -1.91029278e-03, -1.97924892e-04,
       -2.57273251e-03, 4.02934710e-03, 6.74443599e-03, -8.51560850e-03,
       1.07054012e-02, 2.49739992e-03, 9.68794897e-03, 4.88472753e-04,
       -2.87574157e-03, -2.30460172e-03, 1.93940662e-02, 1.84875987e-02,
       5.30338567e-03, 1.65002197e-02, 4.25579230e-04, 1.02983098e-02,
       5.28337434e-03, -5.34349820e-03, 7.64427567e-03, 1.11294026e-02,
       2.84942631e-02, 7.26952357e-03, -3.74669116e-03, 9.62810311e-03,
       1.95932984e-02, -8.57774517e-04, -6.58537121e-03, 3.51651269e-03,
       1.71417277e-02, 1.88646019e-02, 2.18030531e-03, 2.04644930e-02,
       1.19188949e-02, 1.36059178e-02, 5.02582546e-03, -2.05539446e-03,
       5.44590363e-03, 1.28545631e-02, 2.87270937e-02, 1.71542764e-02,
       -1.31785928e-03, 1.19672446e-02, 1.52760651e-02, -3.97564005e-03,
       -1.69872621e-03, 3.38823837e-03, 2.95444159e-04, 2.17600241e-02,
       8.84064380e-03, 4.66546742e-03, 1.27629424e-02, 1.78937167e-02,
       -2.86659412e-03, -1.90510519e-03, 8.56014155e-03, -3.49021074e-03,
       8.33443832e-03, 5.06313797e-03, -9.31568909e-03, -9.66192398e-04,
       7.08882464e-03, 1.42999564e-03, -9.80334706e-04, -9.25032073e-04,
       2.07484514e-03, 1.44782001e-02, 1.31542468e-02, 1.79310609e-02,
       2.29233820e-02, 2.26431079e-02, -5.61732240e-03, -1.49586368e-02,
       3.02087195e-04, 4.42347198e-04, 1.04644308e-02, 2.21525249e-03,
       -2.37732148e-03, 4.03055549e-03, -1.17683772e-03, -8.83902423e-03,
       -1.21724429e-02, 5.13161998e-03, -4.71756095e-03, -2.08121655e-03,
       7.76232919e-03, -9.56312288e-03, 1.53350765e-02, 1.06647983e-02,
       9.37464181e-03, -1.22774520e-03, 3.59672471e-03, 8.96095484e-03,
       -4.30339901e-03, -9.45967156e-03, -1.59281529e-02, 1.10923452e-02,
       -7.23108556e-03, 1.32108806e-03, -5.07990411e-03, -1.55636296e-03,
       -4.62072110e-03, 2.32917420e-03, 9.82216932e-03, 7.66317639e-03,
       6.16214611e-03, 8.26734025e-03, 1.54158669e-02, 2.15183501e-03,
       6.25844486e-03, -6.22700201e-03, -1.28246937e-03, 1.88802928e-03,
       -2.05091350e-02, 1.98401697e-02, -4.62310063e-03, 5.90133993e-03,
       8.67583381e-04, -6.36549713e-03, -4.13374102e-04, -4.32108715e-03,
       -9.02969018e-03, 1.77640293e-03, 9.67577472e-03, -1.26300799e-02,
       -6.89186482e-03, -6.59067277e-03, -5.85989794e-03,
       -1.33499233e-02, -1.63965039e-02, 7.91842584e-03, 1.23863379e-02,
       -8.08986928e-03, -1.87016204e-02, -6.02907361e-03,
       -2.94590229e-03, 3.69478040e-03, -1.14173908e-03, -3.54963006e-03,
       2.29269098e-02, -9.23698099e-05, 1.11278901e-02, -1.96858253e-02,
       -4.01602080e-03, -4.99654701e-03, -1.14695365e-02,
       -2.08411757e-02, -2.44031660e-02, 1.29289059e-02, 2.70497054e-03,
       -1.30057568e-02, -1.38787646e-02, -1.13405026e-02,
       -1.42554455e-02, 1.66635215e-03, 2.53275386e-04, 1.53456838e-03,
       1.82554107e-02, -4.73483698e-03, -6.39246078e-03, 3.23816348e-04,
       7.53183244e-03, 3.27041117e-03, 5.12548070e-03, -2.95951817e-04,
       -2.02743663e-03, 1.51408082e-02, -8.93098069e-04, 8.10774043e-03,
       1.78270997e-03, 1.35423038e-02, 9.18583013e-03, -5.03255054e-03,
       -2.35351245e-03, 1.40526732e-02, 3.16245183e-02, -4.52616392e-03,
       -1.28750494e-02, 3.14706704e-03, 8.92843865e-03, 4.91877654e-05,
       -7.08967168e-03, -4.81298938e-03, 9.90856788e-04, 1.42393550e-02,
       -4.59080748e-03, 9.74384660e-04, 2.91704852e-03, 1.31221004e-02,
