%YAML:1.0
---
my_detector: !!opencv-object-detector-hog
   winSize: [ 256, 256 ]
   blockSize: [ 16, 16 ]
   blockStride: [ 8, 8 ]
   cellSize: [ 8, 8 ]
   nbins: 9
   derivAperture: 1
   winSigma: 4.
   histogramNormType: 0
   L2HysThreshold: 2.0000000000000001e-01
   gammaCorrection: 1
   nlevels: 64
   signedGradient: 0
   SVMDetector: [ -1.03052903e-03, 1.26015861e-03, 3.68749304e-03,
       5.40548842e-03, 7.41297426e-03, 2.31140619e-03, 2.17741402e-03,
       -3.08196904e-04, 8.57564519e-05, -4.09869896e-03, -1.72521675e-03,
       1.27864769e-03, 4.26939456e-03, 3.73825780e-03, 2.66687502e-03,
       6.62241480e-04, -8.00964946e-04, -3.47548630e-03, -3.27661546e-04,
       1.36804744e-03, 1.33044110e-03, 6.48056110e-03, 4.39125253e-03,
       3.89630557e-03, 2.82124919e-03, -6.46962784e-04, -9.92772868e-04,
       -4.89745988e-03, -2.98276288e-03, -1.21485267e-03, 2.76938709e-03,
       3.79339163e-03, 6.14814367e-03, 2.97919381e-03, 8.85121175e-04,
       -3.81663861e-03, -1.53364812e-03, -8.03021132e-04, 1.65432319e-03,
       4.64002835e-03, 6.08451478e-03, 2.16420693e-03, 8.56134808e-04,
       4.42244454e-05, -7.62071810e-04, 9.73764807e-04, -1.64626888e-03,
       -3.11731361e-04, 6.18213508e-03, 3.06226150e-03, -1.24077348e-03,
       5.33114478e-04, -5.19808731e-04, -8.16526590e-04, -5.38130850e-03,
       5.32156701e-05, 1.70183892e-03, 3.41506931e-03, 1.07848318e-02,
       4.59713163e-03, 6.77955628e-04, 4.45755664e-04, -3.94849014e-03,
       -4.17594053e-03, -1.00435002e-03, 6.78747136e-04, 3.02721304e-03,
       5.31817647e-03, 1.51164969e-03, -2.59614899e-03, -1.48035318e-03,
       -2.95933685e-03, 1.04664906e-03, 8.82432214e-04, 7.74187443e-04,
       4.13866155e-03, 8.67205323e-04, -2.31540506e-03, -2.16699112e-03,
       -6.99156895e-04, -7.53128319e-04, 3.54556571e-04, -1.19534661e-05,
       1.10119348e-03, 1.74344066e-04, 6.63147715e-04, -1.84075977e-03,
       -4.91165230e-03, -6.49038411e-04, -1.07978692e-03,
       -1.99384033e-03, -1.83001976e-04, 3.06821615e-03, 3.65192723e-03,
       5.80855599e-03, -2.00169976e-04, -4.73659299e-03, -2.03932775e-03,
       -2.72278138e-03, -8.34613980e-04, -8.36719817e-04, 3.38320155e-03,
       2.48276722e-03, 3.70299537e-03, -5.03882067e-04, -4.84265387e-03,
       -2.73537613e-03, -3.18175741e-03, -1.80509771e-04,
       -1.44449924e-03, 5.93127043e-04, 3.69085668e-04, 5.12333587e-04,
       6.57545243e-05, -1.40874309e-03, -1.86723657e-03, -1.96283497e-03,
       2.00594123e-03, 8.32819205e-04, 8.67869938e-04, 1.22058351e-04,
       1.12511218e-03, 1.65417150e-03, 3.17539438e-04, -2.69016018e-03,
       2.69355805e-04, -1.64270657e-03, -3.03265173e-03, 1.01187464e-03,
       5.99536579e-04, 5.01825381e-03, 1.71744428e-03, -2.23378604e-03,
       -3.31834890e-03, -2.60109035e-03, -4.56364942e-04,
       -6.04161178e-04, -1.60173292e-03, 2.60384846e-03, 3.06193321e-03,
       9.30048293e-04, -1.18114077e-03, -3.41437664e-03, -1.44110085e-03,
       1.84931443e-03, 5.25643227e-05, 8.40809720e-04, 8.66401591e-04,
       2.32749991e-03, 1.13484904e-03, -3.05808871e-03, -4.14399244e-03,
       -7.57728994e-05, 2.97827180e-03, -1.98819689e-04, -5.76155435e-04,
       2.95903534e-03, 5.19048236e-03, 2.07653805e-03, -4.30116011e-03,
       -6.74387114e-03, -4.11046669e-04, -1.32069958e-03, 2.00135779e-04,
       -8.54337941e-06, 2.82608694e-03, 1.09270588e-03, 2.09092774e-04,
       -3.68422223e-03, -6.66709850e-03, -4.26299591e-03,
       -1.15064101e-03, 4.47282247e-04, 3.22464941e-04, 3.98617890e-03,
       4.08114586e-03, 1.43217773e-03, -5.33488346e-03, -7.30448216e-03,
       -6.98236609e-03, 2.88556796e-03, 2.79896864e-04, 1.47460174e-04,
       4.61181672e-03, 8.90440191e-04, 7.21850141e-04, -2.96787499e-03,
       -4.98549780e-03, -1.00890070e-03, 3.03818029e-03, 4.62906156e-03,
       4.55969060e-03, 7.88708217e-03, 8.14525585e-04, 3.52122384e-04,
       -4.23571700e-03, -4.76386398e-03, -1.34257879e-03,
       -4.26690938e-04, 3.27767804e-04, 6.49051275e-04, 7.12786196e-03,
       1.36696373e-03, -4.07500862e-04, -6.10796735e-03, -6.18327083e-03,
       -7.36117084e-03, 5.44471492e-04, 3.46573186e-03, 6.74144505e-03,
       7.38248462e-03, 5.94088167e-04, -1.08148600e-03, -4.36018594e-03,
       -5.75447641e-03, -5.95013006e-03, 3.16423643e-03, 1.45798875e-03,
       2.45740451e-03, 5.08391066e-03, -1.91359377e-05, 2.93852855e-03,
       -2.65209167e-03, -5.02935937e-03, -1.53954839e-03, 3.38101923e-03,
       1.25939527e-03, 2.71575199e-03, 1.10379432e-03, -6.24834385e-04,
       7.30328087e-04, -1.12142449e-03, -5.15498873e-03, -1.12162053e-03,
       1.61800277e-03, 1.35714817e-03, 5.48033137e-03, 3.65300151e-03,
       -1.69918116e-03, 2.58476171e-03, -1.31188950e-03, -5.60248084e-03,
       -3.43791372e-03, 2.72198929e-03, 6.37946243e-04, 9.81217017e-04,
       1.17417471e-03, -3.58436513e-03, 4.63639712e-03, 8.45171220e-04,
       -5.48286969e-03, -1.21120038e-03, 3.52561055e-03, 1.07257138e-03,
       3.35299294e-03, 1.75931316e-03, -1.11912820e-03, 4.68350423e-04,
       -1.01606036e-03, -3.09510413e-03, 1.01120479e-03, 3.07190837e-03,
       -7.07941595e-04, 3.30015388e-03, 3.38104297e-03, -4.46751219e-04,
       2.23210687e-03, 6.45258580e-04, 1.32530564e-04, 3.48697230e-03,
       4.97633824e-04, -1.10688352e-03, -5.11074148e-04, 1.92230382e-05,
       -2.13084579e-03, 6.55623386e-03, 1.06998638e-03, -2.80629401e-03,
       -1.96319027e-03, -1.48980960e-03, -4.11104178e-03,
       -7.75701192e-04, 2.83062179e-03, -1.81398340e-04, 4.52918513e-03,
       2.48574093e-03, -2.88251875e-04, 5.24235074e-04, 3.65382992e-03,
       -1.34035037e-03, 9.88422311e-04, 3.52455047e-03, -1.23326213e-03,
       1.69719046e-03, 9.32205876e-04, 3.15137557e-04, 4.43931110e-03,
       3.29150003e-03, -3.51636583e-04, -9.34715732e-04, -4.64912991e-05,
       -2.41083489e-03, -2.69523822e-03, 2.21983297e-04, -1.50941114e-03,
       2.94022122e-03, 1.21840225e-04, -2.83945305e-03, 1.81984069e-04,
       1.68172538e-03, -1.72655820e-03, 2.90941098e-03, 2.40375078e-03,
       4.59497038e-04, 3.14898742e-03, 5.64308721e-04, -1.28965091e-03,
       -1.76045636e-03, 1.14855461e-03, -1.10801670e-03, 1.05894019e-03,
       2.34801701e-04, -1.27394299e-03, 1.63298193e-03, 6.93561742e-04,
       -7.70794635e-04, 1.39840675e-04, 4.45508817e-03, 1.49635991e-04,
       -1.16144081e-04, 1.15034236e-04, -2.89166393e-03, -3.09859424e-05,
       -1.32328877e-03, -1.58077024e-03, -8.85414847e-05, 7.76465051e-04,
       7.54027686e-04, -2.47470243e-03, -4.01883991e-03, -4.99483710e-03,
       -3.88350384e-03, -9.20744787e-04, -1.57280569e-03,
       -7.16057781e-04, 4.18593502e-03, 2.01265374e-03, 2.52694963e-03,
       1.23214559e-03, -1.97258592e-03, -9.79286036e-04, -2.42399168e-03,
       -1.04536477e-03, 6.17596670e-04, -1.56649202e-03, 1.83836196e-03,
       2.65951530e-04, 1.35439172e-04, -2.42874050e-03, -4.30079130e-03,
       -1.93015079e-03, -3.75422742e-03, -3.76583630e-04,
       -1.66379043e-03, 1.21978449e-03, -1.36459619e-03, -2.06931098e-03,
       -3.01657524e-03, -1.91704754e-03, -1.96945225e-03,
       -4.05846583e-03, -1.52093382e-03, -1.33766432e-03, 3.97953903e-03,
       6.56552438e-05, -1.39906886e-04, -1.11974659e-03, -8.28348100e-04,
       1.35543291e-04, -1.63847720e-03, 2.68706208e-04, -3.39730061e-03,
       4.60153585e-03, 2.15320778e-03, 2.70614959e-03, 2.14113636e-04,
       -8.65568756e-04, -1.59758536e-04, -2.61869002e-03,
       -1.41213473e-04, -1.90502463e-03, 8.24132748e-03, 2.84075295e-03,
       2.48623663e-03, 3.08016723e-04, -1.35568471e-03, -6.66067121e-04,
       -1.71023537e-03, -8.87219911e-04, 1.31750526e-03, 3.97997769e-03,
       2.11305769e-06, -7.31079374e-04, -2.82326806e-03, -5.30284306e-04,
       -8.39487184e-04, -4.02647071e-03, -5.37614338e-04, 3.41827050e-04,
       7.22906785e-03, 5.07630699e-04, -1.99820683e-03, -4.90287412e-03,
       -1.25790481e-03, -1.33531677e-04, -1.63971691e-03, 8.19541514e-04,
       1.32995949e-03, 8.03698413e-03, 3.31377611e-03, 9.37248231e-04,
       -1.51845103e-03, 8.28309625e-04, -3.13924975e-03, -4.66582458e-03,
       -3.86232091e-03, -5.44054143e-04, 8.42370000e-03, 1.04938948e-03,
       -5.31725003e-04, -4.62791882e-03, -2.04698043e-03,
       -1.97851704e-03, -3.90483160e-03, -7.48509774e-04, 6.96918694e-04,
       5.03675174e-03, 7.12991168e-04, -1.20002904e-03, -3.96595336e-03,
       -1.79889856e-03, -4.58982494e-03, -4.79338691e-03,
       -1.08202244e-03, 3.28514318e-04, 9.69437230e-03, 1.39371521e-04,
       3.04287591e-04, -3.47943255e-03, -2.76083895e-03, -4.59824363e-03,
       -7.38517987e-03, -4.91638668e-03, 1.02196936e-03, 3.79002537e-03,
       3.37835867e-03, 1.26437820e-03, -2.81355530e-03, -2.34136963e-03,
       -3.28446552e-03, -5.91405900e-03, -1.53127534e-03, 4.27125767e-03,
       1.24667725e-02, 4.41819150e-03, 5.91517845e-03, 1.00768826e-04,
       -5.57514024e-04, -3.93827260e-03, -5.99275529e-03,
       -8.49609438e-04, -2.71045254e-03, 7.95710832e-03, -1.86448975e-03,
       -6.91091293e-04, -2.20107264e-03, 6.61423401e-05, -3.69558297e-03,
       -6.16212143e-03, 3.44998785e-04, -9.58868244e-04, 9.52513888e-03,
       1.12885155e-03, 5.09776815e-04, -3.76786664e-03, -2.02779745e-04,
       -6.08584844e-04, -5.07770386e-03, 2.15417473e-03, -5.32193284e-04,
       6.55166758e-03, 1.24061029e-04, 5.12321619e-03, 2.47239275e-03,
       2.29571434e-03, 1.84749661e-03, -2.49420991e-03, 2.58562248e-03,
       -9.00476298e-04, 8.66039470e-03, 3.32130498e-04, 4.39328561e-03,
       -9.32397321e-04, 1.92987209e-03, -1.95518299e-03, -4.67496924e-03,
       4.61485324e-04, -3.21107334e-03, 4.50029690e-03, -5.96858445e-04,
       1.61153753e-03, -5.16561745e-03, -5.74098143e-04, -8.41657049e-04,
       -2.92190281e-03, -2.45295744e-03, -3.59535823e-03, 1.32027792e-03,
       -3.77691677e-03, 2.41053244e-03, -2.88336817e-03, -2.04119220e-04,
       2.45091482e-03, -2.42311557e-06, 3.32894316e-03, 1.03738101e-03,
       5.51769231e-03, -8.43363057e-04, 2.61163828e-03, -3.23244953e-03,
       1.24206615e-03, 2.78923078e-03, 1.70008035e-03, 2.24523852e-03,
       7.09216227e-04, 2.04884284e-03, -3.39453504e-03, 3.01199197e-03,
       -1.38171774e-03, 2.86176312e-03, -4.88437479e-04, -4.42862744e-03,
       -3.16618779e-03, -2.89903628e-03, -2.16546701e-03,
       -1.85318489e-03, 1.22927641e-03, -2.60356441e-03, -2.77891580e-04,
       9.81128775e-04, -4.60665207e-03, -2.97588552e-03, -1.51765451e-03,
       2.40204437e-03, -1.81009981e-03, 1.23262580e-03, -4.30980092e-03,
       -1.59746676e-03, 1.65699422e-03, -5.02620591e-04, -1.25320780e-03,
       -1.25240523e-03, -5.10975951e-04, -2.57335138e-03, 4.15136293e-03,
       -1.77141977e-03, 9.39752616e-04, 1.12643151e-03, -2.38657929e-03,
       2.35890344e-04, -1.24988699e-04, 4.08282643e-03, -3.07793642e-04,
       1.43510965e-03, -4.48247092e-03, -8.66423710e-04, -4.76437999e-05,
       -2.72095017e-03, -1.14798651e-03, -9.58978373e-04, 4.28877072e-03,
       -2.56267173e-04, 2.13529915e-03, -3.37155606e-03, -2.05214019e-03,
       -8.58691288e-04, -5.96070895e-04, -2.95671728e-03,
       -4.70225327e-03, 4.08790587e-03, -1.99412112e-03, 2.03693693e-04,
       -3.01624485e-03, 3.91267822e-05, -1.15430146e-03, -1.27101946e-03,
       1.53132249e-03, 5.98981918e-04, 3.85695067e-03, 1.01765152e-03,
       2.07225559e-03, -2.02911347e-03, -4.18752403e-04, 5.10767859e-04,
       2.08629807e-03, 3.43896006e-03, -1.51201035e-03, 2.52004294e-03,
       -1.06329250e-03, 2.27732374e-03, 1.99372706e-04, 1.50171085e-03,
       1.06390065e-03, 1.65637990e-03, -1.64558645e-03, -3.58948740e-03,
       4.57977084e-03, -1.64819311e-03, -9.91169291e-05, -9.65448096e-04,
       2.42428528e-03, 1.58329715e-03, 1.47834595e-03, 2.32163654e-03,
       -1.40409486e-03, 5.07820304e-03, -3.17807216e-03, 9.10967574e-05,
       -2.15827115e-03, 4.01609199e-04, 3.14072846e-03, 2.54275347e-03,
       2.70648766e-03, -4.66727914e-04, 3.36889620e-03, -1.58175221e-03,
       1.82051188e-03, 1.97124761e-03, 3.75886285e-03, 2.13462929e-03,
       -8.17236200e-04, 3.00035841e-04, -2.34778388e-03, 6.64079841e-03,
       9.65781001e-05, 2.45140539e-03, 2.34864303e-03, 1.02199102e-03,
       1.21718901e-03, 2.04587006e-03, 1.12145441e-03, -1.64804957e-03,
       8.04059301e-03, 3.90258996e-04, 2.75189010e-03, -2.40362319e-03,
       -7.92182691e-04, -9.11657291e-04, -1.45571190e-03,
       -6.67846878e-04, -1.33871287e-03, 7.17503531e-03, 4.97857982e-04,
       1.63157505e-03, -2.01946520e-03, -2.67124968e-03, 1.02475891e-03,
       -2.48285884e-04, 1.27027160e-03, -1.31682015e-03, 9.75107215e-03,
       3.56346159e-03, 4.67435038e-03, 1.75487914e-03, -1.33521913e-03,
       -1.53270003e-03, 3.15591198e-04, 4.99617402e-03, 9.22564999e-04,
       5.51436516e-03, 1.11671019e-04, 2.59720651e-03, -1.04300119e-03,
       -2.73747602e-03, -3.37210810e-03, -4.47120471e-03,
       -3.77098890e-03, -2.79849349e-03, 2.99727870e-03, 1.28535135e-03,
       2.39526576e-04, -2.65790150e-03, -4.33539785e-03, -1.12723268e-03,
       -4.49148123e-04, -1.20559195e-03, -1.56288000e-03, 5.64232701e-03,
       2.49722158e-03, 1.46881840e-03, -1.59792847e-03, -2.72041187e-03,
       -8.93350167e-04, -4.09106928e-04, -1.08654588e-03,
       -3.41546489e-03, 3.20491078e-03, 1.02631515e-03, 2.52081850e-03,
       1.64716563e-04, -2.43945234e-03, 4.46423562e-03, 6.35354733e-03,
       2.70548696e-03, -2.27132899e-04, 6.08613668e-03, 1.87799917e-03,
       2.81022023e-03, 2.20489968e-03, 1.18205650e-03, -2.01580743e-03,
       -2.25385674e-03, -2.38231430e-03, -3.90975736e-03,
       -1.38229213e-03, -1.06288097e-03, -1.00773724e-03,
       -2.51026265e-03, -4.43179812e-03, 2.07702490e-03, 1.08462380e-04,
       3.48540547e-04, -2.53607566e-03, -1.51609199e-03, -3.54562188e-03,
       -1.56598177e-03, -3.41868051e-03, -1.71957409e-03,
       -3.37074394e-04, 3.90342926e-03, 3.53387411e-04, -2.62165978e-03,
       1.98430289e-03, 1.97973009e-03, 1.41466109e-04, 9.86900763e-04,
       -1.86902611e-03, 5.86480927e-03, 5.85165713e-03, 3.63676879e-03,
       8.60152941e-04, 2.67947395e-03, 3.90111259e-03, 2.38994206e-03,
       2.02024495e-03, 1.42986712e-03, 4.59622242e-04, 1.03990932e-03,
       -1.76990463e-04, -1.49218121e-03, -5.93699864e-04,
       -4.36453149e-03, -5.01052430e-03, -5.47313876e-03,
       -3.13353655e-03, 2.66524381e-03, 1.84666680e-03, -2.35728291e-03,
       -8.79883126e-04, -3.26751103e-03, -2.86157918e-03,
       -3.96368094e-03, -3.36281885e-03, -1.46318213e-04, 6.53962838e-03,
       6.62782323e-03, 1.58038340e-03, 1.05084921e-03, 9.42146697e-04,
       1.94136752e-03, -9.48028872e-04, 3.95175884e-05, 3.87563487e-04,
       1.22540165e-02, 9.90602933e-03, 3.01489909e-03, 4.48173465e-04,
       -9.64679755e-04, -5.03592845e-03, -4.49708244e-03,
       -3.67620378e-04, 2.34567095e-03, 3.93028790e-03, 2.19764234e-03,
       -3.57661489e-03, -3.08362697e-03, -4.14445158e-03,
       -3.63758579e-03, -3.11419694e-03, -4.53494536e-03,
       -2.74425722e-04, 6.88363193e-03, 5.80783095e-03, -1.66535159e-04,
       -1.94932101e-04, -5.86374989e-03, -5.70890168e-03,
       -6.50251610e-03, -6.33153040e-03, 1.28890993e-03, 1.12433927e-02,
       5.80318877e-03, -2.18053209e-03, -1.47608761e-03, -1.14723647e-04,
       -5.29081514e-03, -3.52895400e-03, -3.60719184e-03, 1.49696867e-03,
       1.00104958e-02, 3.14072217e-03, -1.59176299e-03, -2.98123551e-03,
       -6.13572169e-03, -6.63596345e-03, -5.47045795e-03,
       -2.88972072e-03, 4.99232765e-03, 8.07969179e-03, 5.10784471e-03,
       1.21601310e-03, 1.27531050e-04, -5.99003863e-04, -5.31264488e-03,
       -6.64190622e-03, -6.41953479e-03, 3.79588385e-03, 4.52294992e-03,
       -2.98128813e-04, -2.92800111e-03, -4.44694050e-03,
       -3.99322808e-03, -7.81159382e-03, -7.94428121e-03,
       -7.66528957e-03, 1.91416533e-03, 1.13751665e-02, 3.68717965e-03,
       4.73525033e-05, -1.48916722e-03, -1.64515583e-03, -7.41175516e-03,
       -4.02628118e-03, 2.05445429e-03, 9.82612371e-03, 8.18784628e-03,
       -7.06112070e-04, -2.59348890e-03, -5.51508693e-03,
       -2.55731842e-03, -7.68915610e-03, -4.61255852e-03, 1.65876246e-03,
       7.78286671e-03, 3.89659707e-03, -1.34573935e-03, -2.17418792e-03,
       -4.28021932e-03, -4.24061157e-03, -7.59379333e-03,
       -5.52537991e-03, -3.32578551e-03, 4.82879020e-03, 1.65973208e-03,
       -4.53967601e-03, -3.12037370e-03, -3.68890562e-03, 8.94193596e-04,
       -5.23807341e-03, -3.14550218e-03, 1.27134472e-03, 8.21243785e-03,
       7.10009877e-03, -1.17571745e-03, -9.39472753e-04, -5.12293354e-03,
       -3.33854090e-03, -7.89360981e-03, -3.42622609e-03, 1.24848844e-03,
       9.36508924e-03, -1.18616899e-03, -6.04439946e-03, -4.50442918e-03,
       -4.31295112e-03, 2.07297993e-03, -6.08926592e-03, -2.00977083e-03,
       2.26360280e-03, 9.31968819e-03, -2.39416817e-03, -7.44861783e-03,
       -5.94472652e-03, -2.66583799e-03, -3.00557469e-03,
       -5.23725059e-03, -4.44594631e-03, 2.45397212e-03, 5.55746164e-03,
       -4.15496062e-03, -3.10655287e-03, -1.47937576e-03,
       -5.22413000e-04, -9.56811593e-04, -6.90670824e-03,
       -4.90237819e-03, 3.03070643e-03, 2.20054365e-03, -6.23841537e-03,
       -9.25582927e-03, -8.94752610e-03, -6.11507054e-03,
       -2.30626785e-03, -4.19225357e-03, -2.42245267e-03, 4.56419028e-03,
       5.42466016e-03, -6.36132481e-03, -5.54731721e-03, 3.96958349e-04,
       5.06951427e-03, -4.55101428e-04, -3.89936985e-03, -1.46710302e-03,
       5.70494728e-03, 2.68658088e-03, -4.58032871e-03, -1.37026072e-03,
       -1.66938477e-03, -2.24221498e-03, -4.23960807e-03,
       -9.82757844e-03, -6.09054789e-03, 3.95565340e-03, 2.51030456e-03,
       -4.23441699e-04, 4.90138249e-04, 2.29612255e-04, -2.18658173e-03,
       -1.11810202e-02, -9.03565902e-03, -1.74452900e-03, 5.45057561e-03,
       2.98039266e-03, -5.56829059e-03, -3.69036384e-03, 6.24975364e-04,
       3.88635509e-03, -2.38832855e-03, -5.65427635e-03, -2.26629534e-04,
       7.32239801e-03, 2.20436533e-03, -3.03464313e-03, -2.73649261e-04,
       3.90916690e-03, 7.75037520e-03, -3.17738135e-03, -1.53644569e-03,
       4.83302772e-03, 9.53271706e-03, 6.15861965e-04, 4.43657278e-04,
       -1.17541186e-03, -1.68666185e-04, -2.61922018e-03,
       -7.49815535e-03, -2.14884966e-03, 4.16879263e-03, 8.60313978e-03,
       2.46324204e-03, -2.61400966e-03, -1.41511380e-03, -1.21092226e-03,
       -7.12905172e-03, -6.89148437e-03, -2.76665203e-03,
       -1.97814981e-04, -1.30791962e-03, -3.24417162e-03,
       -9.28486872e-04, 6.91684370e-04, 2.33261101e-03, 4.24004812e-03,
       -2.22361670e-03, 5.32384915e-03, 1.01802656e-02, 9.79433209e-03,
       2.81931600e-03, -4.90511395e-03, 8.53702542e-04, 1.91640086e-03,
       -1.84511137e-03, -3.40669043e-03, 2.13638390e-03, 6.18876005e-03,
       5.31813456e-03, -2.64479779e-03, 4.58109978e-04, 2.20170897e-03,
       2.20395601e-03, -6.33719563e-03, -5.20063704e-03, 1.85665645e-04,
       2.61838688e-03, 6.39998761e-05, 7.61702249e-04, 2.27474651e-04,
       3.35332326e-04, -1.82750009e-05, -4.56089852e-03, -8.97943508e-03,
       -4.77105938e-03, 1.79758028e-03, 1.14121707e-03, 6.55050972e-04,
       -5.10048529e-04, 3.97904962e-03, 6.75326493e-03, -1.43333466e-03,
       3.68268625e-03, 9.78777278e-03, 1.01171117e-02, 6.76072249e-03,
       2.25682370e-03, 2.10253499e-03, 4.74369293e-03, 5.74096618e-03,
       -2.76996661e-03, -3.37891094e-03, 2.87150126e-03, 6.61503850e-03,
       5.01280883e-03, 2.26063374e-03, -3.29360832e-04, 1.48093165e-03,
       1.90655221e-04, -4.18101717e-03, -5.39208762e-03, -1.68435776e-03,
       3.46428668e-03, 8.48365307e-04, -5.87244402e-04, -7.03044236e-04,
       -8.15353196e-05, 1.28513237e-03, -2.73826579e-03, 3.51112871e-03,
       5.42584166e-04, 4.12787776e-03, 1.21094682e-03, 4.34547866e-04,
       2.29981472e-03, 5.37206512e-03, 1.56934257e-03, -1.78937416e-03,
       1.46752282e-03, 8.78745783e-03, 8.51851236e-03, 4.71686851e-03,
       2.98137916e-03, 8.55574093e-04, 1.89204817e-03, 2.31075194e-03,
       -2.40377220e-03, 6.46331161e-03, 5.63460588e-03, 6.73876330e-03,
       1.80800247e-03, 2.47655693e-03, 1.18440494e-03, -5.34314779e-04,
       -6.83239079e-04, -3.60321975e-03, 6.39407802e-03, 2.70693307e-03,
       2.05317326e-03, -1.63939432e-04, 9.40603320e-04, 1.02939887e-03,
       5.08457422e-04, -2.72028986e-03, -3.81745514e-03, 3.78653710e-03,
       -2.21630093e-03, -1.49549148e-03, -2.40741996e-03, 2.97403953e-04,
       1.11099950e-03, -3.45412438e-04, -3.36160942e-04, -1.99372717e-03,
       1.09003745e-02, 4.22883406e-03, 5.55121340e-03, 3.23637016e-03,
       1.61815842e-03, -3.74919589e-04, -7.40448188e-04, -1.51745509e-03,
       -3.40554095e-03, 8.86949711e-03, -9.73765491e-05, 3.40112089e-03,
       3.06652044e-03, 1.51122001e-03, -2.58538581e-04, 3.00907693e-03,
       3.90194682e-03, 6.68926863e-03, 2.48105032e-03, 5.30756917e-03,
       1.68426035e-04, -2.13487307e-03, -2.86255497e-03, -2.20292271e-03,
       -5.16819418e-04, 4.88071819e-04, 4.59947344e-03, 3.60437064e-03,
       5.64249698e-03, 9.94674978e-04, 3.06669564e-04, -2.64180987e-03,
       4.21964418e-04, 3.60859069e-03, 4.50192997e-03, 3.93212214e-03,
       4.61120711e-04, 3.29041434e-03, -1.43374177e-03, -2.65486259e-03,
       -2.20432854e-03, -8.45206901e-04, 2.76768493e-04, 7.35801645e-04,
       3.65055795e-03, -6.12143544e-04, 1.65791286e-03, -7.38903356e-04,
       4.37928655e-04, -2.27602618e-03, -3.74433678e-03, -5.28083765e-04,
       -9.64489518e-05, 2.90009705e-03, 7.49377534e-03, 2.73621664e-03,
       1.37343048e-03, 1.27201225e-03, -9.90577042e-04, -5.46784280e-03,
       -1.81318249e-03, 1.37709966e-03, 3.53498687e-03, 3.30384728e-03,
       1.63721340e-03, -6.08847186e-04, -1.99052552e-03, -3.21691460e-03,
       -1.95257692e-03, -1.44027988e-03, 7.42148404e-05, 4.00574924e-03,
       3.80828069e-03, -3.26361856e-04, 1.61836029e-03, 1.54104014e-03,
       -5.83022193e-04, -3.11255874e-03, -1.97247369e-03, 4.30214452e-04,
       3.55879031e-03, 1.28640572e-03, -3.54903837e-04, -1.66720740e-04,
       -1.24363182e-03, -1.66577380e-03, -3.64778494e-03,
       -2.79294560e-03, 2.87331850e-03, 4.82378621e-03, 5.62009495e-03,
       -4.09684571e-06, -3.12653510e-03, -3.26236594e-03,
       -4.22613230e-03, -2.15284107e-03, -3.77960969e-03, 2.04936694e-03,
       2.65476829e-03, 5.06152259e-03, 4.76494635e-04, -3.33885918e-03,
       -2.80205649e-03, -3.73125775e-03, -1.84395351e-03,
       -3.16580152e-03, 2.63411482e-03, 4.23636148e-03, 3.93373333e-03,
       1.40325318e-03, -1.28014572e-03, -3.48683447e-03, -4.05486207e-03,
       -3.12435674e-03, -4.08309698e-03, 1.05100276e-03, 1.21134380e-03,
       2.33900244e-03, 1.22013129e-03, -1.96344638e-03, -4.39341366e-03,
       -4.63743554e-03, -1.88251084e-03, -3.53519944e-03,
       -5.50073222e-04, 1.70448795e-03, 6.23700907e-03, 1.64034078e-03,
       -1.56904571e-03, -9.48538014e-04, -2.06560479e-03,
       -1.89262384e-03, -1.95078575e-03, -3.24029080e-03, 3.41153285e-03,
       4.73393360e-03, 1.87171006e-03, -1.06711942e-03, -9.51225928e-04,
       -8.56276194e-04, -3.34920711e-03, -3.38193285e-03, 3.09475472e-05,
       2.50903540e-03, 6.02681842e-03, 4.36929928e-04, -2.15973472e-03,
       -3.68645065e-03, -3.70086869e-03, -4.15305747e-03,
       -2.61042500e-03, 1.43300655e-04, 3.13582784e-03, 1.34224573e-03,
       -1.79481960e-03, -3.36669246e-03, -4.13094182e-03,
       -2.38274969e-03, -1.44094729e-03, 3.66338994e-04, 4.68709595e-06,
       3.22371488e-03, 1.82720926e-03, 2.64666945e-04, -1.27086847e-03,
       -3.92742362e-03, -4.18468565e-03, -1.43092277e-03, 1.66098960e-03,
       2.56719138e-03, 6.90633524e-03, 3.75794480e-03, 1.88320829e-03,
       -2.82318029e-03, -6.49438286e-03, -7.60896225e-03,
       -3.61539051e-03, -8.44788388e-04, 2.27440754e-03, 3.46683315e-03,
       -1.50757667e-03, -5.08424942e-04, -1.76610076e-04,
       -4.10441775e-03, -2.84054177e-03, -4.23854636e-03, 7.51907413e-04,
       2.37926538e-03, 6.23582583e-03, 1.68392004e-03, 2.27008713e-03,
       -1.85902300e-03, -7.51392636e-03, -6.73214812e-03,
       -7.57547794e-04, 1.02300954e-03, 2.16203672e-03, 8.03036522e-03,
       1.55033497e-03, 5.30703110e-05, -5.58847561e-03, -6.62750844e-03,
       -7.02469144e-03, 1.88645019e-04, 1.52842561e-03, 4.24564583e-03,
       4.68574325e-03, 6.81598263e-04, 9.77558811e-05, -1.74177985e-03,
       -3.15328641e-03, -4.85578738e-03, -1.81150704e-03,
       -6.37116726e-04, 9.51484602e-04, 7.31257070e-03, -2.00290684e-04,
       -9.54373856e-04, -4.38862899e-03, -6.00925786e-03,
       -4.67666844e-03, 7.00897188e-04, -2.32077413e-03, -7.84150790e-04,
       4.14797245e-03, -6.28997199e-03, -1.23856496e-03, -2.18170742e-03,
       -2.70175841e-03, -7.49832543e-04, 3.99077457e-04, -3.57413664e-04,
       2.38461443e-03, 9.57397453e-04, -2.05452103e-04, 3.46906064e-03,
       7.29213818e-04, -3.70860263e-03, -2.71188910e-03, 1.01903244e-03,
       2.70684657e-04, 1.49187807e-04, 3.25270463e-03, 4.32713248e-04,
       6.35323580e-03, 3.01210978e-03, -2.00935360e-03, -1.28559489e-03,
       -7.88382778e-04, -3.55037884e-03, -1.31488359e-03, 1.21605699e-03,
       -3.98635911e-03, 1.54994661e-03, -2.21211766e-03, -4.28693509e-03,
       -1.72574387e-03, -2.92156357e-03, -2.93452540e-05, 2.59425287e-04,
       3.87199782e-03, -1.96244824e-03, 5.27425529e-03, 1.39311969e-03,
       -4.80202492e-03, -4.47246572e-03, -4.10806009e-04,
       -4.52902517e-04, -1.61600241e-03, 4.16756957e-04, 9.27207060e-04,
       7.09757954e-03, 1.04384823e-03, -9.27904854e-04, -1.41770858e-03,
       6.92810223e-04, -1.58842409e-03, -7.10285312e-05, 2.71427236e-03,
       -2.25463416e-04, 5.23975026e-03, -9.44266969e-04, -9.34616197e-04,
       1.64409692e-03, -1.15502707e-03, -1.65016972e-04, -1.36139832e-04,
       3.68931354e-03, -5.20520844e-04, 4.22959635e-03, 3.40573715e-05,
       -3.63984867e-03, -2.94320285e-03, 8.62058892e-04, 6.57216180e-04,
       1.70522986e-03, 3.18139745e-03, -1.48518127e-04, 4.05471679e-03,
       -1.48088322e-03, -3.36869736e-03, -9.71100118e-04, 3.07112746e-03,
       -1.07730343e-03, 8.38217093e-04, 2.37640389e-03, -1.24199747e-03,
       3.99254169e-03, -1.86334699e-04, -3.77250981e-04, 4.49125888e-03,
       2.50220206e-03, -1.73543999e-03, -7.41117110e-04, 6.50605187e-04,
       -3.03286966e-03, 5.05503675e-04, -1.40345903e-04, 4.78785165e-04,
       3.16805206e-03, 3.52996774e-03, -4.76105546e-04, 3.20191076e-03,
       1.66222022e-03, -2.63156160e-03, 2.27972842e-03, -1.59066659e-03,
       -3.10320826e-03, 1.86439580e-03, 3.19854124e-03, -1.30018266e-03,
       2.07674084e-03, -6.01863198e-04, -3.10376636e-03, 2.72352336e-04,
       -2.89253006e-03, -3.05202627e-03, 2.79392418e-03, -1.91846548e-03,
       -3.91509477e-03, -2.26720469e-03, 2.85255653e-03, 1.97745254e-03,
       1.22716767e-03, -2.37271233e-04, -1.41559297e-03, -1.18241886e-04,
       -3.80769069e-03, -2.84578907e-03, -6.90988381e-04,
       -2.82589835e-03, 2.37373446e-04, -7.76104207e-05, -8.95431556e-04,
       -2.86523835e-03, -2.06981483e-03, -1.26071891e-03,
       -3.90079850e-03, -1.37703749e-03, 2.84258486e-03, 4.02818155e-03,
       2.76791607e-03, -2.67861295e-03, -3.66020296e-03, 2.60782836e-05,
       -5.52356662e-03, -6.69980235e-03, -3.24461912e-03,
       -2.61854933e-04, 1.94043410e-03, 3.09401134e-04, -9.01980791e-04,
       -4.88161854e-03, -1.33925455e-03, -2.00759945e-03,
       -4.31893161e-04, 1.01416570e-03, -1.36745325e-03, 2.64875148e-03,
       3.05667316e-04, -2.65750205e-05, -9.79564968e-04, -1.35590520e-03,
       -1.04480830e-03, -2.62626726e-03, 8.93540739e-04, 4.09198314e-04,
       5.16786007e-03, -3.64827691e-04, -1.94006760e-04, -8.99406499e-04,
       1.09309862e-04, -2.78677861e-03, -2.28190166e-03, 4.16974450e-04,
       2.39514699e-03, 4.27217782e-03, 2.83334695e-04, -2.49663775e-04,
       -3.18175857e-03, -9.43228137e-04, 8.16696789e-04, -1.71732029e-03,
       4.53054818e-04, 2.92981626e-03, 3.62756383e-03, 6.62595558e-04,
       -9.45819425e-04, -3.75093915e-03, -1.24623286e-04,
       -1.82625517e-04, -1.77673146e-03, 1.02498382e-03, -2.53031758e-04,
       3.39555298e-03, 2.50995439e-03, 2.38914668e-04, -2.15973982e-04,
       5.78102714e-04, -1.39536289e-03, -4.84244479e-03, -5.01737045e-03,
       -3.86846229e-03, 5.51506691e-03, 2.57144123e-03, 1.03948172e-03,
       -1.34171243e-03, -1.60061487e-03, 5.55119128e-04, -1.49169145e-03,
       -3.92422662e-05, -1.79561684e-04, 3.10024079e-05, 2.35551386e-03,
       5.66582486e-04, -2.29945150e-03, 1.61132729e-03, 1.33679807e-03,
       -3.05617508e-03, -2.78994977e-03, -5.18908026e-03, 7.54385069e-03,
       3.91179277e-03, 1.90994132e-03, -2.01186282e-03, 1.28436624e-03,
       -3.46144498e-03, -7.30899023e-03, -8.80077388e-03,
       -1.61995029e-03, -9.85575607e-04, 2.35895044e-03, 2.04199256e-04,
       -2.73620337e-03, -3.22026410e-03, -4.46859095e-03,
       -6.53479109e-03, -1.22740120e-03, 5.32717304e-03, 8.85740947e-03,
       5.71586052e-03, 3.45831644e-03, -4.29494801e-04, -1.75677775e-03,
       4.17386414e-04, -4.24200064e-03, -7.25138094e-03, -2.20511574e-03,
       2.24633375e-03, 3.78534663e-03, 1.60588732e-03, -2.68391985e-03,
       -6.10226591e-04, -1.00781035e-03, -3.51510663e-03,
       -2.21031718e-04, 4.21452429e-03, 4.86217113e-03, 3.68829933e-03,
       4.02433006e-03, 3.41250532e-04, -3.85906576e-04, -3.49421031e-03,
       -4.98145493e-03, 8.32124962e-04, 1.52463547e-03, -1.15503289e-03,
       -8.11519392e-04, 3.33537906e-03, 2.97156686e-04, -1.58321403e-03,
       -2.33497750e-03, -3.38473637e-03, -2.20384682e-03,
       -2.12339684e-03, 1.23302150e-03, -1.16159426e-04, 4.84980177e-03,
       5.91049844e-04, -2.40908680e-03, -1.38159841e-03, -1.11768360e-03,
       1.88799074e-03, 9.93211521e-04, -1.35269118e-04, -4.55512636e-04,
       2.74213590e-03, 2.32762162e-04, -6.44011423e-04, 9.00518673e-04,
       1.02937687e-03, 5.54136524e-04, 1.80789539e-05, 5.21179382e-03,
       2.54669855e-03, 3.64468060e-03, 2.70874763e-04, -9.25809552e-04,
       1.17814192e-03, -1.89327300e-04, 1.47797939e-04, -8.77676794e-05,
       9.99584561e-04, 1.04324531e-03, 3.61946458e-03, -1.78347123e-04,
       3.06521251e-04, -1.19086624e-04, 3.03082314e-04, 9.88139655e-04,
       -1.68912869e-03, -3.37716774e-03, -3.69437342e-03, 8.43994028e-04,
       -1.23339018e-03, 5.80375898e-04, 1.27783103e-03, -6.55035838e-05,
       -1.02488149e-03, -1.97821227e-03, 3.34239448e-03, 4.83148871e-03,
       4.65353997e-03, 2.32898281e-03, -7.07462197e-04, -2.26914953e-03,
       -3.30548198e-03, -3.03762499e-03, -3.19699431e-03, 1.58286653e-03,
       1.95992738e-03, 4.74475278e-03, 2.25260807e-03, -2.35190918e-03,
       5.18094632e-04, -1.70313433e-04, 7.45684607e-04, 7.38348172e-04,
       3.87805805e-04, -2.57666386e-03, 2.82540894e-03, -1.48567371e-03,
       -7.49148661e-04, 1.18407828e-03, -4.11099521e-04, -3.60463833e-04,
       3.35235358e-03, 5.17676165e-03, -2.42537659e-04, 3.16289510e-03,
       -2.15415261e-03, -2.14237347e-03, -5.16638299e-03,
       -3.64795839e-03, -2.56495853e-03, -1.48734485e-03, 2.71782093e-03,
       6.82448328e-04, 4.82857041e-03, -9.15924029e-05, -2.52385531e-03,
       -3.04532051e-03, -4.34838422e-03, -7.53296714e-04,
       -5.59811415e-05, 6.55928161e-03, 9.79639706e-04, 4.06400673e-03,
       6.98118180e-04, -2.80980923e-04, -1.10018394e-04, -1.10469339e-03,
       -1.23134139e-03, 1.89425738e-03, 6.30205870e-03, -1.87946833e-04,
       1.88602868e-03, -4.04810446e-04, -8.84015579e-04, -1.25092862e-03,
       6.65620726e-04, -7.51085172e-04, -3.57846334e-03, 2.39911932e-03,
       -1.42041862e-03, 2.27775611e-03, 5.64241258e-04, -4.73001943e-04,
       -1.60412048e-03, -4.19688504e-03, -1.76857028e-03,
       -4.09602490e-06, 4.85960301e-03, 1.92953332e-03, 2.54798657e-03,
       3.24471213e-04, 5.28941629e-04, -4.23821533e-04, -3.38058895e-03,
       6.79345918e-04, -3.95310763e-03, 2.58681690e-03, 1.00868980e-04,
       3.68437869e-03, -4.92220919e-04, -2.73199839e-04, 1.07527559e-03,
       1.13613915e-03, 1.37966883e-03, -1.34037260e-03, 2.74511334e-03,
       -1.46051776e-03, 1.80175260e-03, 2.01295083e-03, 1.15598598e-03,
       1.25431747e-03, -1.53280783e-03, -1.59882102e-03, -2.75164726e-03,
       1.37035106e-03, -1.10038719e-03, 1.45621342e-03, 3.40696354e-03,
       1.38887251e-03, 2.41876522e-04, -2.94820266e-03, 6.93071517e-04,
       -1.61021226e-03, 2.87896651e-03, 1.21324250e-04, 2.71898485e-03,
       1.04901963e-03, 2.38771463e-04, -1.65525838e-04, -2.64996022e-04,
       5.24346391e-03, -1.29287201e-03, 8.44009570e-04, -8.55438935e-04,
       3.57472803e-03, 2.34320317e-03, 4.42098884e-04, -9.42158978e-04,
       -2.07956904e-03, -2.56090285e-03, -2.91113346e-03, 1.89027993e-03,
       2.25225711e-04, 1.37913361e-04, -4.04594903e-04, -7.61655276e-04,
       -3.42648709e-03, -4.65433579e-04, 1.53784978e-03, -5.28386387e-04,
       3.53888166e-03, -1.98454456e-03, -1.40811852e-03, -3.65605368e-03,
       -1.26337842e-03, 1.11868384e-03, 4.45875712e-03, 7.43575860e-03,
       -2.04690616e-03, -1.30301446e-03, -8.91477044e-04, 1.58023904e-03,
       -5.36013977e-04, -1.40279683e-03, 1.53641833e-03, 7.84035400e-03,
       9.98118054e-03, 4.71290015e-03, 3.35422833e-03, -3.65720189e-04,
       -1.12979300e-03, -4.08722693e-03, -5.37992091e-05,
       -5.13898302e-03, -2.19775131e-03, -1.07998191e-03,
       -4.45267605e-03, -6.71387475e-04, -1.36984815e-03,
       -1.73962582e-03, -4.72557265e-03, -3.83479777e-03,
       -2.62231799e-03, 2.06232187e-03, 4.21514414e-04, -2.14249943e-03,
       -1.73294032e-03, 2.05841236e-04, 1.87185113e-04, -2.27264501e-03,
       -3.63748427e-03, -2.29494181e-03, 3.30162980e-03, 6.63848594e-03,
       -5.06488050e-06, -8.60666769e-05, 6.40575658e-04, -3.33543681e-03,
       -8.17711186e-03, -4.09065513e-03, 7.80458970e-04, 6.15323102e-03,
       9.13821999e-03, 4.82102903e-03, -5.70764649e-04, 2.30469974e-03,
       -2.63870857e-03, -5.83489425e-03, -4.85241460e-03,
       -4.04448481e-03, 2.94570532e-03, 2.83099071e-04, -4.10853140e-03,
       -5.17364824e-03, -2.56939349e-03, -3.18652298e-03,
       -2.62665655e-03, -4.03470127e-03, 7.80034694e-04, 5.66645944e-03,
       2.20688153e-03, -2.82066921e-03, -4.28051408e-03, -1.54507544e-03,
       -2.37411284e-03, -9.39857680e-04, -1.67043228e-03,
       -3.42770480e-03, 4.78764251e-03, 6.48605684e-03, 2.16947729e-03,
       -5.79460943e-03, -2.60319491e-03, -6.47424208e-03,
       -6.03556633e-03, -5.73257962e-03, 1.23988779e-03, 6.90446282e-03,
       6.90347515e-03, 2.15260778e-03, -3.62663437e-03, -7.97119748e-04,
       -2.94254115e-03, -4.43573063e-03, -2.71774386e-03, 2.06741202e-03,
       6.58080680e-03, 1.18296466e-05, -1.90177746e-03, -3.31067387e-03,
       -3.02679115e-03, -3.47686512e-03, -2.67303502e-03,
       -1.90263474e-03, 6.29922957e-04, 6.06425805e-03, -1.21947797e-03,
       -1.52315258e-03, -3.83782038e-03, -7.15658255e-03,
       -6.63464796e-03, -4.07313881e-03, -3.05484515e-03,
       -1.61322136e-03, 6.07043598e-03, 3.32586397e-03, -1.70034182e-03,
       -1.17307855e-03, -5.26469434e-04, -3.33552342e-03,
       -3.31229600e-03, -4.19805245e-03, -4.30571381e-03, 5.62907942e-03,
       2.06095679e-03, -2.45636492e-03, -4.23948094e-03, -2.16792803e-03,
       -3.63203976e-03, -1.82064087e-03, -4.54191584e-03, 9.76909068e-04,
       4.26344946e-03, -1.56658469e-03, -7.37892289e-04, -1.86356739e-03,
       -5.12964372e-03, -6.02862006e-03, -5.08238981e-03,
       -1.64215988e-03, 2.81342375e-03, 3.15396022e-03, -5.64679503e-04,
       -3.35988565e-03, -6.57767430e-03, -7.99964275e-03,
       -7.21817650e-03, -4.82861279e-03, -1.18342193e-03,
       -1.78539514e-04, 7.10592745e-03, 4.90910932e-03, -2.34431485e-04,
       -8.84719077e-04, -2.51895143e-03, -4.55904752e-03,
       -9.70488938e-04, -1.83162323e-04, 1.63924880e-03, 5.14951721e-03,
       4.88774665e-03, -2.20412458e-03, -1.96724571e-03, -7.76912225e-03,
       -6.94953278e-03, -2.07582675e-03, 1.46097201e-03, 4.98993555e-03,
       4.44987835e-03, 1.26381905e-03, -1.75333070e-03, -7.59708462e-03,
       -7.34854769e-03, -5.55671332e-03, -1.15522882e-03, 2.52855732e-03,
       4.72883042e-03, 3.31221236e-04, -3.55132972e-04, -4.12450312e-03,
       -9.91094392e-03, -8.46359879e-03, -3.68745369e-03, 2.09075530e-04,
       3.78078595e-03, 2.46381713e-03, 4.21172148e-03, 4.29276470e-03,
       2.34598783e-03, -5.06005890e-04, -4.49844962e-03, -2.92086299e-03,
       -2.28551817e-05, 2.91993865e-03, -1.92898314e-03, -8.38599051e-04,
       1.15517213e-03, -7.40136951e-04, -7.13725341e-03, -6.99945958e-03,
       -3.65190697e-03, 4.31855791e-04, 3.31979967e-03, 5.29998215e-03,
       -1.03622566e-04, 5.92021679e-04, -2.46864022e-03, -5.48971444e-03,
       -7.30280625e-03, -4.57790820e-03, 6.66766777e-04, 6.78333594e-03,
       -4.00441859e-05, -5.96972276e-03, -5.61813498e-03,
       -4.38209204e-03, 8.40299763e-04, -6.32702745e-03, -3.10931751e-03,
       1.67815818e-03, 5.47721470e-03, 4.34280897e-04, -1.21355883e-03,
       3.53378081e-03, 3.90324538e-04, -1.78804609e-03, -4.62996727e-03,
       -1.36822171e-03, 4.77741612e-03, 7.20838923e-03, -3.69010121e-03,
       -7.13774329e-03, -4.70767356e-03, -3.43229854e-03, 1.43850851e-03,
       -1.60076667e-03, -1.29407260e-03, 3.79858282e-03, 2.49588862e-03,
       -4.38556261e-03, -6.62907586e-03, -5.15910378e-03,
       -3.58496304e-03, 7.75339024e-04, -5.17017534e-03, -2.11308012e-03,
       4.85912478e-03, 4.71330015e-03, -6.56771706e-03, -6.43481128e-03,
       -1.51772820e-03, 1.70389656e-03, -1.63901690e-03, -6.06628042e-03,
       -2.91374698e-03, 6.26298785e-03, 2.66731856e-03, -6.34270441e-03,
       -8.42471607e-03, -6.48579327e-03, -1.86164142e-03, 3.38194566e-03,
       -4.35353955e-03, -1.15145068e-03, 3.07351095e-03, 9.87743377e-04,
       -4.84659104e-03, -3.09911533e-03, -3.14850220e-03, 2.82799359e-03,
       2.15726579e-03, -5.05042868e-03, -7.11621542e-04, 6.37809420e-03,
       6.88957050e-04, -7.02282134e-03, -6.19984046e-03, -1.48652878e-03,
       2.48376443e-03, -4.37225681e-03, -6.49875309e-03, 1.02553901e-03,
       6.86260918e-03, -2.62513990e-04, -5.49574848e-03, -5.38333785e-03,
       -6.59467012e-04, 4.87825181e-03, -4.06457065e-03, -2.97242263e-03,
       4.16140677e-03, 5.06180525e-03, -2.31130770e-03, -4.92192572e-03,
       -2.63510551e-03, -3.60715576e-03, 1.11242617e-03, 4.39603988e-04,
       -3.44661786e-03, 7.15152069e-04, 6.92770863e-03, -1.50985119e-03,
       -3.47226090e-03, -5.23003470e-03, -5.24167856e-03, 6.68383873e-05,
       -4.53051529e-04, -9.30708076e-04, 1.54970505e-03, 2.28211167e-03,
       -2.36651045e-03, -3.79098067e-03, -2.40002084e-03,
       -3.28140712e-04, 7.77713023e-04, 9.97729134e-04, 2.70311628e-03,
       2.68669683e-03, 4.20254795e-03, -3.82013270e-03, -5.71279973e-03,
       -2.40272237e-03, -1.46788266e-03, -5.86739276e-03,
       -1.05797127e-03, 1.81013311e-03, 2.17265706e-03, 1.04402413e-03,
       -6.50109071e-03, -4.24574129e-03, -5.01504960e-03,
       -3.35785118e-03, -2.85919476e-03, 4.01856285e-03, 2.51482311e-03,
       1.11712050e-03, 9.01100168e-04, -4.38710861e-03, -7.01158261e-03,
       -3.69036035e-03, -3.70773068e-03, -5.98617690e-03, 7.12314271e-04,
       -1.44271544e-04, -5.67120383e-04, -1.12862128e-03,
       -8.82320479e-03, -3.95542802e-03, -3.81089165e-04, 1.08440744e-03,
       -4.69872588e-03, 1.42478547e-03, 4.96277306e-03, 3.83511255e-03,
       1.03018747e-03, -3.61014996e-03, -3.46916728e-03, -5.34349296e-04,
       -2.50213721e-04, -6.24748645e-03, -2.11337488e-03,
       -5.61308298e-05, 1.64517481e-03, 5.17024193e-04, -2.02501472e-03,
       -3.39706498e-03, -4.64110577e-04, -9.42518178e-04,
       -4.11101431e-03, 7.55660096e-03, 2.14715372e-03, 1.84066372e-03,
       2.44360883e-03, -4.70154267e-03, -6.58871373e-04, -4.50257387e-04,
       -1.55339902e-03, -4.09143139e-03, 4.37519606e-03, 1.88321166e-03,
       -1.17622875e-03, 4.31342458e-04, -1.48723391e-03, -1.24006742e-03,
       3.92924820e-04, -2.22077384e-03, -3.44304112e-03, 5.28370542e-03,
       7.53250066e-03, 2.10990501e-03, -2.71232857e-04, -1.06541463e-03,
       -1.25451232e-04, -4.43646022e-05, -1.12765690e-03,
       -5.53126493e-03, -2.94819241e-04, 1.24674675e-03, 2.55868654e-03,
       -6.40875660e-04, 2.55239545e-04, 3.42180079e-04, -1.38353184e-03,
       -2.64701736e-03, 1.88434368e-03, 5.34780603e-03, 9.80473217e-03,
       1.03892828e-03, -3.68860754e-04, -1.42948655e-03, 6.32932817e-04,
       -1.98766124e-03, -3.02810385e-03, -6.24017511e-03, 2.54381704e-03,
       3.27313086e-03, 4.84152464e-03, 4.06660227e-04, 5.72576304e-04,
       -8.01584174e-05, -1.37994229e-03, -4.91922779e-04,
       -6.21784665e-03, 4.67882399e-03, 1.09838124e-03, 4.18984191e-03,
       8.63243360e-04, -1.72825239e-04, -2.31312332e-03, -2.03608279e-03,
       -1.00073067e-03, -5.77632943e-03, 2.29729433e-03, -8.40186898e-04,
       3.16315517e-03, 2.07328191e-03, -4.58997732e-04, 1.08719070e-03,
       7.30093976e-04, -1.90824177e-03, -5.23067266e-03, 6.44292822e-03,
       4.66362387e-03, 5.93268406e-03, 3.74810566e-04, -3.27263959e-04,
       1.18364568e-03, 7.15671740e-06, 1.55689288e-03, -1.57352141e-03,
       5.04752435e-03, -7.53821514e-04, 3.65156308e-03, 2.09761434e-03,
       2.15126202e-03, 1.35344558e-03, 1.52977789e-03, 2.92114448e-03,
       3.89274373e-03, 4.03043814e-03, 3.69612826e-03, -1.01821951e-03,
       -2.49040988e-03, -1.25568465e-03, 3.96842719e-04, 5.16253640e-04,
       2.26074643e-03, 4.16741241e-03, 1.24613440e-03, 2.35639652e-03,
       5.09408943e-04, -1.41967938e-03, -2.28000479e-03, 1.57278520e-03,
       5.76139078e-04, 2.83218548e-03, 4.05503670e-03, 2.90031428e-03,
       3.26375826e-03, -1.09112356e-03, -3.55190434e-03, -1.96769717e-03,
       9.82902129e-04, 9.42501822e-04, 3.11658980e-04, 3.08832806e-03,
       -1.36628561e-03, 3.54216690e-03, -7.22747500e-05, -3.94918723e-03,
       -2.41424236e-03, -9.29173199e-04, 2.25187920e-04, 1.16018637e-03,
       3.88831110e-03, 1.16811274e-03, 2.60924478e-03, 1.46130018e-03,
       -1.81220251e-03, -2.87969899e-03, 8.62972229e-05, -5.42164606e-04,
       1.12141564e-03, 2.84054317e-03, -1.02586334e-03, 2.06994824e-03,
       -1.34215064e-04, -3.30613088e-03, -1.32115406e-03, 2.81757966e-04,
       -4.24545316e-04, 8.72456352e-04, 2.87361210e-03, 2.07369868e-03,
       4.70309844e-03, 2.75191735e-03, -3.21002072e-03, -3.24353855e-03,
       1.09519716e-03, -2.05514207e-03, 9.35759163e-04, 1.75983668e-03,
       9.48390167e-04, 3.14928591e-03, 1.43110764e-03, -1.84470031e-03,
       -1.21475803e-03, 8.38538224e-04, -2.91970762e-04, 1.33660703e-03,
       7.72193656e-04, 1.57179299e-03, 2.12649908e-03, -1.21031131e-03,
       -2.66978634e-03, -8.63939989e-04, 8.15795327e-04, -4.73055261e-04,
       -4.14188107e-04, -6.33482588e-04, -1.48231012e-03, 5.60387445e-04,
       -9.00799118e-04, -1.61527377e-03, -6.81760372e-04, 1.02889619e-03,
       -7.82818883e-04, 8.08584795e-04, 2.09805719e-03, -1.47087092e-04,
       -7.40284508e-04, -2.00121338e-03, -2.12429767e-03,
       -7.37579132e-04, 1.69237179e-03, 7.28459388e-04, -5.43770962e-04,
       -2.27354030e-04, -5.45188831e-03, -1.59543939e-03,
       -3.03368899e-04, -1.55569724e-04, 2.07513862e-04, -3.15905141e-04,
       -2.83266162e-03, -2.93534482e-04, 1.54101138e-03, 2.14887969e-03,
       2.77611049e-04, -5.78163774e-04, -2.04069656e-03, -1.06307503e-03,
       -7.65231554e-04, -1.33071607e-03, 9.66594496e-04, 3.05958884e-03,
       7.85928452e-04, -2.87621282e-03, -2.58655730e-03, -3.17873131e-03,
       -5.66615083e-04, 1.15200353e-03, -8.12227663e-04, -2.19886249e-04,
       1.70443804e-04, -1.58355944e-03, -4.66480968e-04, 5.20127185e-04,
       -1.18435208e-04, 1.12842722e-03, 2.01211008e-03, -3.14619741e-04,
       -4.86618897e-04, 4.58214059e-03, -1.76107662e-03, -2.06261734e-03,
       -1.89708262e-05, -2.38132197e-03, 7.50966603e-04, -2.29836814e-03,
       -4.15654154e-04, 1.55995029e-03, 2.58427416e-03, -2.56359996e-03,
       -2.20553786e-03, -1.74575171e-03, -3.53540038e-03,
       -1.27205066e-03, -2.44933157e-03, -6.13729819e-04, 9.46363958e-04,
       4.15413687e-03, 1.59077754e-04, 1.57037214e-03, -2.76845356e-04,
       -5.85413352e-03, -4.80418699e-03, 1.84816786e-03, 2.71128720e-05,
       -9.20936058e-04, 3.08479136e-03, -6.66410604e-04, -5.86283451e-04,
       -1.22368452e-03, -3.32068023e-03, 1.04024610e-03, -2.47209845e-03,
       1.33010355e-04, 1.77236903e-03, 2.58166832e-03, 2.34617080e-04,
       7.37535825e-04, -1.50927575e-03, -4.52819979e-03, -3.43528320e-03,
       -2.44502816e-03, -2.72489199e-03, -2.88450904e-03, 1.48632296e-03,
       -1.09470484e-03, 4.94419248e-04, -1.94146566e-03, -3.79175437e-03,
       -3.52746737e-03, 7.91187980e-04, -2.13963678e-03, -1.26197783e-03,
       1.52183557e-03, -6.22267276e-03, -2.72941310e-03, -1.76983152e-03,
       -1.50863954e-03, 5.64788468e-04, -4.15343558e-03, -2.60749133e-03,
       -7.36731570e-04, 5.30197809e-04, -3.97927652e-04, 2.77269934e-03,
       -3.76569835e-04, -2.72964174e-03, -4.66906186e-03,
       -6.49385969e-04, -8.87486269e-04, -1.60380383e-04, 1.23997481e-04,
       -1.05172605e-03, 1.68941508e-03, 1.05119322e-03, 2.16040236e-04,
       -6.50201924e-04, 2.19634920e-03, -1.15324743e-03, 1.18913199e-03,
       2.49412307e-03, -2.77170609e-03, 3.19016399e-04, -1.12538168e-03,
       -2.82860268e-03, 1.55670173e-03, 1.76621601e-03, 1.40915334e-04,
       1.77030941e-03, 4.26522316e-03, -2.35573854e-03, 1.37040683e-03,
       -7.00568024e-04, -4.58797440e-03, -3.43678461e-04,
       -8.95252742e-05, -9.39074554e-04, 1.15034869e-03, 1.25411886e-03,
       -1.29324384e-03, 2.96456646e-03, 1.95452812e-04, -1.01560832e-03,
       1.02627138e-03, -5.75195008e-04, -1.92362801e-04, 2.09919782e-03,
       2.28754850e-03, -3.00826272e-04, 1.13453832e-03, -2.06838339e-03,
       -3.53597524e-03, 7.31761858e-04, 6.29805611e-04, -3.12466174e-04,
       1.53809937e-03, 5.19218715e-03, -1.46211567e-03, 1.86448684e-03,
       -5.54258761e-04, -2.92947213e-03, -1.31359731e-03, 7.20884709e-04,
       6.04037428e-04, 3.37674073e-03, 6.11767871e-03, -2.68099597e-03,
       3.14579951e-03, 5.31092344e-04, -1.38579484e-03, -1.06847635e-03,
       -1.03087840e-03, 2.60969787e-03, 4.45316778e-03, 5.45168202e-03,
       -7.51381973e-04, 1.90469134e-03, -3.82674322e-03, -1.01655931e-03,
       -5.21139882e-04, -1.20460708e-03, 7.68743048e-04, 2.58351443e-03,
       6.86085736e-03, -6.49762712e-03, 1.82199571e-03, -1.85291097e-03,
       7.46635560e-05, 1.41468132e-03, 3.19315190e-03, -6.78045035e-05,
       5.11968601e-03, 3.16883437e-03, -3.35515267e-03, 1.92391581e-03,
       1.41249073e-03, -2.32920609e-03, 1.88358233e-03, 3.57470475e-03,
       -1.00109761e-03, 3.03618121e-03, 1.31593242e-05, -3.97537043e-03,
       7.54147826e-04, -2.94841966e-03, -3.40382895e-03, 1.32357515e-03,
       -2.08533509e-03, 1.07396354e-05, 2.88187223e-03, 4.67279367e-03,
       -4.62851999e-03, 1.78745715e-03, 8.73610086e-04, -1.58097828e-04,
       1.39731623e-04, -1.58210366e-03, -1.05224457e-03, 2.63725454e-03,
       9.78193944e-04, -2.82532792e-03, -3.74511583e-04, -1.41787696e-05,
       -1.86222279e-03, 2.63373804e-04, 2.80631531e-04, -3.58996377e-03,
       1.32814719e-04, 3.09735397e-03, 5.34068746e-03, 3.89077677e-03,
       -4.24811267e-04, -3.58003844e-03, -3.28471622e-04,
       -2.46067718e-03, -3.18459165e-03, -2.50756578e-03, 9.13463766e-04,
       9.64144128e-04, 2.75215995e-03, 1.81864644e-03, -1.26005046e-03,
       7.42578006e-04, -2.27059145e-03, -4.42794571e-03, -6.75676332e-04,
       2.58376286e-03, 2.79087992e-03, 2.79528648e-03, 6.63003069e-04,
       -4.73331660e-03, -2.60086637e-03, -1.35840557e-03,
       -1.36928493e-03, -3.78835248e-04, -9.10922594e-04,
       -2.06802902e-03, -2.78605637e-03, -6.78256969e-04,
       -3.79876117e-03, -1.28665194e-03, -2.03379942e-03,
       -5.39453409e-04, -1.17012323e-03, 1.02020730e-03, 1.28248532e-03,
       1.50719265e-04, 2.54008081e-03, 2.90354015e-04, 3.80118057e-04,
       2.03833479e-04, -5.97762817e-04, -1.26128586e-03, 2.36753403e-04,
       3.42151965e-03, 1.32898975e-03, 3.65447393e-03, -1.06415933e-03,
       -4.40479816e-05, -1.55008689e-03, -2.39835848e-04,
       -1.04135915e-03, -9.25628352e-04, 1.40464876e-03, -5.91507182e-04,
       1.84477307e-03, 9.29415168e-04, 2.03399817e-04, -3.19136027e-03,
       -1.87608169e-03, 2.89463118e-04, -5.99457242e-04, 4.25578607e-03,
       1.25781586e-03, 5.36687020e-03, 1.83004083e-03, -1.20719359e-03,
       1.99490553e-03, -1.98532129e-03, -1.47779984e-03, -2.90461211e-03,
       -7.23480596e-04, 1.73098978e-03, 2.96039600e-03, -7.32144108e-04,
       1.73533324e-03, 1.19090220e-03, -3.69188865e-03, -4.24029911e-03,
       -3.71283269e-03, 6.15585269e-03, 1.31450116e-03, 6.43377076e-04,
       -2.21958966e-03, 1.39677548e-03, -3.32584372e-03, -3.13741690e-03,
       -2.22348142e-03, -1.83643511e-04, 1.57047773e-03, 2.77882046e-03,
       4.74331528e-03, 2.31171772e-03, -1.34725310e-03, -9.23603133e-04,
       -3.75297503e-03, -1.05784170e-03, 1.02374738e-03, 7.96007365e-03,
       7.91585844e-05, 1.60833437e-03, 1.88943895e-03, 9.75225528e-04,
       -1.63521455e-03, -4.61220462e-03, -5.07843355e-03,
       -2.23006398e-04, 4.51983372e-03, 2.19577621e-03, -1.96903566e-04,
       -3.15071084e-03, 2.91541015e-04, -1.61603093e-03, -3.07562505e-03,
       -2.00846186e-03, 3.09977913e-03, 4.98556811e-03, 3.24602239e-03,
       4.53509064e-03, 4.26770945e-04, -1.38145417e-03, -4.49761562e-03,
       -5.28472476e-03, -2.13032519e-03, 1.40806846e-03, 3.54876788e-03,
       3.38229071e-03, 2.26840813e-04, -3.74468713e-04, -1.73855503e-03,
       -5.82966441e-03, -5.72793745e-03, -1.70748215e-03, 1.63814449e-03,
       8.27179756e-03, 4.64436691e-03, 5.94070693e-03, -3.09294905e-04,
       -3.99782369e-03, -1.16374320e-03, -8.06852651e-04, 9.02053842e-04,
       7.22674886e-04, 2.27556098e-03, 1.83652923e-03, 3.25293560e-03,
       -4.32202738e-04, -1.81396632e-03, 3.84808896e-04, -1.07768527e-03,
       4.22340345e-05, 1.62061199e-03, 6.68698968e-03, 1.45155878e-03,
       6.24402252e-04, -1.27919088e-03, -1.95045711e-03, -3.72628612e-03,
       -3.58152343e-03, -1.34589639e-03, -7.66199257e-04, 5.03730029e-03,
       2.43377988e-03, 6.57077972e-03, 3.53440235e-04, -1.87932223e-03,
       4.93614170e-05, -3.11121647e-03, 1.67848333e-03, 3.92843410e-03,
       7.95651972e-03, -1.51541069e-04, 9.92047251e-04, -5.38672961e-04,
       -2.37448461e-04, 1.30662962e-03, -7.40071526e-04, -1.88498909e-03,
       -1.42187171e-04, 2.52909260e-03, 2.29405868e-03, 1.56569504e-03,
       6.25038403e-04, -1.05854613e-03, -6.46972330e-04, -2.86562368e-03,
       -5.47932461e-03, -1.25921878e-03, 2.60038651e-03, 2.20557116e-03,
       4.67451802e-03, 3.18625965e-03, -1.21859054e-03, -2.42202623e-05,
       -3.21512972e-03, -1.28658448e-05, 3.74071696e-03, 5.49853826e-03,
       5.86603011e-04, 1.93779229e-03, -3.43521060e-05, -1.04735477e-06,
       6.47752095e-05, -3.19544622e-03, -4.22182353e-03, 1.41693989e-03,
       3.84450355e-03, 3.82260932e-03, 5.67402551e-03, 4.09408379e-03,
       1.77524192e-03, -3.41348420e-03, -4.33905236e-03, -2.83518643e-03,
       5.79815416e-04, 3.73226614e-03, 1.87044893e-03, 4.17017704e-03,
       9.15766344e-04, -1.10589759e-03, -3.76064703e-03, -6.50798995e-03,
       -2.53294408e-03, -2.40597082e-03, 3.27259675e-03, 7.48569670e-04,
       2.41882633e-03, 1.91442121e-03, 8.95538018e-04, -1.09104591e-03,
       -4.02999949e-03, -1.17056200e-03, 3.36790341e-03, 4.81304200e-03,
       3.72527726e-03, 5.06589003e-03, 3.21342237e-03, 1.68977038e-03,
       -1.04715372e-03, -3.89789883e-03, -1.36916095e-03, 3.55063094e-04,
       6.53582299e-03, 3.72547773e-03, 4.79412917e-03, 1.58338260e-03,
       2.82982273e-05, -1.78596994e-03, -5.42405201e-03, -2.79945787e-03,
       -1.22128089e-03, 3.02436063e-03, 2.69672531e-03, 2.57649180e-03,
       8.26600473e-04, 1.28649443e-03, 4.79514682e-04, -3.82305146e-03,
       -1.43133348e-03, -4.46068775e-03, -1.10012095e-03,
       -6.08107075e-05, 1.16178906e-03, -1.65757432e-03, 2.10886681e-03,
       -4.71714302e-05, -2.93976231e-03, -2.21505319e-03,
       -1.91271794e-03, 4.21124464e-03, 4.32645995e-03, 2.43820413e-03,
       -5.26048476e-04, 5.91770688e-04, 4.22756001e-03, -3.13393655e-04,
       3.18946270e-03, -2.17518699e-03, 1.50639331e-03, 2.39671278e-03,
       2.47691595e-03, -6.86891959e-04, 3.13324388e-03, -1.46114465e-03,
       -3.96732241e-03, -2.97103031e-03, -6.54138019e-03,
       -3.33216577e-03, -1.63407333e-03, -1.23534014e-03,
       -7.09072978e-04, 3.56025521e-05, -1.29683304e-03, 7.61137635e-04,
       3.83098749e-03, -1.52811583e-03, -3.44220130e-03, -3.09644407e-03,
       -9.99207376e-04, -1.82120106e-03, -1.03278784e-03, 2.61227670e-03,
       1.14633061e-03, 2.55680690e-03, -1.45230000e-03, 2.29013176e-03,
       2.14756248e-04, -4.00440418e-04, -1.18475745e-03, 1.80065574e-03,
       2.26176786e-03, 5.75373974e-03, 8.19240883e-03, 2.59974599e-03,
       4.03027190e-03, -2.76268972e-03, -1.28914136e-03, -3.02402303e-03,
       2.42276583e-04, -1.22419139e-03, 3.87946120e-03, 6.16662623e-03,
       -3.03585082e-03, -5.75183518e-03, -5.88342361e-03,
       -1.98572967e-03, -3.35965143e-03, -2.18408811e-03,
       -1.72239915e-03, 3.64683359e-03, 7.04284804e-03, 7.86022865e-04,
       -7.93749059e-04, -2.42578541e-03, -4.83448012e-03,
       -5.08639403e-03, -1.94389408e-03, -6.12389471e-04, 5.61810797e-03,
       7.74882827e-03, 4.84230695e-04, -1.56518654e-03, -5.95758669e-03,
       -3.00202472e-03, -3.39854835e-03, -1.31449872e-03,
       -2.68282671e-03, 5.11429412e-03, 8.21201503e-03, 4.69778571e-03,
       3.35233659e-03, -1.28555077e-03, -4.10280409e-05, -1.09814550e-03,
       -1.73001958e-03, -4.27113054e-03, 1.51301082e-03, 3.94620607e-03,
       2.10642131e-04, -4.92403889e-03, -3.15207383e-03, -6.25092024e-03,
       -7.69061642e-03, -6.11527730e-03, -3.50625953e-03, 1.14593818e-03,
       4.80245333e-03, 1.80530292e-03, -4.84237773e-03, -2.08774451e-04,
       -4.21760418e-03, -5.41636907e-03, -6.81804121e-03,
       -3.78002995e-03, 2.61109602e-03, 6.90051774e-03, 3.63184302e-03,
       -1.56373682e-03, -2.58478045e-04, -6.54716394e-04,
       -1.40683446e-03, -3.63564561e-03, -3.22574913e-03, 3.80171090e-03,
       8.81619006e-03, 2.56450218e-03, -4.68249992e-03, 2.08707992e-03,
       9.60833044e-04, -2.99623958e-03, -5.15613705e-03, -2.35874928e-03,
       2.02238560e-03, 4.24957508e-03, 1.31794391e-03, -5.00700530e-03,
       -6.74511597e-04, -5.15121687e-03, -4.98736091e-03,
       -5.61063224e-03, -4.66404963e-05, 3.29311960e-03, 5.38379094e-03,
       -3.34280558e-05, -4.39549144e-03, 6.23154861e-04, -2.65063928e-03,
       -4.36452636e-03, -3.81527632e-03, 2.21106180e-04, -6.33010932e-04,
       4.79568681e-03, -7.17225077e-04, -6.56745723e-03, 2.79103848e-03,
       8.88915292e-06, -1.58215838e-03, -3.97631014e-03, -7.64962984e-04,
       1.06197805e-03, 1.27125124e-03, 2.62800767e-03, -3.49211018e-03,
       2.60311784e-03, 5.83335641e-04, -2.02202052e-03, -8.66535585e-04,
       -2.93963542e-03, 2.34217430e-03, 2.61043664e-03, -1.98758137e-03,
       -2.35134503e-03, 7.28999148e-04, -3.24826827e-03, -4.04289179e-03,
       -2.69168406e-03, -4.26851679e-03, 2.33945507e-03, 3.85164400e-03,
       -8.88217997e-04, -3.66736716e-03, -1.28536532e-03,
       -5.14000980e-03, -1.91499316e-03, -1.69483223e-03,
       -2.90255761e-03, 9.15777287e-04, 2.61341804e-03, 4.47385944e-03,
       -1.74775545e-03, 2.78529921e-03, -2.22747657e-03, -6.12578634e-03,
       -9.39079444e-04, -2.94484082e-03, -6.27390225e-04, 1.78725133e-03,
       2.98190792e-03, -1.65920553e-03, 1.01966504e-03, -3.62055330e-03,
       -3.78394290e-03, 1.19874094e-04, -4.95783112e-04, 3.02047050e-03,
       4.49995883e-03, -8.79159314e-04, -2.04638578e-03, -2.11947761e-03,
       -4.87838360e-03, -1.81445864e-03, -4.92089370e-04,
       -1.14459894e-03, 2.80662649e-03, 2.82011623e-03, -1.16264098e-03,
       -1.69568905e-03, -5.16638393e-03, -5.23458654e-03,
       -9.91388108e-04, -1.86946359e-04, -2.19906913e-03,
       -1.32252765e-03, 1.68829472e-04, 2.86796858e-04, 5.89660776e-04,
       1.33994070e-03, -8.13273480e-04, 6.88132481e-04, -6.32060517e-04,
       -2.05031270e-03, -3.07044480e-03, 2.49899458e-04, 7.95289641e-04,
       5.55893173e-04, -1.05925114e-03, -5.97109320e-04, 1.90209714e-03,
       1.36205839e-04, -5.62454690e-04, 2.33139936e-03, 3.67355370e-03,
       1.83926406e-03, -1.76717131e-03, -2.99720047e-03, -3.53111629e-03,
       5.45054849e-04, 1.10160315e-03, -4.58707847e-03, -1.91551459e-03,
       4.72897300e-05, -3.52229131e-03, -7.77188875e-03, -7.06879981e-03,
       -5.04475879e-03, 4.85843775e-04, 4.15432907e-04, 2.07025418e-03,
       2.12211744e-03, 4.71617421e-03, 1.50415127e-03, 5.23105497e-04,
       -4.16712021e-04, -9.54225892e-04, 5.17221307e-03, 3.61101772e-03,
       1.24417385e-03, 3.60380788e-03, 2.24471511e-03, -3.74498218e-03,
       -1.00451233e-02, -5.13662770e-03, -2.28964048e-03, 5.04796254e-03,
       5.71488915e-03, -2.65106326e-03, -3.18026356e-03, 9.33558331e-04,
       -3.15865036e-03, -5.84567105e-03, -5.81493275e-03,
       -3.71078285e-03, 3.67211364e-03, 3.83255375e-03, -1.02399779e-03,
       -5.22893947e-03, -5.60280215e-03, -5.73891774e-03,
       -5.45548880e-03, -5.44708176e-03, -3.58741730e-03, 3.13780759e-03,
       1.57732575e-03, 3.38703068e-03, 1.72449986e-03, -4.09865424e-05,
       -5.22379391e-03, -9.13922116e-03, -4.88893827e-03, 1.66914752e-03,
       8.24244320e-03, 8.41864571e-03, 1.42436416e-03, -2.03063549e-03,
       -3.56745860e-03, -7.42622279e-03, -8.65402818e-03,
       -5.39430417e-03, 5.11188107e-03, 8.18576477e-03, 7.95705058e-03,
       -3.77650349e-03, -6.54428871e-03, -6.42566057e-03,
       -3.99459153e-03, -2.24214839e-03, -4.94922884e-03,
       -2.05600751e-03, 2.44360394e-03, -1.20303244e-03, -4.71070874e-03,
       -1.90362288e-03, -2.40790355e-03, -8.74806647e-05,
       -2.74828542e-03, -7.19873048e-03, 8.01990827e-05, 3.32509493e-03,
       -1.21387804e-03, -2.06747162e-03, -4.08150209e-03,
       -3.33997281e-03, -4.75637754e-03, -2.06283503e-03,
       -1.58717507e-03, 6.90038782e-03, 4.34508733e-03, 1.58007257e-03,
       -3.29569378e-03, -1.90436479e-03, -1.24459236e-03, 9.96479765e-04,
       -3.08345561e-03, -3.07829469e-03, 5.09576872e-03, 5.20851463e-03,
       -2.58581480e-03, -3.85016645e-03, -4.00309800e-04,
       -2.12393934e-03, -8.67791940e-04, -3.16850841e-03,
       -4.25336091e-03, 2.99713179e-03, 4.85593453e-03, -3.36881820e-03,
       -3.23404139e-03, -4.21229750e-03, -4.69120778e-03,
       -3.99403041e-03, -5.41774230e-03, 5.26766642e-04, 1.33052887e-03,
       2.17552268e-04, -6.09037001e-03, -3.62013234e-03, 1.06529868e-03,
       2.62584770e-04, 6.04981498e-04, -2.26143794e-03, 4.90489241e-04,
       5.55280084e-03, 1.74716813e-03, -3.15037812e-03, -4.52530629e-04,
       1.42040895e-03, 1.15763012e-03, -1.66078075e-03, -5.89483697e-03,
       3.58174578e-03, 6.05847733e-03, 1.30862882e-03, -5.64499479e-03,
       -1.48889376e-03, -3.28743132e-03, -3.26786516e-03,
       -3.93756991e-03, 2.09400500e-03, 4.17884812e-03, 1.61047420e-03,
       -7.99825430e-05, -5.22659626e-03, -4.56748763e-03,
       -4.25971532e-03, -6.01089653e-03, -7.57658295e-03,
       -2.63640075e-03, -2.61123176e-03, -9.37397592e-04,
       -2.42855866e-03, -7.39580626e-03, 1.68874767e-03, 1.10253831e-03,
       1.70192553e-03, -6.98440243e-04, 2.39387597e-03, 6.76291995e-03,
       5.33539476e-03, 1.26589660e-03, -3.84533196e-03, -1.30883849e-03,
       -3.67578631e-03, -6.28368277e-03, -7.74139818e-03,
       -3.27189057e-03, -1.15479238e-03, 1.90293975e-03, -2.02753054e-05,
       -2.76266481e-03, -3.10196890e-03, -1.34375016e-03,
       -3.29623325e-03, -4.92550619e-03, 4.91271261e-03, 4.23089077e-04,
       1.35499297e-03, 2.25397787e-04, -3.23094567e-03, -1.96890347e-03,
       -2.44476344e-03, -2.16752500e-03, -4.70684608e-03, 3.24522122e-03,
       2.22895271e-03, -1.75981352e-03, -1.36908737e-03, -3.11469636e-03,
       -3.71859089e-04, -9.31562914e-04, -4.56299912e-03,
       -4.57364693e-03, 2.91191018e-03, 5.07109705e-03, 4.30247094e-03,
       1.91331923e-03, 6.73205242e-04, -1.84663071e-03, -1.78211625e-03,
       -5.43921767e-03, -4.92759142e-03, 2.61891750e-03, 4.31759004e-03,
       1.93542754e-03, -8.20433997e-05, -1.57372816e-03, -6.35232136e-04,
       -1.65340828e-03, -1.76426559e-03, -1.78529415e-03, 3.40998545e-03,
       5.51651698e-03, -1.23686076e-03, -1.37834530e-03, -2.08000373e-03,
       2.47448654e-04, -1.40167132e-03, -4.43885918e-04, -4.17236798e-03,
       -6.94616931e-04, 2.47979793e-03, 4.71054250e-03, -1.43268044e-04,
       -3.38808713e-05, -2.22295849e-03, -2.86733429e-03,
       -4.01639333e-03, -3.62652703e-03, 4.78831725e-03, 8.69675726e-03,
       -4.27582912e-04, -1.69807801e-03, -1.95059599e-03,
       -9.23817104e-04, -1.55541347e-03, -6.08170114e-04,
       -3.10039800e-03, 4.10805549e-03, -6.46005865e-05, 4.06647101e-03,
       -8.88115552e-04, -6.13026146e-04, 1.20272872e-03, -1.40015676e-04,
       -1.97921833e-03, -1.09801372e-03, 1.18371611e-03, 3.86544666e-03,
       3.89217073e-03, -3.57661600e-04, 9.95489390e-05, 2.58916686e-03,
       1.13457011e-03, 1.58767030e-03, -9.22583742e-04, 2.23711506e-03,
       -3.16297263e-03, 1.98248099e-03, -1.01681675e-04, 3.27420305e-03,
       -1.11288078e-04, -2.23354902e-04, 3.82865284e-04, 2.02161915e-04,
       3.37458099e-03, 1.03229459e-03, 4.54308419e-03, -1.54917908e-03,
       1.30188011e-04, 6.82060956e-04, -3.06001108e-04, 1.72667368e-03,
       -1.87325641e-03, 2.99666356e-03, -2.19212333e-03, 3.22382292e-03,
       -1.56889076e-03, 2.05618842e-03, 3.23423278e-03, 1.39451225e-03,
       2.43685092e-03, 3.34368390e-03, 2.23873532e-03, 1.67711941e-03,
       -1.34619098e-04, -2.55049416e-03, 6.90547400e-04, 3.02041741e-03,
       1.03606470e-03, 2.78278196e-04, 9.23382875e-04, 5.98199433e-04,
       2.13922677e-03, 2.04262650e-03, -1.70464034e-03, 4.06898238e-04,
       3.85322375e-03, 1.91568444e-03, 2.28738785e-03, 2.45039375e-03,
       4.42003831e-03, 2.96923216e-03, 2.25986075e-03, -8.24623930e-05,
       2.33565434e-03, 1.10791775e-03, 1.27349980e-04, 1.06257002e-03,
       -3.33326345e-04, 1.42946783e-05, 2.12565018e-03, 4.03857930e-03,
       1.43300960e-04, -8.85829213e-05, 1.87747041e-03, -9.54751391e-04,
       -3.78846395e-04, 2.04065582e-03, 3.00685782e-03, 3.60132172e-03,
       1.97872659e-03, -8.68915173e-04, -8.79393425e-04, 4.89325263e-04,
       -3.26555129e-03, -6.98727381e-04, 2.05755373e-03, 2.92871334e-03,
       1.47483102e-03, 2.91058648e-04, 1.98398368e-03, 1.35029186e-04,
       -1.78573813e-04, 4.60900075e-04, 2.73629150e-04, 1.98526424e-03,
       3.24597093e-03, 2.23996560e-03, 1.66990014e-03, -8.37400265e-04,
       -1.30082679e-03, -1.71171455e-03, -3.83738370e-04,
       -1.26845611e-03, 3.99496034e-03, 2.06994428e-03, 1.70154858e-03,
       2.17478978e-03, 1.41489983e-03, -1.97802600e-03, 9.92729329e-04,
       -1.26225327e-03, 1.51617592e-03, 3.81026417e-03, 1.25704543e-03,
       -1.75558531e-03, -1.23476097e-03, -1.56239700e-03, 1.09741719e-04,
       7.31027452e-04, 5.34518040e-04, 1.81246048e-03, 1.39314157e-03,
       -2.36726576e-03, 5.82347042e-04, -3.23666027e-04, -3.15373368e-03,
       9.09076916e-05, -1.69405225e-03, -1.45960436e-03, -5.95266232e-04,
       4.87841712e-03, 4.36164672e-03, 1.50726724e-03, 4.23118845e-03,
       9.59978672e-04, -2.03441037e-03, -4.25810227e-03, -2.35823169e-03,
       -2.89281621e-03, 2.70447996e-03, 3.92835587e-03, 2.04518973e-03,
       3.88472946e-03, -1.80646509e-03, -2.51336815e-03, -1.05688127e-03,
       -1.98873298e-04, 2.08066148e-03, 1.38479192e-03, -3.50295013e-04,
       -4.13986796e-04, 2.20289992e-04, -1.23167306e-03, -3.77584685e-04,
       -1.07220723e-04, 3.71013848e-05, 8.74434132e-04, 3.99418408e-03,
       1.26580393e-03, 1.64192298e-03, -1.61245593e-03, -2.77705397e-03,
       -2.86994502e-04, -1.83773227e-03, -2.00576871e-03,
       -9.91251669e-04, 2.60228431e-03, 3.65528977e-03, 1.57031653e-04,
       1.36886712e-03, -1.99487945e-03, -1.46753318e-03, -2.03825044e-03,
       -1.29805485e-04, -1.16125587e-03, 4.06086538e-03, 1.96371390e-03,
       3.73212562e-04, -1.36615138e-03, -1.52952201e-03, -1.28284108e-03,
       2.04078807e-03, -5.31244325e-04, -2.08321610e-03, 3.82591767e-04,
       1.64948439e-03, 1.33578631e-03, -1.35775621e-03, -3.04594426e-03,
       2.48111971e-03, -4.85041644e-04, -1.57128333e-03, -5.64516849e-05,
       1.03146001e-03, 1.79292494e-03, -1.78784132e-03, -2.56642071e-03,
       -2.98312306e-03, -1.33948459e-03, -3.11195545e-05,
       -1.04246615e-03, -6.85137129e-05, 1.40124396e-03, 2.61828373e-03,
       2.57043913e-03, -6.77681819e-05, -9.06481000e-05, 3.25962406e-04,
       -5.14063751e-04, -2.57160095e-03, -7.53107830e-04,
       -7.54869194e-04, -9.11222596e-04, -1.28972216e-03,
       -1.12648006e-03, -5.11825783e-04, -2.20564823e-03,
       -2.22758041e-03, -2.27427366e-03, -1.01142614e-04, 1.66937488e-03,
       2.50241283e-04, -2.43333285e-04, -2.41741934e-03, -1.85145659e-03,
       -4.49068053e-03, 1.48021406e-03, -3.74516181e-04, 9.34972893e-04,
       1.66879094e-03, 4.02871752e-04, 2.88192485e-03, 1.35736744e-04,
       8.60024244e-04, -1.62889489e-06, -6.53285766e-04, -1.73903327e-03,
       -1.10114843e-03, 2.15233420e-03, -8.50219920e-04, -1.37621514e-03,
       -1.13269920e-03, -1.65590341e-03, -2.86681950e-03, 4.87654848e-04,
       -2.11699214e-03, -2.74678227e-03, 2.72530038e-03, -1.46785495e-03,
       -1.58068287e-04, 4.36394039e-05, 3.35844270e-05, 4.57428803e-04,
       8.61969485e-04, -6.61912782e-04, 2.01108589e-04, 8.92186072e-04,
       2.17092180e-04, 2.51711626e-03, -3.46193643e-04, -6.49910595e-04,
       1.16507325e-03, 4.35586298e-05, -3.87867651e-04, 2.42653856e-04,
       3.15165489e-05, 2.34866966e-04, 1.13356436e-04, -1.66402664e-03,
       -7.68327096e-04, 2.06196122e-03, 2.94460868e-03, -2.43009825e-04,
       -1.81325665e-03, 8.20927380e-04, -2.74266116e-03, -5.19373454e-04,
       3.38771817e-04, 1.08081222e-04, 3.97289125e-03, 1.68721646e-03,
       4.28437314e-04, -4.93583095e-04, 8.97263526e-04, -2.43248232e-03,
       -1.17133232e-03, -2.67094839e-03, -1.76780240e-03, 2.62443023e-03,
       1.19122525e-03, 1.82757876e-03, 1.87588844e-03, 2.57949485e-03,
       5.04518452e-04, -8.75929662e-04, -1.95723656e-03, 1.38817804e-05,
       2.06722273e-03, -1.12500659e-03, -2.50091514e-04, -5.79996675e-04,
       2.92162667e-03, -3.11953924e-03, 1.14618044e-03, -1.42170885e-03,
       -1.91015904e-04, 2.57103308e-03, 9.40567930e-04, 5.81641565e-04,
       1.00472162e-03, 3.04103154e-03, -2.26524449e-03, -3.46400938e-03,
       -4.97633545e-03, -3.28322267e-03, 1.48703239e-03, 1.62008655e-04,
       -1.00908615e-03, 1.08818256e-03, 1.89653912e-03, -1.31744554e-03,
       -7.83302938e-04, -3.52599262e-03, -3.36945639e-03, 2.23242957e-03,
       -2.63858866e-03, -2.55008973e-03, 9.86326719e-04, 2.74529867e-03,
       -7.83002935e-04, 1.77289068e-03, 8.16804095e-05, 6.41890947e-05,
       1.94970926e-03, -1.09225314e-03, -1.70293986e-03, 9.71738482e-04,
       -9.69010405e-04, -1.51719476e-04, -6.17268030e-04,
       -3.41952604e-04, 1.07651227e-03, 3.15545383e-03, -3.92008893e-04,
       -3.81512940e-03, 8.04311479e-04, 2.76093977e-03, 1.58610987e-03,
       -2.14561966e-04, -2.64422596e-03, -3.05012870e-03, 1.43070694e-03,
       2.28428235e-03, -3.58996121e-03, -2.06855661e-03, -3.41531518e-03,
       -2.86262773e-04, -8.91898409e-04, -3.16494820e-03,
       -4.84612217e-04, 3.86746693e-03, 5.50284203e-05, -3.21241096e-03,
       -8.91233911e-04, 1.11451570e-03, 2.35683541e-03, 2.51152227e-03,
       7.90762715e-04, -1.82337314e-03, 8.01383692e-04, 2.29570526e-03,
       -1.62408061e-04, -4.58008522e-04, -1.90167781e-03,
       -1.99191039e-03, -3.28728510e-03, -2.01974134e-03,
       -3.70959821e-03, 1.11885741e-03, 5.04623260e-03, -4.87449579e-04,
       -2.03214958e-03, -9.31350689e-04, -1.42402342e-03,
       -9.14216289e-05, -3.00240447e-03, -3.85010528e-04, 5.09283226e-03,
       4.92128264e-03, 2.17222190e-03, 4.81650604e-05, -2.41760653e-03,
       -1.83848501e-03, -5.27534587e-03, -4.00807895e-03,
       -1.11330196e-03, 3.87985446e-03, 2.98348512e-03, 1.79919787e-03,
       -7.54706212e-04, -1.62271142e-03, 2.15758313e-03, -1.31812959e-03,
       1.10480853e-03, -3.21012049e-04, 6.72122871e-04, 1.82870135e-04,
       9.45786713e-04, -9.71061818e-04, -1.12221541e-03, 3.29228374e-03,
       2.32764240e-03, 3.66192055e-03, 4.93618078e-04, 3.34334647e-04,
       5.16142370e-03, 1.55541906e-03, -1.53292366e-03, -3.09440680e-03,
       2.07533105e-03, -2.98421923e-03, -1.04411598e-03, -5.01569419e-04,
       3.85780167e-03, 2.84398952e-03, -8.32084275e-04, -2.37817690e-03,
       -2.02095066e-03, 3.65713960e-04, -4.27420338e-04, -7.56949885e-04,
       -2.36182753e-03, 1.11445575e-03, -1.75354292e-03, -3.70984548e-03,
       -2.73049902e-03, -1.69615867e-03, 3.60645383e-04, 1.91452692e-03,
       2.07936647e-03, 1.87027326e-03, -7.77245223e-05, -7.97143090e-04,
       -3.70962359e-03, -6.15144148e-04, 4.14497445e-05, 8.61793570e-03,
       2.25305720e-03, 2.16360413e-03, 3.05784843e-03, 5.70152944e-04,
       1.75605016e-03, -4.19136183e-03, -3.19382036e-03, -2.31628749e-03,
       -1.66627776e-03, -2.02066544e-03, -1.98510010e-03,
       -6.87314139e-04, 1.55917346e-03, 1.19322707e-04, -5.73637895e-03,
       -2.76522781e-03, 9.29069283e-05, 6.31723087e-03, 6.63693136e-05,
       7.51861779e-04, 9.96158109e-04, 3.52260959e-03, -3.62805626e-03,
       -5.78599423e-03, -3.72553826e-03, 2.89985823e-04, 1.49423943e-03,
       3.92454350e-03, 1.27042748e-03, 1.56240270e-03, -1.40824355e-03,
       -4.16132109e-03, -5.45110554e-03, -4.04959964e-03, 2.81047222e-04,
       4.78554983e-03, 3.09942383e-03, 4.46795486e-03, 1.66776299e-03,
       -8.90878902e-04, -1.49276410e-03, -6.57944893e-03,
       -4.21214104e-03, -7.13349145e-04, 2.63855862e-03, 4.07288224e-03,
       2.42215511e-03, 7.14301364e-04, 9.64354898e-04, -2.53007468e-03,
       -5.34753734e-03, -4.50830208e-03, -2.29691132e-03, 5.15612541e-03,
       4.30880114e-03, 6.09076954e-03, 2.99765705e-03, 2.08956073e-03,
       -4.45018010e-03, -3.40038026e-03, -1.91306998e-03,
       -1.55673304e-03, 1.73965318e-03, -8.66143557e-04, 3.09603498e-03,
       -1.68505343e-04, -2.59957137e-03, -1.88758608e-03,
       -1.32850604e-03, 1.19313505e-03, 1.83357764e-03, 3.21214995e-03,
       -2.14787619e-03, 3.87231587e-04, -1.53146230e-03, -2.32720003e-03,
       -1.96683104e-03, -2.93829152e-03, -2.69487803e-03,
       -2.84393248e-03, -2.91534496e-04, 4.38463583e-04, 3.08144093e-03,
       1.21032156e-03, -2.48608907e-04, 3.52635444e-03, 1.78429997e-03,
       1.94654881e-03, 1.22623751e-03, 2.36957707e-03, 8.76011734e-04,
       5.20371925e-03, 1.70101854e-03, 5.65144932e-04, -1.94832077e-03,
       -2.95429048e-03, 1.67648504e-05, 2.36782222e-03, 4.63057635e-03,
       3.42403837e-05, 3.09458794e-03, -9.21872270e-04, -2.17108685e-03,
       -1.24071806e-03, -2.60787969e-03, -3.32453684e-03,
       -1.71401841e-03, -3.15353333e-04, 3.30592087e-03, 6.64824806e-03,
       2.65805516e-04, -2.54039466e-03, 1.59120769e-03, 1.73849403e-04,
       1.00045057e-03, 1.22304366e-03, 5.47271315e-03, 3.49474954e-03,
       7.77967786e-03, 1.88999856e-03, 5.68503747e-04, -5.25817159e-04,
       -5.15748805e-04, -3.14172404e-03, -3.80013930e-03, 2.17772182e-03,
       6.64167106e-03, 9.48439725e-03, 1.42474729e-03, 3.13816156e-04,
       -3.02791386e-03, -4.17085085e-03, -4.24453011e-03,
       -1.67502498e-03, 5.50443947e-04, 3.87873338e-03, 5.12992451e-03,
       -7.48245220e-04, -4.24931385e-03, -4.22435580e-03,
       -5.48029551e-03, -4.72872518e-03, -4.69128881e-03, 5.63360332e-03,
       4.27640462e-03, 3.90650611e-03, -1.11691805e-03, -4.31457860e-03,
       -9.79095581e-04, -6.76739961e-04, -2.42057093e-03,
       -3.32835969e-03, 2.10061530e-03, 6.13096077e-03, 6.34489860e-03,
       -8.23566632e-04, -2.95185833e-03, 3.64881335e-03, 4.44805855e-03,
       2.35033804e-03, 2.13721348e-03, 7.25644501e-03, 8.18285532e-03,
       5.90296136e-03, 3.64588480e-03, 4.75637586e-04, -4.68642171e-03,
       -5.03131375e-03, -4.46825614e-03, -6.21350762e-03, 2.99131707e-03,
       4.67646588e-03, 1.06279622e-03, -3.17616737e-03, -4.21506818e-03,
       -1.55657262e-03, -2.19052262e-03, 2.80411961e-03, -4.68643801e-03,
       -4.86102700e-03, 4.97482717e-04, -2.31259037e-03, -4.29319544e-03,
       -2.45251413e-03, 2.13252124e-03, 4.67384467e-03, -3.81374935e-04,
       -1.09363801e-03, 4.47186828e-03, 6.46060333e-03, 2.70306342e-03,
       1.35946530e-03, -4.45184560e-04, 5.12580760e-03, 8.05733167e-03,
       6.35635015e-03, 6.66572363e-04, -6.92410613e-05, 4.64088283e-03,
       8.94018915e-04, -2.15582273e-04, 4.43002995e-04, -1.25190348e-03,
       9.00478160e-04, 2.23256531e-03, -3.75286862e-03, -2.21284595e-03,
       -3.86627886e-04, -1.34449592e-03, -3.58171202e-03,
       -1.80947676e-03, 7.46248406e-05, 3.47903115e-03, 1.81512802e-03,
       -6.83198217e-04, -5.84729598e-04, -4.38253488e-03,
       -2.58984580e-03, -4.40914650e-03, -3.23254871e-03, 4.50005522e-03,
       5.59915882e-03, 7.52725359e-03, -1.65476312e-03, -2.64001894e-03,
       4.05115262e-03, 3.71719885e-04, -3.09747574e-03, -1.44575827e-03,
       6.14599884e-03, 4.94773779e-03, 1.89650187e-03, 1.55332673e-04,
       2.50432198e-03, 1.27906573e-03, -6.51381779e-05, -2.98600621e-03,
       8.24094401e-04, -1.57998572e-03, 2.24232487e-03, 2.41468404e-03,
       -5.28568402e-04, -3.93152423e-03, -5.28097199e-03,
       -3.70160793e-03, -3.14090773e-03, -3.40337562e-03,
       -2.78440164e-03, -1.42113873e-04, 3.32324323e-03, 3.54689988e-03,
       -7.84815638e-04, 3.05299618e-04, -6.44207525e-04, -2.57599703e-03,
       -2.87365494e-03, 5.12856292e-03, 3.18784686e-03, 2.64528370e-03,
       2.43961136e-03, -2.77830550e-04, -2.57802778e-03, -2.24408577e-03,
       -1.86805497e-03, 1.57657149e-03, 3.35418270e-03, 3.16178170e-03,
       8.42700060e-03, 7.62062334e-03, -2.39722012e-03, -1.09554549e-05,
       -1.10518793e-03, -7.43269193e-05, 2.23350874e-03, -4.66029812e-03,
       -1.44093938e-04, 2.68900162e-03, 1.20452733e-03, -3.66283068e-03,
       -9.70851048e-04, -1.57222478e-03, -4.59397724e-03,
       -5.62311336e-03, -4.10446618e-03, 1.16056099e-03, 4.82432917e-03,
       9.95378505e-05, -4.63939365e-03, 2.99620349e-03, -1.25265820e-03,
       -1.98397902e-03, -3.47479503e-03, 1.01470994e-03, 2.11259606e-03,
       5.89945680e-03, 2.17863452e-03, -1.84526993e-03, 9.92840505e-04,
       -2.97379936e-03, -1.68763823e-03, -9.51500842e-04, 1.02029066e-03,
       2.92495405e-03, 1.92118378e-03, 8.84770998e-04, -1.58408005e-03,
       5.63554652e-03, 6.02763088e-04, 3.95850977e-03, 2.89749121e-03,
       -2.39802222e-03, -9.09190101e-04, 1.67000538e-03, -5.93689852e-04,
       -6.05469057e-03, 2.11763289e-03, -1.87965366e-03, -8.74228892e-04,
       -2.41365889e-03, -1.66675518e-03, -1.19460060e-03, 1.34744996e-03,
       4.48329840e-03, -2.44443002e-03, 5.32470411e-03, 1.58294060e-04,
       -2.48689507e-03, -1.30694010e-03, 8.08906450e-04, 1.20189402e-03,
       -1.56168791e-03, -9.58906719e-04, -3.23302345e-03, 4.71633999e-03,
       -6.50657516e-04, 4.09681490e-03, 4.08143504e-03, 3.81927326e-04,
       -1.23908289e-03, 9.40649072e-04, 5.19801537e-03, -2.15658685e-03,
       2.30298936e-03, -2.21391767e-03, -1.42908201e-03, 1.67361915e-03,
       -2.12869351e-03, -6.01803986e-05, 1.67554035e-03, 6.13840390e-03,
       9.50958754e-04, 6.33079279e-03, -2.31239968e-03, -4.96665202e-03,
       -2.01936718e-03, -3.44930100e-03, -2.83872476e-03,
       -1.85095367e-03, -2.94314028e-04, -1.26785436e-03, 5.18157147e-03,
       -1.07202563e-03, -4.05846955e-03, -4.38004220e-03,
       -5.28860837e-04, -1.22626906e-03, 1.25965721e-03, 4.38776566e-03,
       -5.43464012e-06, 4.40566940e-03, -1.25269219e-03, -2.17237859e-03,
       2.53017817e-04, -2.99442071e-03, -1.51083211e-03, -3.27709713e-03,
       -3.67389759e-03, -2.38071242e-03, 3.83644877e-03, 4.55007044e-04,
       -1.47370168e-03, -2.50361604e-03, -1.29507820e-03,
       -2.04663491e-03, -1.48557662e-03, -3.20491847e-03,
       -1.98613550e-03, 2.49800691e-03, -6.91949623e-04, -6.35076489e-04,
       -1.83860119e-03, -1.45493075e-04, 1.10414380e-03, 1.78245048e-03,
       7.78950693e-04, -2.60919170e-03, -3.12970066e-03, -2.16622814e-03,
       -7.67300779e-04, -1.08986779e-03, -6.06852234e-04, 1.27139862e-03,
       2.84237950e-03, -3.47235380e-03, -3.37334001e-03, 1.28094782e-03,
       9.83257996e-06, 5.02066920e-04, -9.75603994e-04, 3.25521152e-03,
       6.39711367e-03, 3.99640948e-03, 1.94193155e-03, -3.33113573e-03,
       -2.95905326e-03, -4.64077853e-03, 1.49300438e-04, -2.94031412e-03,
       2.57016276e-03, 3.82919330e-03, 3.54017084e-03, 1.80592074e-03,
       -1.40903436e-03, -2.21456331e-03, -2.58649373e-03,
       -2.37691056e-04, 1.88843079e-03, 3.29039129e-03, 3.17785214e-03,
       -1.11070951e-03, -5.97015070e-03, -8.35905876e-03,
       -2.78058113e-03, -2.06542108e-03, 1.07621821e-03, 3.81962350e-03,
       5.46357548e-03, 6.90931967e-03, 3.54703190e-03, 4.62703174e-03,
       -1.28569698e-03, -1.10522972e-03, -1.48055586e-03, 1.28642583e-07,
       -5.62480500e-06, 4.20614379e-03, 3.98681685e-03, 8.21844907e-04,
       -1.46280508e-03, -6.06469763e-03, -2.39948998e-03, 2.88640673e-04,
       2.70830421e-03, 3.80940503e-03, 1.39600760e-03, -1.59617301e-07,
       -4.89503611e-03, -8.56278092e-03, -6.42849226e-03,
       -1.00604468e-03, 2.11499375e-03, 6.26401650e-03, 4.46389802e-03,
       -1.50833640e-03, -2.22025462e-03, -4.56410693e-03,
       -8.94789770e-03, -6.69552013e-03, -5.76626882e-03, 5.41887525e-03,
       6.67954003e-03, 2.04661163e-03, 3.00307036e-03, 1.76509656e-03,
       -1.05919584e-03, -4.18641279e-03, -3.31419799e-03,
       -1.53922441e-03, 1.99956354e-03, 4.70501697e-03, 4.77761030e-03,
       5.57435269e-04, -3.14853620e-04, -2.47512362e-03, -6.21176185e-03,
       -6.11824589e-03, -5.41557465e-03, 2.95106950e-03, 6.53964980e-03,
       3.09890602e-03, -3.53594357e-03, -4.43036482e-03, -4.10814676e-03,
       -7.84531236e-03, -2.62634666e-03, -3.11351405e-03, 7.04110134e-03,
       5.49929822e-03, -1.66716706e-03, -3.96157708e-03, -5.55737736e-03,
       -1.97043805e-03, -5.11809532e-03, -3.37718823e-03,
       -1.16770738e-03, 6.33032992e-03, 2.12158076e-03, -3.87095241e-03,
       -5.24880923e-03, -2.42417306e-03, -2.43289792e-03,
       -5.02528669e-03, -2.74003530e-03, -8.55891558e-04, 4.89472877e-03,
       6.45127613e-03, 4.85790661e-05, -3.66920489e-03, -1.91911508e-03,
       -5.55261038e-04, -2.60431203e-03, -4.74956259e-03, 2.59268610e-03,
       7.77320564e-03, 6.98084012e-03, -1.85699784e-03, -5.00721019e-03,
       -3.77472630e-03, -2.13887752e-03, -3.11430893e-03,
       -4.19013295e-03, 2.50420021e-03, 4.18815995e-03, -7.23992474e-04,
       -4.86218138e-03, -2.57487409e-03, -1.19706918e-03,
       -2.04624399e-03, -3.31152556e-03, -5.25091682e-03, 3.66438250e-03,
       4.96661104e-03, -1.91889971e-03, -6.31998898e-03, -4.44914959e-03,
       -2.78951298e-03, -2.92459827e-05, -3.09704512e-04,
       -3.13761621e-03, 4.69565159e-03, 7.22356746e-03, 2.31976970e-03,
       -4.04033577e-03, -2.64591607e-03, -1.01666513e-03,
       -1.61321415e-03, -6.64271938e-04, -2.15504598e-03, 5.15485788e-03,
       2.53238669e-03, -2.79301335e-03, -5.70543390e-03, -7.34593137e-04,
       1.17234347e-04, -8.97692342e-04, -5.64874790e-04, 1.57585298e-03,
       5.02326852e-03, 3.71842529e-03, -1.10471400e-03, -4.20988258e-03,
       -1.49893784e-03, -4.54347068e-03, -6.50348933e-03,
       -6.12671720e-03, -3.64308152e-03, -2.26211315e-03,
       -1.79013365e-03, -1.35455187e-03, -1.01913570e-03,
       -7.90578080e-04, -1.33746886e-03, -2.37715174e-03, 2.11343355e-03,
       2.77230632e-03, 8.15511402e-03, -3.54533076e-05, -1.30794616e-03,
       -3.48710292e-03, -1.41600065e-03, -3.33088404e-03,
       -5.06420154e-03, -9.98622389e-04, -1.21945888e-03, 1.10543449e-03,
       -4.99550113e-03, -1.96814234e-03, -7.36829941e-04,
       -1.06412359e-03, -2.39399192e-03, -3.98381148e-03,
       -3.46591068e-03, 3.19819944e-03, 3.80745903e-03, 2.11408501e-03,
       1.71429303e-03, 1.05871947e-03, -1.18028361e-03, -3.99840856e-03,
       -6.21582335e-03, -6.76857680e-03, -1.00024475e-03, 1.62178464e-03,
       -9.90456203e-04, -1.57977559e-03, -8.28018645e-04, 4.43245401e-04,
       -2.78560724e-03, -2.39731907e-03, 2.17509153e-03, 7.60588655e-03,
       5.26687643e-03, -5.54368773e-04, -7.41643249e-04, 2.19586561e-03,
       -4.81884694e-04, -4.69719851e-03, -4.79964120e-03,
       -2.66425707e-03, 1.05494144e-03, 2.08193739e-03, -2.34033400e-03,
       -3.09436605e-03, -1.32303650e-03, 1.29605221e-04, -3.77901387e-03,
       -4.55831690e-03, -6.41387189e-03, 4.04339563e-03, 5.50409965e-03,
       3.23181710e-04, -8.04209907e-04, -3.62417661e-04, -1.71515185e-05,
       -1.35483791e-03, -8.54416110e-04, -4.80122492e-03, 1.17568858e-03,
       -1.75473362e-03, -1.85316283e-04, -1.73638365e-03,
       -2.42852257e-04, 2.42576026e-03, -2.28240481e-03, -2.86262319e-03,
       -1.92237739e-03, 2.62245233e-03, 5.35115413e-03, -2.98920576e-03,
       -2.32418138e-03, 5.38167136e-04, 2.83106905e-03, 5.96499711e-04,
       -3.98893055e-04, -4.19596303e-03, 2.70636589e-03, -1.98770594e-03,
       -1.46861537e-03, -1.92403677e-03, 1.45771762e-03, -4.69447288e-04,
       -1.87633629e-03, -5.44415379e-04, -3.25190858e-03, 2.12766533e-03,
       -7.40941614e-04, 1.60426542e-03, -1.02444761e-03, 1.92165293e-03,
       -1.92179832e-05, -1.77852379e-03, -5.87336719e-04,
       -3.47733591e-03, 3.18241771e-03, -9.95532493e-04, 3.60424700e-03,
       -1.26514758e-03, 1.52352301e-03, 2.08922592e-03, 8.29375276e-05,
       3.28569766e-03, -4.59025381e-03, 1.41679426e-03, 2.15804903e-04,
       2.78780772e-03, 3.09543793e-05, 2.81563587e-03, 2.04008119e-03,
       1.94809487e-04, 1.25781726e-03, -1.64312171e-03, 9.11308173e-03,
       2.17674905e-03, 7.75472540e-03, 1.52717822e-03, 2.54218420e-03,
       2.37324019e-03, -2.82317378e-05, 5.41424903e-04, 1.57761027e-03,
       2.80627958e-03, 3.14040319e-03, 1.97622972e-03, 1.24964979e-03,
       2.89476220e-03, 2.46451586e-03, 1.14457309e-03, 1.53860508e-03,
       1.59912175e-04, 2.52243946e-03, 2.00692029e-03, 1.46720419e-03,
       -2.10525148e-04, 7.80619332e-04, 5.03971300e-04, -4.58053022e-04,
       4.85393422e-04, 8.28564109e-04, 2.90677213e-04, 3.25525965e-04,
       -1.97604735e-04, -1.55502942e-03, -1.98679583e-04,
       -4.33463254e-04, 1.37537124e-03, 1.11056224e-03, 9.40426544e-04,
       1.03402312e-03, 5.44810726e-04, 4.96222521e-04, -1.07542402e-03,
       -1.36258348e-03, 1.54692412e-03, 1.01206498e-03, 1.96915003e-03,
       1.65118719e-03, 3.69674247e-03, 4.43836814e-03, 1.12493231e-04,
       -1.46468799e-03, -3.27058915e-05, -1.21170102e-04,
       -1.63450744e-03, 9.23458487e-04, 2.88951094e-03, 2.79458263e-03,
       1.76181190e-03, 4.75055393e-04, -2.69431248e-03, -2.18418753e-03,
       8.06541240e-04, 6.03562745e-04, 1.48637861e-03, 2.52996630e-04,
       3.28348996e-03, 3.86247784e-03, 7.10659369e-04, -6.64090563e-04,
       -1.00021728e-03, -1.52828230e-03, -2.05680844e-03,
       -6.14300603e-04, -3.03838431e-04, 1.59464672e-03, 2.26975116e-03,
       -5.26469725e-04, -3.54532176e-03, -2.04080669e-03,
       -1.27030024e-03, -2.04296922e-03, 5.33492945e-04, 5.09724114e-03,
       4.36221901e-03, 1.64934283e-03, 1.70268177e-03, -2.11695349e-03,
       -1.80920796e-03, -2.42599123e-03, -3.81689589e-03,
       -4.09101648e-03, 4.34913253e-03, 3.07991379e-03, 1.11230917e-03,
       1.52033463e-03, -2.40413309e-03, -8.34997976e-04, -2.64406111e-03,
       -2.01039040e-03, 1.29113463e-03, 5.45638753e-03, 4.75950493e-03,
       1.18863897e-03, -8.06079013e-04, -4.02800879e-03, -2.50727707e-03,
       -2.24851794e-03, -1.28593424e-03, 8.24713861e-05, 3.57931689e-03,
       1.04879902e-03, -8.63129098e-04, 5.77342289e-04, -2.01098970e-03,
       -9.48552857e-04, 9.19969461e-05, -3.23412521e-03, -3.92940128e-03,
       1.47068582e-03, 1.68111071e-03, -1.51513761e-03, -1.61724887e-03,
       -2.75301421e-03, 6.96681440e-04, -3.82801634e-04, -2.69688130e-03,
       -1.57952029e-03, 4.48718667e-03, 1.16158312e-03, 7.53462722e-04,
       -1.24173413e-03, -1.73611101e-03, 2.01890408e-03, -1.24801847e-03,
       -3.59160407e-03, -2.49355403e-03, -8.34602804e-04, 8.96033831e-04,
       -5.61504567e-04, 9.49244772e-04, -1.02128275e-03, -4.59344097e-04,
       -3.06226942e-03, -4.34836792e-03, -2.25684792e-03, 2.09494750e-03,
       2.54504522e-03, 3.41440737e-03, 1.63633528e-03, -3.80892074e-04,
       -2.00850796e-03, 6.51740702e-05, -5.16388938e-03, -1.67527806e-03,
       -1.06743239e-04, -6.74345298e-04, 5.42451919e-04, -1.43860001e-04,
       -2.71898252e-03, 6.35080680e-04, -1.24327687e-03, -5.74177317e-03,
       -1.45795872e-03, -8.75973201e-05, -6.11877127e-04, 4.78004047e-04,
       1.38000271e-03, -2.32531829e-03, -1.12314115e-03, -2.68888124e-03,
       -6.60275854e-03, -1.80507719e-03, 9.26488196e-04, 3.38312617e-04,
       1.40295515e-03, 1.76209712e-03, -1.14516995e-03, -2.22728564e-03,
       -2.50359369e-03, -5.39606437e-03, 1.01597793e-03, 2.44201371e-03,
       -1.05583819e-03, 2.08810461e-03, 2.99211359e-03, -5.20153611e-04,
       -2.15583690e-03, -8.91779258e-04, -3.96998180e-03,
       -2.02860869e-03, 2.00395356e-03, 7.54666689e-04, 1.67887611e-03,
       1.35424291e-03, 1.35275041e-04, -1.88939006e-03, 2.62301764e-04,
       -2.83313566e-03, -3.10489605e-03, 5.73041209e-04, -1.47730485e-03,
       1.37925299e-03, -5.87175273e-05, -1.42716407e-03, 1.04991847e-03,
       -3.29188560e-03, -4.73101577e-03, -1.71775802e-03, 3.65628884e-03,
       -2.00070930e-03, 4.06718347e-03, 4.17421199e-03, 3.87544016e-04,
       -2.95594381e-03, -3.73724499e-03, -4.06851340e-03,
       -2.79523758e-03, -3.06910661e-05, -4.37662331e-03, 4.57857549e-03,
       4.46318882e-03, -8.17782362e-04, -2.51158443e-03, 3.66184278e-03,
       -5.13767765e-04, -1.14777975e-03, -2.03250034e-04,
       -3.44718201e-03, 5.37717948e-04, -8.33415776e-04, -1.17664633e-03,
       3.59677151e-03, 4.48501715e-03, -1.73573280e-04, -1.66222232e-03,
       9.16712510e-04, -3.14209121e-03, 2.30080641e-05, -4.45393263e-04,
       -1.79772172e-03, 2.84989737e-03, 2.31210981e-03, -3.82734841e-04,
       -3.82185943e-04, -4.61228949e-04, -4.12458600e-03, 3.27997678e-03,
       7.59828545e-04, -1.36208232e-03, 5.01091010e-04, 3.73551529e-03,
       -1.45844172e-03, 6.35831020e-05, 1.71652727e-03, -7.14985130e-04,
       1.19150407e-03, -6.51999144e-04, -3.36080836e-03, 3.70788807e-03,
       3.51083395e-03, -1.18891883e-03, -1.60803052e-03, -1.57333750e-04,
       -3.09661403e-03, -1.90640625e-03, -1.59102399e-03,
       -2.72885570e-03, 2.88145430e-03, 1.62202341e-03, -2.01735273e-03,
       5.98255312e-04, 1.96214044e-03, 1.83102777e-04, 1.32469449e-03,
       -2.33368389e-03, -2.76411348e-03, 1.61826261e-03, 2.41745496e-03,
       -2.81416764e-03, -1.18459575e-03, 1.11718627e-03, -2.58424319e-04,
       -4.94672684e-04, -1.52712059e-03, -2.09106063e-03, 2.45542964e-03,
       2.44834716e-03, -4.69754916e-04, -8.94687837e-04, 4.78508009e-04,
       -1.05294923e-03, 1.37495215e-03, -1.54955720e-03, -3.91375925e-03,
       2.37146928e-03, -3.04810732e-04, -2.55241548e-03, 2.44653173e-04,
       8.52354395e-04, 1.58405025e-03, 1.68758526e-03, -3.02848290e-03,
       -1.89906463e-03, 1.84083579e-03, 3.28477588e-03, -3.36661027e-03,
       -2.44420348e-03, -4.04943246e-03, 5.77956598e-05, -1.87777786e-03,
       -3.17705795e-03, -1.17462466e-03, 3.50961182e-03, 2.25873804e-03,
       -1.52753515e-03, 2.80649023e-04, 1.46322639e-03, -2.22778437e-03,
       4.26043494e-04, -3.05185863e-03, -2.70500826e-03, 2.56987475e-03,
       2.73246877e-03, -2.85472278e-03, -2.50677625e-03, -1.22152397e-03,
       -2.29360838e-03, -2.46691867e-04, -1.60601595e-03,
       -3.78608413e-04, 3.12845758e-03, 3.16229137e-03, -1.87057047e-03,
       -2.51566968e-03, -1.54888083e-04, -6.73994946e-04,
       -1.42641144e-03, -2.46740133e-03, -8.77723680e-04, 3.32611729e-03,
       1.57668407e-03, -2.23600864e-03, -2.01591267e-03, -1.20765727e-03,
       2.75022787e-04, -1.69365702e-03, -1.00038853e-03, 1.18585350e-03,
       3.65582644e-03, 1.67097559e-03, -2.11035064e-03, -1.68754766e-03,
       1.88092911e-03, 8.62099871e-04, 1.29278610e-03, -1.46547996e-03,
       -1.45506149e-03, 1.50037452e-03, 2.05592578e-03, -1.10689970e-03,
       -7.68152066e-04, 7.07780884e-04, 1.34940981e-03, -1.00017362e-03,
       -6.43844251e-04, 2.64438684e-04, 3.56373284e-03, 1.23033568e-03,
       -2.29574367e-03, -2.84053572e-03, 2.64041912e-04, 4.22090665e-03,
       8.14706844e-04, 9.83539969e-04, 8.30091827e-04, 1.98666821e-03,
       1.90383929e-03, -8.32927180e-04, -5.20478061e-04, 1.11309078e-03,
       1.76099665e-03, -8.83618835e-04, -3.00122052e-03, -2.33687926e-03,
       2.75746774e-04, 2.01252848e-03, -1.43497251e-03, -1.42989529e-03,
       2.58089881e-03, 6.85533788e-03, -2.12104096e-05, 5.38549153e-04,
       1.08262997e-04, 1.90363370e-03, 4.32743039e-03, 5.29871031e-04,
       1.65023049e-03, 3.89993866e-03, 8.42818059e-03, 4.24702157e-05,
       -1.12853467e-03, -1.42817956e-03, 1.68020639e-03, 4.20879014e-03,
       -1.90846389e-03, -7.59909890e-05, 1.06367108e-03, -2.53079133e-03,
       -3.46305571e-03, -4.57243621e-03, -1.95514131e-03, 1.72917568e-03,
       4.14308161e-03, -3.21005355e-03, -2.03644973e-03, 2.64242321e-04,
       4.79902606e-03, -1.12576538e-03, -1.26773887e-03, 1.37084789e-04,
       4.87076817e-03, 5.44027006e-03, -3.09006369e-04, -2.47497519e-04,
       1.16183329e-03, 1.67344557e-03, -2.24735867e-03, -1.60344504e-03,
       -1.23742665e-03, 4.04440844e-03, 7.91259948e-03, -5.38213390e-05,
       -3.41149367e-04, -1.24667960e-04, 5.39411465e-03, -2.09569396e-03,
       2.78485706e-03, 1.67018315e-03, 8.02715030e-03, -2.17258814e-03,
       -6.55921968e-03, -5.47699304e-03, -2.22970033e-03, 2.69258115e-03,
       1.63789431e-03, 1.18992047e-03, 9.33790405e-04, 8.18797795e-04,
       -2.07314570e-03, -5.07018110e-03, -4.61099064e-03,
       -1.78835378e-03, 4.92013991e-04, 2.29605427e-03, 6.38089189e-03,
       2.71947798e-03, 1.44377220e-04, 1.39145250e-03, -3.15904687e-03,
       -2.52483808e-03, -3.03315930e-04, 2.80546094e-03, 1.23715948e-03,
       2.96322280e-03, 5.87218325e-04, 3.30856093e-03, 9.99382231e-04,
       -4.58821421e-04, 1.73194171e-03, 1.51176326e-04, 3.59733123e-03,
       -1.29733956e-03, 3.55120469e-03, 1.97325484e-03, 3.21579457e-04,
       -2.45063216e-03, -5.58452867e-03, -3.90836224e-03,
       -3.91030079e-03, -2.12612585e-03, -1.26691547e-03, 1.35578634e-03,
       -8.63290566e-04, -1.97317242e-03, 2.60655745e-03, 4.49362597e-05,
       1.67528994e-03, 2.69247615e-03, 9.92659247e-04, 1.29012344e-03,
       -3.24327528e-04, -1.62565941e-03, -5.88085095e-04, 5.28911642e-06,
       8.94911878e-04, 3.18017369e-03, 8.09499979e-05, -2.57193670e-03,
       -2.18482735e-03, 3.38206213e-04, -4.87475627e-04, -3.00816004e-03,
       4.86643985e-03, 7.77735747e-03, 9.01122764e-03, 5.47418976e-03,
       1.86435948e-03, 1.77295587e-03, 1.00184232e-03, 2.42997383e-04,
       9.82044614e-04, 8.63942900e-04, -1.30079419e-03, -2.06245808e-03,
       -4.90871782e-04, -8.64052054e-05, 1.06763525e-03, -3.19854502e-04,
       -2.46257032e-03, -4.43844125e-03, -1.78506167e-03,
       -1.50285102e-03, -4.98990715e-03, -6.71310117e-03,
       -4.39940533e-03, 1.76513835e-03, 3.92115937e-04, -2.65025045e-03,
       -2.78910063e-03, 3.29283369e-03, 3.42340954e-03, 3.58726690e-03,
       3.90462438e-03, 1.21114965e-04, 1.92657943e-04, -3.56058877e-06,
       -1.03429856e-03, -5.44030976e-04, 7.82998046e-04, 3.96169815e-03,
       2.84928014e-03, -1.15010666e-03, -5.83588408e-05, 5.24704752e-04,
       -6.52625342e-04, -1.12563325e-03, -7.19722419e-04,
       -4.20872495e-03, -1.54457276e-03, -4.97943908e-03,
       -6.44901395e-03, -3.28936731e-03, 3.12958960e-03, 2.39068270e-03,
       -2.19964935e-03, -3.96372005e-03, -2.53563351e-03, 6.96929288e-04,
       -6.49465830e-04, -2.30187387e-03, -2.88127642e-03, 4.06992808e-03,
       3.32931848e-03, 3.54696618e-04, -4.01041191e-03, -1.59516756e-03,
       4.62235790e-03, 1.23341405e-03, -2.02934886e-03, -1.02139144e-04,
       2.93820119e-03, 1.89278787e-03, 2.03510732e-04, -1.83385494e-03,
       -1.73926164e-04, 4.05936409e-03, 2.86264787e-03, -3.69805656e-03,
       -2.09488557e-03, 1.98118272e-03, 2.56565795e-03, 7.38201270e-05,
       -2.82985694e-03, -3.69472109e-04, 3.88150639e-03, 2.32902798e-03,
       -1.77867198e-03, -2.16769800e-03, 4.92681051e-03, 1.07405067e-03,
       -1.47254532e-03, -5.35153272e-03, 3.89634952e-05, 6.22798875e-03,
       5.71769383e-03, -2.68316106e-03, -2.89832731e-03, 1.90678658e-03,
       -4.93086409e-04, -3.11139459e-03, -4.46088752e-03,
       -7.15026574e-04, 3.93928681e-03, 3.89575562e-03, -3.75871663e-03,
       -3.80607380e-04, 2.88458029e-03, 2.15146923e-03, -2.73990887e-03,
       -4.79522441e-03, -1.68346218e-03, 2.81250011e-03, 9.02656408e-04,
       -3.95451533e-03, -4.09450056e-03, 2.04321602e-03, 4.63549019e-04,
       -4.92003234e-03, -5.15305391e-03, 2.54989509e-03, 4.81399987e-03,
       5.41291293e-03, -2.09472375e-03, -3.26580228e-03, 2.66227731e-03,
       1.08004257e-04, -4.98349033e-03, -1.45324389e-03, 1.98752480e-03,
       1.88172946e-03, -3.49208422e-04, 2.41885311e-04, 8.16364016e-04,
       3.24043096e-03, -7.69496255e-04, -4.70165396e-03, -1.73530879e-03,
       1.29755610e-03, 5.45930874e-04, -1.68582506e-03, -2.30879267e-03,
       -1.42600550e-03, 5.14941849e-03, 2.34292704e-03, -4.36964678e-03,
       -1.26691791e-03, 1.68007822e-03, -1.40363269e-03, -7.29694322e-04,
       -2.32653133e-06, 4.01912781e-04, 4.33304533e-03, 1.64380262e-03,
       -4.49610874e-03, -1.58050354e-03, 1.18106510e-03, 5.33308776e-04,
       -1.38379156e-03, 2.99772830e-04, -1.24952779e-03, -1.23524561e-03,
       -2.25744373e-03, -4.63717617e-03, -1.34309789e-03,
       -1.21203868e-03, 9.16573801e-04, 5.28176920e-03, 4.67406213e-03,
       -4.55770781e-03, -1.49679591e-03, -4.04046569e-03,
       -3.09248385e-03, -1.61094952e-03, 1.93005684e-03, -6.62778446e-04,
       -2.28629462e-04, 1.07844663e-03, 7.65323988e-04, 4.95597022e-04,
       -7.50263105e-04, -4.06488730e-03, -1.72124163e-03, 2.42806156e-03,
       3.00191808e-03, 6.42841682e-03, 4.43972554e-03, -1.81467633e-03,
       3.83934588e-04, -6.05479872e-05, -1.14089134e-03, -4.30585176e-04,
       -1.22166952e-04, 2.95919622e-03, 5.56032825e-03, 1.77687340e-04,
       -4.27542953e-03, -1.05777942e-03, -3.95393046e-03,
       -3.08914762e-03, -3.01027624e-03, -6.79715595e-04, 1.03210309e-03,
       -9.87515552e-04, -2.13318644e-03, -2.94660125e-03, 5.22872666e-03,
       1.62113784e-03, 3.39727243e-03, 7.23841134e-04, 4.10192274e-03,
       5.60752256e-03, 3.15811951e-03, -2.17032689e-03, -5.76217286e-03,
       2.89838063e-04, -1.32368214e-03, -5.19536086e-04, -2.18820001e-04,
       2.40943208e-03, 4.90818219e-03, 2.25315243e-03, -5.20507689e-04,
       -3.41256056e-03, 3.79100582e-03, 2.02323799e-03, 8.75224825e-04,
       -1.56764872e-04, -1.94691867e-03, 5.52202284e-04, -2.11065076e-03,
       -1.96498306e-03, -3.80193954e-03, 5.72576886e-03, -1.47059982e-04,
       4.44949511e-03, 2.38028937e-03, -6.12989592e-04, 1.25347811e-03,
       1.17627520e-03, 1.97563600e-03, -4.65347758e-03, 2.05160095e-03,
       -2.93137482e-03, -6.97539130e-04, -8.12160142e-04, 4.78426955e-04,
       3.64908553e-03, 8.68524599e-04, -5.56724437e-04, -1.79017254e-03,
       3.27808643e-03, -1.77026412e-03, 2.69834982e-05, 1.23216852e-03,
       2.51705945e-03, 2.20519817e-03, 1.77061372e-03, 4.15413058e-04,
       -3.80810024e-03, 4.40635858e-03, -4.00550989e-03, -1.55422720e-03,
       -7.28660496e-04, -1.49393363e-05, 1.99509901e-03, 1.95846218e-03,
       1.00606040e-03, -2.59404047e-03, 1.88495638e-03, -1.40478462e-03,
       -2.02702405e-03, 4.01204248e-04, -2.57537747e-03, 2.64236610e-03,
       -2.60418801e-05, -1.82244752e-03, -2.72491388e-03, 1.41625118e-03,
       -4.51450876e-04, -8.80529115e-04, -1.33042550e-03, 1.98604516e-03,
       4.20659967e-03, 3.23961466e-03, 1.23890187e-03, -3.20517342e-03,
       1.08550221e-03, -1.42912811e-03, -3.11681681e-04, 6.40002079e-04,
       -1.83145481e-03, 5.08375885e-03, 2.17087171e-03, 2.41573481e-03,
       -4.26153280e-03, -6.75023111e-05, -6.29291404e-04,
       -3.24904395e-04, -2.51575653e-03, 2.66306688e-05, 5.20835025e-03,
       4.91701346e-03, -3.66249937e-03, -4.36632894e-03, 3.29354400e-04,
       -2.59866146e-03, -1.19242945e-03, -3.03952326e-03, 4.11151489e-03,
       7.15403398e-03, 4.54875827e-03, -1.28709769e-03, -4.01376933e-03,
       -6.68458990e-04, -3.94809013e-03, -1.40303385e-03,
       -4.14858945e-03, 3.42761632e-04, 6.67881966e-03, 4.50249715e-03,
       4.20383585e-04, -3.63153475e-03, -2.25199969e-03, -2.10945518e-03,
       -1.90454896e-03, -4.99413395e-03, 3.50845279e-03, 6.53764559e-03,
       3.38134938e-03, -2.21058563e-03, -4.57613543e-03, -2.65275303e-04,
       -4.66513028e-03, -3.19536375e-05, -8.06991884e-04, 3.35108628e-03,
       4.96873725e-03, 1.47238036e-03, 7.72214335e-05, -3.63509636e-03,
       -1.79852976e-03, -6.37980062e-04, 6.59026322e-04, -1.45572785e-03,
       1.55201473e-03, 4.14851727e-03, -1.10938947e-03, -1.31806731e-03,
       -6.04464207e-03, -4.26680176e-03, -9.94696049e-04, 9.66818305e-04,
       1.09714002e-03, 2.36541033e-03, 3.49007873e-03, 2.51137442e-03,
       -1.17786310e-03, -1.62327255e-03, 7.99187808e-04, 9.25718574e-04,
       2.82967184e-03, 3.89433735e-05, -1.01412588e-03, 1.84531696e-03,
       2.98637105e-03, 5.08671277e-04, -4.58101369e-03, -4.80906951e-04,
       4.06117877e-03, 2.89528072e-03, -4.35856404e-04, 1.47327187e-03,
       1.87705457e-03, -1.06098107e-03, -1.30162772e-03, -3.91007634e-03,
       -3.49834166e-03, 1.63611479e-03, 3.05352896e-03, 2.71483511e-03,
       -1.53868867e-03, -2.19363882e-03, -1.84157747e-03,
       -6.47345232e-03, -9.03741270e-03, -3.88544123e-03, 2.04796670e-03,
       6.29463186e-03, 2.07346282e-03, -8.36039137e-04, -1.34431082e-06,
       7.72784755e-04, 4.55912697e-04, -3.32947867e-03, -5.07650489e-04,
       6.01535849e-03, 5.73282642e-03, 1.26542372e-03, -1.38123950e-03,
       -3.60469385e-05, 2.60719657e-03, -2.73403828e-03, -7.01017911e-03,
       -5.82343724e-04, 8.19997583e-03, 7.10979570e-03, 2.75851251e-03,
       -4.76075150e-03, -1.69215247e-03, -1.76296488e-03,
       -4.58567170e-03, -5.73096797e-03, -1.04597933e-03, 2.69203098e-03,
       5.79600921e-03, 9.34760901e-05, -3.49212461e-03, -2.09226669e-03,
       -8.47436604e-04, -1.73989928e-03, -6.90427283e-03, 3.54794669e-04,
       4.63404460e-03, 4.75999666e-03, -1.48430641e-03, -4.27820021e-03,
       -1.30403077e-03, 1.22586812e-03, -3.04665253e-03, 8.69140276e-05,
       -1.92011095e-04, 6.02000952e-03, 7.54093612e-03, 2.40940554e-03,
       -5.39311161e-03, -2.46475963e-03, -1.37306168e-03,
       -3.46527289e-04, -5.33842249e-03, 1.36333716e-03, 1.61493209e-03,
       2.82077701e-03, -5.04417054e-04, -2.44139042e-03, -9.83395032e-04,
       9.17856873e-04, 1.40235270e-03, -3.12226126e-03, 3.83645808e-03,
       6.63918117e-03, 4.76655271e-03, -2.81661225e-04, -9.96764400e-04,
       -2.50209559e-04, -9.40965954e-04, 6.01072097e-04, -1.07180234e-03,
       1.67490914e-03, -4.07762418e-04, -2.14069756e-03, -1.46969454e-03,
       -5.19796880e-03, -3.36515484e-03, -1.24766270e-03, 9.00379033e-04,
       -4.74521751e-03, 3.11353500e-03, 3.22498800e-03, 2.34606978e-03,
       -2.42859381e-03, -3.38436104e-03, -1.99922663e-03,
