<?xml version="1.0"?>
<opencv_storage>
<cascade>
  <stageType>BOOST</stageType>
  <featureType>HAAR</featureType>
  <height>36</height>
  <width>35</width>
  <stageParams>
    <boostType>GAB</boostType>
    <minHitRate>9.9500000476837158e-01</minHitRate>
    <maxFalseAlarm>5.0000000000000000e-01</maxFalseAlarm>
    <weightTrimRate>9.4999999999999996e-01</weightTrimRate>
    <maxDepth>1</maxDepth>
    <maxWeakCount>100</maxWeakCount></stageParams>
  <featureParams>
    <maxCatCount>0</maxCatCount>
    <featSize>1</featSize>
    <mode>BASIC</mode></featureParams>
  <stageNum>9</stageNum>
  <stages>
    <!-- stage 0 -->
    <_>
      <maxWeakCount>3</maxWeakCount>
      <stageThreshold>-1.0519808530807495e+00</stageThreshold>
      <weakClassifiers>
        <_>
          <internalNodes>
            0 -1 3 -5.3745307028293610e-02</internalNodes>
          <leafValues>
            8.2006919384002686e-01 -8.3947938680648804e-01</leafValues></_>
        <_>
          <internalNodes>
            0 -1 44 2.3881074041128159e-02</internalNodes>
          <leafValues>
            -8.5108804702758789e-01 7.4336832761764526e-01</leafValues></_>
        <_>
          <internalNodes>
            0 -1 40 -4.5248843729496002e-02</internalNodes>
          <leafValues>
            6.3858658075332642e-01 -9.5935422182083130e-01</leafValues></_></weakClassifiers></_>
    <!-- stage 1 -->
    <_>
      <maxWeakCount>2</maxWeakCount>
      <stageThreshold>-4.6418517827987671e-01</stageThreshold>
      <weakClassifiers>
        <_>
          <internalNodes>
            0 -1 45 2.0347431302070618e-02</internalNodes>
          <leafValues>
            -9.0430623292922974e-01 6.8674701452255249e-01</leafValues></_>
        <_>
          <internalNodes>
            0 -1 4 -1.5291891060769558e-02</internalNodes>
          <leafValues>
            4.4012105464935303e-01 -9.1544842720031738e-01</leafValues></_></weakClassifiers></_>
    <!-- stage 2 -->
    <_>
      <maxWeakCount>5</maxWeakCount>
      <stageThreshold>-7.3571193218231201e-01</stageThreshold>
      <weakClassifiers>
        <_>
          <internalNodes>
            0 -1 29 2.8169877827167511e-02</internalNodes>
          <leafValues>
            -7.5054705142974854e-01 6.5870308876037598e-01</leafValues></_>
        <_>
          <internalNodes>
            0 -1 36 6.8495213985443115e-02</internalNodes>
          <leafValues>
            -7.6365637779235840e-01 4.7463703155517578e-01</leafValues></_>
        <_>
          <internalNodes>
            0 -1 23 1.2036946602165699e-02</internalNodes>
          <leafValues>
            -5.6412494182586670e-01 6.1431378126144409e-01</leafValues></_>
        <_>
          <internalNodes>
            0 -1 15 -3.3868648111820221e-02</internalNodes>
          <leafValues>
            5.3843724727630615e-01 -5.4219484329223633e-01</leafValues></_>
        <_>
          <internalNodes>
            0 -1 46 -7.2087654843926430e-03</internalNodes>
          <leafValues>
            7.0637249946594238e-01 -3.5494646430015564e-01</leafValues></_></weakClassifiers></_>
    <!-- stage 3 -->
    <_>
      <maxWeakCount>5</maxWeakCount>
      <stageThreshold>-8.4278661012649536e-01</stageThreshold>
      <weakClassifiers>
        <_>
          <internalNodes>
            0 -1 10 -2.2582000494003296e-01</internalNodes>
          <leafValues>
            4.4805195927619934e-01 -6.5158373117446899e-01</leafValues></_>
        <_>
          <internalNodes>
            0 -1 21 -1.0944780707359314e-01</internalNodes>
          <leafValues>
            3.5326993465423584e-01 -8.2513940334320068e-01</leafValues></_>
        <_>
          <internalNodes>
            0 -1 1 -3.2453849911689758e-02</internalNodes>
          <leafValues>
            5.1887965202331543e-01 -5.7064396142959595e-01</leafValues></_>
        <_>
          <internalNodes>
            0 -1 17 7.5878733769059181e-03</internalNodes>
          <leafValues>
            -4.2543798685073853e-01 6.2395131587982178e-01</leafValues></_>
        <_>
          <internalNodes>
            0 -1 49 2.2918790578842163e-02</internalNodes>
          <leafValues>
            -5.2738767862319946e-01 5.8062922954559326e-01</leafValues></_></weakClassifiers></_>
    <!-- stage 4 -->
    <_>
      <maxWeakCount>6</maxWeakCount>
      <stageThreshold>-1.4200711250305176e+00</stageThreshold>
      <weakClassifiers>
        <_>
          <internalNodes>
            0 -1 32 9.3205953016877174e-03</internalNodes>
          <leafValues>
            -7.8888887166976929e-01 3.4358975291252136e-01</leafValues></_>
        <_>
          <internalNodes>
            0 -1 6 -2.8578970581293106e-02</internalNodes>
          <leafValues>
            2.7470538020133972e-01 -7.9826056957244873e-01</leafValues></_>
        <_>
          <internalNodes>
            0 -1 22 -1.5957918763160706e-01</internalNodes>
          <leafValues>
            3.0128133296966553e-01 -6.1496359109878540e-01</leafValues></_>
        <_>
          <internalNodes>
            0 -1 38 -9.3824882060289383e-03</internalNodes>
          <leafValues>
            6.6032075881958008e-01 -3.1904178857803345e-01</leafValues></_>
        <_>
          <internalNodes>
            0 -1 14 -3.3861368894577026e-02</internalNodes>
          <leafValues>
            4.3221297860145569e-01 -4.4842797517776489e-01</leafValues></_>
        <_>
          <internalNodes>
            0 -1 25 6.6735199652612209e-03</internalNodes>
          <leafValues>
            -4.0409526228904724e-01 4.6526670455932617e-01</leafValues></_></weakClassifiers></_>
    <!-- stage 5 -->
    <_>
      <maxWeakCount>7</maxWeakCount>
      <stageThreshold>-1.0196530818939209e+00</stageThreshold>
      <weakClassifiers>
        <_>
          <internalNodes>
            0 -1 47 4.8588879406452179e-02</internalNodes>
          <leafValues>
            -5.8891457319259644e-01 3.3123028278350830e-01</leafValues></_>
        <_>
          <internalNodes>
            0 -1 30 3.5079434514045715e-02</internalNodes>
          <leafValues>
            -4.7638952732086182e-01 4.3057331442832947e-01</leafValues></_>
        <_>
          <internalNodes>
            0 -1 37 -2.7932455763220787e-02</internalNodes>
          <leafValues>
            2.9727670550346375e-01 -7.3406678438186646e-01</leafValues></_>
        <_>
          <internalNodes>
            0 -1 5 -5.7734269648790359e-02</internalNodes>
          <leafValues>
            2.5480261445045471e-01 -7.0792984962463379e-01</leafValues></_>
        <_>
          <internalNodes>
            0 -1 20 6.1523094773292542e-03</internalNodes>
          <leafValues>
            -3.8271492719650269e-01 5.0006490945816040e-01</leafValues></_>
        <_>
          <internalNodes>
            0 -1 42 -6.1205518431961536e-03</internalNodes>
          <leafValues>
            6.5674054622650146e-01 -2.8854268789291382e-01</leafValues></_>
        <_>
          <internalNodes>
            0 -1 8 -2.6592717040330172e-04</internalNodes>
          <leafValues>
            -7.4213349819183350e-01 2.6246657967567444e-01</leafValues></_></weakClassifiers></_>
    <!-- stage 6 -->
    <_>
      <maxWeakCount>7</maxWeakCount>
      <stageThreshold>-9.2587780952453613e-01</stageThreshold>
      <weakClassifiers>
        <_>
          <internalNodes>
            0 -1 28 1.5860497951507568e-02</internalNodes>
          <leafValues>
            -6.0556846857070923e-01 3.4796237945556641e-01</leafValues></_>
        <_>
          <internalNodes>
            0 -1 0 -6.5147444605827332e-02</internalNodes>
          <leafValues>
            3.8630992174148560e-01 -4.6904918551445007e-01</leafValues></_>
        <_>
          <internalNodes>
            0 -1 9 -3.8401968777179718e-03</internalNodes>
          <leafValues>
            2.6335176825523376e-01 -6.9438207149505615e-01</leafValues></_>
        <_>
          <internalNodes>
            0 -1 26 -2.9532086104154587e-02</internalNodes>
          <leafValues>
            4.8608368635177612e-01 -3.6598229408264160e-01</leafValues></_>
        <_>
          <internalNodes>
            0 -1 12 1.8628902733325958e-02</internalNodes>
          <leafValues>
            -3.5003754496574402e-01 6.0803657770156860e-01</leafValues></_>
        <_>
          <internalNodes>
            0 -1 48 1.9602671265602112e-02</internalNodes>
          <leafValues>
            -7.1671050786972046e-01 3.1361907720565796e-01</leafValues></_>
        <_>
          <internalNodes>
            0 -1 50 -1.3412644620984793e-03</internalNodes>
          <leafValues>
            4.6275928616523743e-01 -4.2597070336341858e-01</leafValues></_></weakClassifiers></_>
    <!-- stage 7 -->
    <_>
      <maxWeakCount>9</maxWeakCount>
      <stageThreshold>-8.9814591407775879e-01</stageThreshold>
      <weakClassifiers>
        <_>
          <internalNodes>
            0 -1 24 -1.1049599945545197e-01</internalNodes>
          <leafValues>
            9.1976515948772430e-02 -8.2426780462265015e-01</leafValues></_>
        <_>
          <internalNodes>
            0 -1 29 5.3171850740909576e-02</internalNodes>
          <leafValues>
            -4.0927714109420776e-01 4.8172271251678467e-01</leafValues></_>
        <_>
          <internalNodes>
            0 -1 41 -1.5320810489356518e-03</internalNodes>
          <leafValues>
            4.9765855073928833e-01 -3.8677039742469788e-01</leafValues></_>
        <_>
          <internalNodes>
            0 -1 2 -8.3148796111345291e-03</internalNodes>
          <leafValues>
            5.4112088680267334e-01 -3.2945311069488525e-01</leafValues></_>
        <_>
          <internalNodes>
            0 -1 39 9.2140454798936844e-03</internalNodes>
          <leafValues>
            -3.4873259067535400e-01 5.5539757013320923e-01</leafValues></_>
        <_>
          <internalNodes>
            0 -1 43 3.4225888550281525e-02</internalNodes>
          <leafValues>
            -7.0549654960632324e-01 2.5839757919311523e-01</leafValues></_>
        <_>
          <internalNodes>
            0 -1 19 4.9104290083050728e-03</internalNodes>
          <leafValues>
            -2.4290248751640320e-01 7.6790308952331543e-01</leafValues></_>
        <_>
          <internalNodes>
            0 -1 27 -1.0132908821105957e-01</internalNodes>
          <leafValues>
            2.9858970642089844e-01 -5.5011439323425293e-01</leafValues></_>
        <_>
          <internalNodes>
            0 -1 7 -9.3445574748329818e-05</internalNodes>
          <leafValues>
            -7.0054793357849121e-01 2.2100584208965302e-01</leafValues></_></weakClassifiers></_>
    <!-- stage 8 -->
    <_>
      <maxWeakCount>8</maxWeakCount>
      <stageThreshold>-1.0238281488418579e+00</stageThreshold>
      <weakClassifiers>
        <_>
          <internalNodes>
            0 -1 11 -6.9573998451232910e-02</internalNodes>
          <leafValues>
            3.3333334326744080e-01 -4.7474747896194458e-01</leafValues></_>
        <_>
          <internalNodes>
            0 -1 33 -1.1037024669349194e-02</internalNodes>
          <leafValues>
            5.4186373949050903e-01 -3.1389254331588745e-01</leafValues></_>
        <_>
          <internalNodes>
            0 -1 31 2.2902898490428925e-03</internalNodes>
          <leafValues>
            -7.0105773210525513e-01 2.4635297060012817e-01</leafValues></_>
        <_>
          <internalNodes>
            0 -1 13 -9.8476395010948181e-02</internalNodes>
          <leafValues>
            3.0154368281364441e-01 -5.9072738885879517e-01</leafValues></_>
        <_>
          <internalNodes>
            0 -1 16 -7.0658419281244278e-03</internalNodes>
          <leafValues>
            2.8987917304039001e-01 -5.2527898550033569e-01</leafValues></_>
        <_>
          <internalNodes>
            0 -1 34 8.5726132965646684e-05</internalNodes>
          <leafValues>
            1.6622313857078552e-01 -8.9320528507232666e-01</leafValues></_>
        <_>
          <internalNodes>
            0 -1 18 7.7722892165184021e-03</internalNodes>
          <leafValues>
            -3.6270651221275330e-01 3.7902772426605225e-01</leafValues></_>
        <_>
          <internalNodes>
            0 -1 35 -3.6698230542242527e-03</internalNodes>
          <leafValues>
            -7.5871807336807251e-01 1.8086893856525421e-01</leafValues></_></weakClassifiers></_></stages>
  <features>
    <_>
      <rects>
        <_>
          0 1 10 31 -1.</_>
        <_>
          5 1 5 31 2.</_></rects>
      <tilted>0</tilted></_>
    <_>
      <rects>
        <_>
          0 11 8 20 -1.</_>
        <_>
          4 11 4 20 2.</_></rects>
      <tilted>0</tilted></_>
    <_>
      <rects>
        <_>
          0 13 8 4 -1.</_>
        <_>
          4 13 4 4 2.</_></rects>
      <tilted>0</tilted></_>
    <_>
      <rects>
        <_>
          0 13 14 18 -1.</_>
        <_>
          7 13 7 18 2.</_></rects>
      <tilted>0</tilted></_>
    <_>
      <rects>
        <_>
          0 14 10 17 -1.</_>
        <_>
          5 14 5 17 2.</_></rects>
      <tilted>0</tilted></_>
    <_>
      <rects>
        <_>
          0 14 18 22 -1.</_>
        <_>
          9 14 9 22 2.</_></rects>
      <tilted>0</tilted></_>
    <_>
      <rects>
        <_>
          0 18 12 12 -1.</_>
        <_>
          6 18 6 12 2.</_></rects>
      <tilted>0</tilted></_>
    <_>
      <rects>
        <_>
          1 5 1 3 -1.</_>
        <_>
          1 6 1 1 3.</_></rects>
      <tilted>0</tilted></_>
    <_>
      <rects>
        <_>
          1 5 1 4 -1.</_>
        <_>
          1 7 1 2 2.</_></rects>
      <tilted>0</tilted></_>
    <_>
      <rects>
        <_>
          1 10 24 6 -1.</_>
        <_>
          1 13 24 3 2.</_></rects>
      <tilted>0</tilted></_>
    <_>
      <rects>
        <_>
          1 14 33 22 -1.</_>
        <_>
          12 14 11 22 3.</_></rects>
      <tilted>0</tilted></_>
    <_>
      <rects>
        <_>
          1 27 33 4 -1.</_>
        <_>
          12 27 11 4 3.</_></rects>
      <tilted>0</tilted></_>
    <_>
      <rects>
        <_>
          2 0 18 10 -1.</_>
        <_>
          2 0 9 5 2.</_>
        <_>
          11 5 9 5 2.</_></rects>
      <tilted>0</tilted></_>
    <_>
      <rects>
        <_>
          2 4 31 14 -1.</_>
        <_>
          2 11 31 7 2.</_></rects>
      <tilted>0</tilted></_>
    <_>
      <rects>
        <_>
          2 32 33 4 -1.</_>
        <_>
          13 32 11 4 3.</_></rects>
      <tilted>0</tilted></_>
    <_>
      <rects>
        <_>
          3 6 29 8 -1.</_>
        <_>
          3 10 29 4 2.</_></rects>
      <tilted>0</tilted></_>
    <_>
      <rects>
        <_>
          3 21 12 7 -1.</_>
        <_>
          7 21 4 7 3.</_></rects>
      <tilted>0</tilted></_>
    <_>
      <rects>
        <_>
          4 1 16 8 -1.</_>
        <_>
          4 1 8 4 2.</_>
        <_>
          12 5 8 4 2.</_></rects>
      <tilted>0</tilted></_>
    <_>
      <rects>
        <_>
          4 1 20 8 -1.</_>
        <_>
          4 1 10 4 2.</_>
        <_>
          14 5 10 4 2.</_></rects>
      <tilted>0</tilted></_>
    <_>
      <rects>
        <_>
          4 22 2 8 -1.</_>
        <_>
          4 26 2 4 2.</_></rects>
      <tilted>0</tilted></_>
    <_>
      <rects>
        <_>
          5 1 10 10 -1.</_>
        <_>
          5 1 5 5 2.</_>
        <_>
          10 6 5 5 2.</_></rects>
      <tilted>0</tilted></_>
    <_>
      <rects>
        <_>
          5 4 24 18 -1.</_>
        <_>
          5 13 24 9 2.</_></rects>
      <tilted>0</tilted></_>
    <_>
      <rects>
        <_>
          5 5 25 30 -1.</_>
        <_>
          5 15 25 10 3.</_></rects>
      <tilted>0</tilted></_>
    <_>
      <rects>
        <_>
          6 6 24 5 -1.</_>
        <_>
          14 6 8 5 3.</_></rects>
      <tilted>0</tilted></_>
    <_>
      <rects>
        <_>
          7 0 17 22 -1.</_>
        <_>
          7 11 17 11 2.</_></rects>
      <tilted>0</tilted></_>
    <_>
      <rects>
        <_>
          7 6 12 8 -1.</_>
        <_>
          13 6 6 8 2.</_></rects>
      <tilted>0</tilted></_>
    <_>
      <rects>
        <_>
          7 31 21 5 -1.</_>
        <_>
          14 31 7 5 3.</_></rects>
      <tilted>0</tilted></_>
    <_>
      <rects>
        <_>
          8 5 25 16 -1.</_>
        <_>
          8 13 25 8 2.</_></rects>
      <tilted>0</tilted></_>
    <_>
      <rects>
        <_>
          8 28 19 6 -1.</_>
        <_>
          8 31 19 3 2.</_></rects>
      <tilted>0</tilted></_>
    <_>
      <rects>
        <_>
          8 28 19 8 -1.</_>
        <_>
          8 32 19 4 2.</_></rects>
      <tilted>0</tilted></_>
    <_>
      <rects>
        <_>
          9 28 17 8 -1.</_>
        <_>
          9 32 17 4 2.</_></rects>
      <tilted>0</tilted></_>
    <_>
      <rects>
        <_>
          9 31 18 4 -1.</_>
        <_>
          9 33 18 2 2.</_></rects>
      <tilted>0</tilted></_>
    <_>
      <rects>
        <_>
          10 30 15 6 -1.</_>
        <_>
          10 33 15 3 2.</_></rects>
      <tilted>0</tilted></_>
    <_>
      <rects>
        <_>
          11 2 24 8 -1.</_>
        <_>
          11 2 12 4 2.</_>
        <_>
          23 6 12 4 2.</_></rects>
      <tilted>0</tilted></_>
    <_>
      <rects>
        <_>
          12 9 13 20 -1.</_>
        <_>
          12 19 13 10 2.</_></rects>
      <tilted>0</tilted></_>
    <_>
      <rects>
        <_>
          15 12 17 3 -1.</_>
        <_>
          15 13 17 1 3.</_></rects>
      <tilted>0</tilted></_>
    <_>
      <rects>
        <_>
          15 13 20 23 -1.</_>
        <_>
          25 13 10 23 2.</_></rects>
      <tilted>0</tilted></_>
    <_>
      <rects>
        <_>
          16 0 3 34 -1.</_>
        <_>
          16 17 3 17 2.</_></rects>
      <tilted>0</tilted></_>
    <_>
      <rects>
        <_>
          16 0 12 10 -1.</_>
        <_>
          16 0 6 5 2.</_>
        <_>
          22 5 6 5 2.</_></rects>
      <tilted>0</tilted></_>
    <_>
      <rects>
        <_>
          16 26 10 10 -1.</_>
        <_>
          16 26 5 5 2.</_>
        <_>
          21 31 5 5 2.</_></rects>
      <tilted>0</tilted></_>
    <_>
      <rects>
        <_>
          17 1 7 30 -1.</_>
        <_>
          17 16 7 15 2.</_></rects>
      <tilted>0</tilted></_>
    <_>
      <rects>
        <_>
          20 5 6 6 -1.</_>
        <_>
          23 5 3 6 2.</_></rects>
      <tilted>0</tilted></_>
    <_>
      <rects>
        <_>
          21 3 10 8 -1.</_>
        <_>
          21 3 5 4 2.</_>
        <_>
          26 7 5 4 2.</_></rects>
      <tilted>0</tilted></_>
    <_>
      <rects>
        <_>
          21 18 14 17 -1.</_>
        <_>
          28 18 7 17 2.</_></rects>
      <tilted>0</tilted></_>
    <_>
      <rects>
        <_>
          23 17 12 13 -1.</_>
        <_>
          29 17 6 13 2.</_></rects>
      <tilted>0</tilted></_>
    <_>
      <rects>
        <_>
          23 19 12 11 -1.</_>
        <_>
          29 19 6 11 2.</_></rects>
      <tilted>0</tilted></_>
    <_>
      <rects>
        <_>
          23 30 12 6 -1.</_>
        <_>
          23 30 6 3 2.</_>
        <_>
          29 33 6 3 2.</_></rects>
      <tilted>0</tilted></_>
    <_>
      <rects>
        <_>
          25 6 10 20 -1.</_>
        <_>
          30 6 5 20 2.</_></rects>
      <tilted>0</tilted></_>
    <_>
      <rects>
        <_>
          25 15 10 16 -1.</_>
        <_>
          30 15 5 16 2.</_></rects>
      <tilted>0</tilted></_>
    <_>
      <rects>
        <_>
          25 22 10 8 -1.</_>
        <_>
          30 22 5 8 2.</_></rects>
      <tilted>0</tilted></_>
    <_>
      <rects>
        <_>
          30 13 1 15 -1.</_>
        <_>
          30 18 1 5 3.</_></rects>
      <tilted>0</tilted></_></features></cascade>
</opencv_storage>
