<?xml version="1.0"?>
<opencv_storage>
<cascade>
  <stageType>BOOST</stageType>
  <featureType>LBP</featureType>
  <height>70</height>
  <width>60</width>
  <stageParams>
    <boostType>GAB</boostType>
    <minHitRate>9.9500000476837158e-01</minHitRate>
    <maxFalseAlarm>5.0000000000000000e-01</maxFalseAlarm>
    <weightTrimRate>9.4999999999999996e-01</weightTrimRate>
    <maxDepth>1</maxDepth>
    <maxWeakCount>100</maxWeakCount></stageParams>
  <featureParams>
    <maxCatCount>256</maxCatCount>
    <featSize>1</featSize></featureParams>
  <stageNum>7</stageNum>
  <stages>
    <!-- stage 0 -->
    <_>
      <maxWeakCount>2</maxWeakCount>
      <stageThreshold>-3.1750991940498352e-01</stageThreshold>
      <weakClassifiers>
        <_>
          <internalNodes>
            0 -1 13 -776212257 -1073364985 -805302256 -872286191
            -1719648104 -1073545215 -1505115909 -592721429</internalNodes>
          <leafValues>
            -9.3877553939819336e-01 6.2962961196899414e-01</leafValues></_>
        <_>
          <internalNodes>
            0 -1 0 -251145729 -615825407 -989789997 -251195381
            -2004695909 453656585 -2142516341 1400883599</internalNodes>
          <leafValues>
            -9.4713956117630005e-01 6.8832218647003174e-01</leafValues></_></weakClassifiers></_>
    <!-- stage 1 -->
    <_>
      <maxWeakCount>3</maxWeakCount>
      <stageThreshold>-1.2649470567703247e+00</stageThreshold>
      <weakClassifiers>
        <_>
          <internalNodes>
            0 -1 2 -618925061 -174865661 -2130669539 -679411707
            -1073680332 -1727954943 -261832536 -683414945</internalNodes>
          <leafValues>
            -9.4105261564254761e-01 4.7999998927116394e-01</leafValues></_>
        <_>
          <internalNodes>
            0 -1 5 293657055 1461256194 1358976959 353439751 33003
            2072150024 -2139060037 436734379</internalNodes>
          <leafValues>
            -9.5412629842758179e-01 5.5700558423995972e-01</leafValues></_>
        <_>
          <internalNodes>
            0 -1 9 1896305087 1560285233 276828633 -1659514873
            -931135300 -360709495 -1711275432 -100087167</internalNodes>
          <leafValues>
            -9.4117248058319092e-01 6.3023179769515991e-01</leafValues></_></weakClassifiers></_>
    <!-- stage 2 -->
    <_>
      <maxWeakCount>2</maxWeakCount>
      <stageThreshold>-3.0826681852340698e-01</stageThreshold>
      <weakClassifiers>
        <_>
          <internalNodes>
            0 -1 15 -238029857 -1039007726 1090584613 -2079813541
            -1878884213 -2113404928 -939294581 -607134833</internalNodes>
          <leafValues>
            -9.1967868804931641e-01 6.5354329347610474e-01</leafValues></_>
        <_>
          <internalNodes>
            0 -1 3 -180101281 -32403286 -804157409 -687746799 1217022085
            -2013183871 1518479367 -78680049</internalNodes>
          <leafValues>
            -9.6181011199951172e-01 6.8144941329956055e-01</leafValues></_></weakClassifiers></_>
    <!-- stage 3 -->
    <_>
      <maxWeakCount>3</maxWeakCount>
      <stageThreshold>-1.0863972902297974e+00</stageThreshold>
      <weakClassifiers>
        <_>
          <internalNodes>
            0 -1 6 337074143 -583007984 16875807 290291795 805372383
            -402489214 142641899 -1157096790</internalNodes>
          <leafValues>
            -9.1701245307922363e-01 4.6853145956993103e-01</leafValues></_>
        <_>
          <internalNodes>
            0 -1 4 -75506981 -1055276985 1107312667 1396854793
            -939409120 1694499330 -930447154 -72621505</internalNodes>
          <leafValues>
            -8.3237129449844360e-01 7.6154392957687378e-01</leafValues></_>
        <_>
          <internalNodes>
            0 -1 14 -3148833 1132707840 1216446609 1157693569
            -1073512305 -2146992096 -804156785 1080292327</internalNodes>
          <leafValues>
            -9.4338983297348022e-01 6.6298645734786987e-01</leafValues></_></weakClassifiers></_>
    <!-- stage 4 -->
    <_>
      <maxWeakCount>2</maxWeakCount>
      <stageThreshold>-4.2263191938400269e-01</stageThreshold>
      <weakClassifiers>
        <_>
          <internalNodes>
            0 -1 1 -749612577 -40435491 1073742041 1360068737
            -1970659173 851705984 19961979 2068797691</internalNodes>
          <leafValues>
            -9.6120691299438477e-01 4.4099378585815430e-01</leafValues></_>
        <_>
          <internalNodes>
            0 -1 7 -1072189081 -217857775 16781335 956301585 1090683530
            587203202 -2012708405 -82853685</internalNodes>
          <leafValues>
            -8.6362570524215698e-01 6.8288075923919678e-01</leafValues></_></weakClassifiers></_>
    <!-- stage 5 -->
    <_>
      <maxWeakCount>2</maxWeakCount>
      <stageThreshold>-4.9500998854637146e-01</stageThreshold>
      <weakClassifiers>
        <_>
          <internalNodes>
            0 -1 8 1895953407 -788459247 1090519381 -586608119
            -927891207 -1702360446 -2071876723 -869996032</internalNodes>
          <leafValues>
            -9.2827004194259644e-01 4.3046358227729797e-01</leafValues></_>
        <_>
          <internalNodes>
            0 -1 11 -637282817 -644677517 9469968 1904250897 1384171914
            -1979477998 -2130542407 -993857281</internalNodes>
          <leafValues>
            -9.2547357082366943e-01 5.7385718822479248e-01</leafValues></_></weakClassifiers></_>
    <!-- stage 6 -->
    <_>
      <maxWeakCount>2</maxWeakCount>
      <stageThreshold>-3.9420846104621887e-01</stageThreshold>
      <weakClassifiers>
        <_>
          <internalNodes>
            0 -1 10 4804063 -582679995 402755805 -654244462 -360685349
            -1149239104 1250105531 -1081374550</internalNodes>
          <leafValues>
            -9.0965092182159424e-01 4.9275362491607666e-01</leafValues></_>
        <_>
          <internalNodes>
            0 -1 12 -889062945 -490733422 1090519319 202330113
            -2012512085 -2137390943 -2147448502 -538182693</internalNodes>
          <leafValues>
            -8.8696205615997314e-01 6.7558544874191284e-01</leafValues></_></weakClassifiers></_></stages>
  <features>
    <_>
      <rect>
        0 27 20 10</rect></_>
    <_>
      <rect>
        0 38 19 8</rect></_>
    <_>
      <rect>
        0 58 3 3</rect></_>
    <_>
      <rect>
        0 64 4 2</rect></_>
    <_>
      <rect>
        1 56 2 4</rect></_>
    <_>
      <rect>
        6 67 18 1</rect></_>
    <_>
      <rect>
        11 67 14 1</rect></_>
    <_>
      <rect>
        21 4 9 6</rect></_>
    <_>
      <rect>
        21 64 6 1</rect></_>
    <_>
      <rect>
        24 65 7 1</rect></_>
    <_>
      <rect>
        25 67 9 1</rect></_>
    <_>
      <rect>
        27 16 10 14</rect></_>
    <_>
      <rect>
        28 36 9 5</rect></_>
    <_>
      <rect>
        48 57 4 4</rect></_>
    <_>
      <rect>
        51 47 3 6</rect></_>
    <_>
      <rect>
        53 60 2 3</rect></_></features></cascade>
</opencv_storage>
